-0.0136126, -0.00262504, -0.593547, 0.00131696, -0.001256, 0.00109466, 0.0316228, 0.0316228, 0.0316228, 0.0316228, 0.0316228, 0.0316228
-0.0136126, -0.00262504, -0.593547, 0.00131696, -0.001256, 0.00109466, 0.0316228, 0.0316228, 0.0316228, 0.0316228, 0.0316228, 0.0316228
-0.0136129, -0.00263096, -0.59354, 0.0013095, -0.00135955, 0.0010022, 0.0316226, 0.031622, 0.031622, 0.0315879, 0.0314358, 0.031435
-0.0136131, -0.0026354, -0.593532, 0.00130954, -0.00142927, 0.000963765, 0.0316223, 0.0316208, 0.0316208, 0.0315441, 0.0313431, 0.0313434
-0.0136126, -0.00264309, -0.593527, 0.00131376, -0.00146787, 0.000914961, 0.0316218, 0.0316175, 0.0316173, 0.0314895, 0.0311827, 0.0311893
-0.0136131, -0.00264346, -0.593527, 0.00130855, -0.00146329, 0.000916758, 0.0316211, 0.031617, 0.0316169, 0.0314737, 0.0311557, 0.0311612
-0.013614, -0.00265982, -0.593524, 0.00130459, -0.00148046, 0.000823151, 0.0316203, 0.0316101, 0.0316094, 0.0314077, 0.0308946, 0.0309228
-0.0136157, -0.00268243, -0.593511, 0.00129837, -0.00154812, 0.000710488, 0.031619, 0.0315983, 0.0315957, 0.0313296, 0.0305214, 0.0306121
-0.0136186, -0.00272315, -0.593493, 0.00128149, -0.00163085, 0.000531092, 0.031617, 0.0315809, 0.0315734, 0.0312385, 0.0300333, 0.0302597
-0.0136183, -0.00272726, -0.593477, 0.00128944, -0.00159824, 0.000549526, 0.0316145, 0.0315795, 0.0315713, 0.0312229, 0.0299987, 0.0302107
-0.0136216, -0.00277965, -0.593487, 0.00127625, -0.00155944, 0.000342283, 0.031612, 0.0315578, 0.0315391, 0.0311187, 0.029407, 0.0298507
-0.0136267, -0.00284129, -0.593486, 0.00127712, -0.00155844, 0.000131045, 0.0316084, 0.0315326, 0.0314953, 0.0309999, 0.0287377, 0.0295286
-0.0136323, -0.00289785, -0.593459, 0.00126709, -0.00164928, -3.59705e-05, 0.0316035, 0.0315057, 0.0314397, 0.030865, 0.0280281, 0.0292721
-0.0136353, -0.00290125, -0.59343, 0.00126507, -0.00157083, -9.10987e-06, 0.0315974, 0.0315037, 0.0314343, 0.0308499, 0.0279771, 0.0291551
-0.0136414, -0.00295754, -0.593426, 0.00126335, -0.00157936, -0.000155298, 0.0315918, 0.0314774, 0.0313683, 0.030698, 0.0272595, 0.0289552
-0.0136477, -0.00299354, -0.593402, 0.00127008, -0.0016428, -0.000232904, 0.0315845, 0.0314515, 0.0312921, 0.0305268, 0.0265688, 0.0288175
-0.013652, -0.00303933, -0.59338, 0.00129083, -0.00169756, -0.000314368, 0.0315755, 0.0314264, 0.0312066, 0.0303342, 0.0259282, 0.0287267
-0.0136479, -0.00304837, -0.59332, 0.00129618, -0.0015582, -0.000215626, 0.0315639, 0.0314244, 0.0311959, 0.0303196, 0.0258458, 0.0284952
-0.0136503, -0.00308764, -0.593304, 0.00133047, -0.00160074, -0.000272801, 0.0315544, 0.0314008, 0.0311027, 0.0301041, 0.0252595, 0.0284288
-0.0136526, -0.00312686, -0.593321, 0.00136458, -0.00156857, -0.000317417, 0.031543, 0.0313779, 0.031001, 0.0298621, 0.0247387, 0.0283829
-0.0136548, -0.00316126, -0.593299, 0.00140117, -0.00161109, -0.000346533, 0.0315297, 0.0313555, 0.0308908, 0.0295908, 0.0242837, 0.0283459
-0.0136473, -0.00316834, -0.593219, 0.00140731, -0.00142384, -0.000239508, 0.0315119, 0.0313537, 0.0308725, 0.0295769, 0.0241562, 0.0279853
-0.0136429, -0.00319522, -0.593202, 0.00143748, -0.00145734, -0.000254073, 0.031499, 0.0313324, 0.0307554, 0.0292746, 0.02376, 0.0279529
-0.0136368, -0.00322284, -0.593187, 0.0014696, -0.0014907, -0.000259643, 0.0314845, 0.0313114, 0.0306291, 0.0289371, 0.0234217, 0.0279169
-0.0136325, -0.00324751, -0.593144, 0.00148776, -0.00155102, -0.000254597, 0.0314685, 0.0312906, 0.0304926, 0.0285617, 0.0231332, 0.0278719
-0.013615, -0.00325989, -0.593066, 0.00149966, -0.00132026, -0.000142283, 0.0314454, 0.0312886, 0.0304593, 0.0285486, 0.0229453, 0.0273844
-0.0136091, -0.00328826, -0.593054, 0.00151039, -0.0013425, -0.000139586, 0.0314303, 0.0312657, 0.0303227, 0.0281827, 0.0226671, 0.0273599
-0.0136014, -0.00331703, -0.593049, 0.00153774, -0.00136062, -0.000134073, 0.0314141, 0.0312433, 0.0301741, 0.0277625, 0.0224344, 0.0273247
-0.0135968, -0.00333782, -0.593055, 0.0016105, -0.00137017, -0.000139596, 0.0313973, 0.0312214, 0.0300125, 0.027288, 0.0222374, 0.0272741
-0.0135568, -0.0033378, -0.592847, 0.00165035, -0.00102629, -7.88809e-05, 0.0313709, 0.0312199, 0.0299367, 0.0272703, 0.0219534, 0.0266314
-0.0135508, -0.00336227, -0.592847, 0.00166853, -0.00103831, -6.77249e-05, 0.0313559, 0.0311978, 0.0297656, 0.0267683, 0.0217923, 0.0265865
-0.0135377, -0.00337472, -0.59291, 0.00170156, -0.00101628, -6.49101e-05, 0.0313406, 0.0311764, 0.0295788, 0.0262085, 0.0216538, 0.0265252
-0.0135336, -0.0033841, -0.592955, 0.00176227, -0.00100116, -7.4727e-05, 0.0313251, 0.0311555, 0.0293758, 0.0255976, 0.0215302, 0.02645
-0.013478, -0.00338031, -0.592766, 0.00181271, -0.000773166, -9.95279e-05, 0.0312966, 0.0311542, 0.0292215, 0.0255741, 0.0211132, 0.0257063
-0.0134747, -0.00339317, -0.592773, 0.0018177, -0.000777248, -8.28304e-05, 0.0312836, 0.0311345, 0.0290112, 0.0249231, 0.0210065, 0.0256476
-0.0134705, -0.00342072, -0.592867, 0.00174139, -0.000741861, -4.38173e-05, 0.0312705, 0.0311152, 0.0287837, 0.0242336, 0.0209077, 0.0255782
-0.0134666, -0.00345408, -0.593263, 0.00165874, -0.000614976, 3.01402e-06, 0.0312576, 0.0310966, 0.0285471, 0.0235382, 0.020811, 0.0255086
-0.013463, -0.00345846, -0.593309, 0.00165088, -0.000585121, 6.48217e-05, 0.0312279, 0.0310955, 0.0282844, 0.0235072, 0.0202312, 0.0246968
-0.0134496, -0.00346528, -0.593709, 0.00175248, -0.000461306, 5.47104e-05, 0.0312171, 0.0310799, 0.0280958, 0.0229055, 0.0201444, 0.0246657
-0.0134526, -0.0034611, -0.593642, 0.0019084, -0.000496907, 5.30708e-05, 0.0312063, 0.0310668, 0.0279554, 0.0223744, 0.0200592, 0.0246402
-0.0134669, -0.00345035, -0.593267, 0.00197557, -0.000565978, 5.1392e-05, 0.0311961, 0.0310536, 0.0278097, 0.0217677, 0.0199783, 0.0246019
-0.0134594, -0.00345939, -0.593332, 0.00193438, -0.000598533, 0.000118171, 0.0311655, 0.0310515, 0.0274306, 0.0216812, 0.0191735, 0.0237045
-0.0134686, -0.00346654, -0.592539, 0.00184871, -0.000668633, 0.000171366, 0.031157, 0.0310343, 0.0272185, 0.0207724, 0.0190953, 0.0236389
-0.0134645, -0.0034857, -0.59204, 0.00179958, -0.000666422, 0.000219472, 0.0311486, 0.0310124, 0.0268968, 0.0196791, 0.0190018, 0.0235312
-0.0134594, -0.00352127, -0.591427, 0.00163712, -0.000616878, 0.000304623, 0.0311403, 0.0309911, 0.0265358, 0.0187389, 0.018901, 0.0234307
-0.0134009, -0.00352703, -0.591226, 0.00166156, -0.000379888, 0.000366487, 0.0311101, 0.0309905, 0.0260411, 0.0187091, 0.0180301, 0.0225688
-0.0133951, -0.0035534, -0.590274, 0.00156429, -0.000364766, 0.000435856, 0.031103, 0.030971, 0.0256406, 0.0179917, 0.0179437, 0.0225087
-0.0133879, -0.00357706, -0.589506, 0.00154569, -0.000362186, 0.000491113, 0.0310959, 0.0309541, 0.0251625, 0.0175167, 0.017854, 0.0224537
-0.0133824, -0.00358968, -0.588992, 0.00156487, -0.000367518, 0.000520511, 0.031089, 0.0309397, 0.0246843, 0.0171685, 0.0177579, 0.0223997
-0.0132194, -0.00355743, -0.587723, 0.00185492, 0.000780389, 0.00012635, 0.0310599, 0.0309392, 0.0241996, 0.0171317, 0.0168698, 0.0215708
-0.0132351, -0.00357848, -0.587111, 0.00189057, 0.000754339, 0.000189997, 0.0310538, 0.0309263, 0.0237962, 0.0168529, 0.016793, 0.0215153
-0.0132414, -0.00359519, -0.586675, 0.00193509, 0.000731766, 0.000240866, 0.0310478, 0.0309146, 0.0234195, 0.0166187, 0.0167058, 0.0214553
-0.0132329, -0.00360316, -0.586693, 0.00199362, 0.000695265, 0.000265606, 0.0310422, 0.0309037, 0.0230948, 0.0163817, 0.0166054, 0.0213912
-0.0132708, -0.0036068, -0.586665, 0.00195936, 0.000538681, 0.000356821, 0.0310147, 0.0309032, 0.0226138, 0.0163211, 0.0157631, 0.020605
-0.0132743, -0.00361112, -0.586576, 0.00195426, 0.00054294, 0.000363568, 0.0310098, 0.0308929, 0.0223606, 0.0160436, 0.0156772, 0.0205387
-0.0132749, -0.00361864, -0.586499, 0.00197712, 0.000543157, 0.000383397, 0.0310051, 0.030883, 0.0221294, 0.0157453, 0.0155726, 0.0204703
-0.0132672, -0.00362768, -0.586585, 0.00195158, 0.000517515, 0.000379416, 0.0310006, 0.0308734, 0.0219146, 0.0153983, 0.0154432, 0.0203997
-0.0133185, -0.00352138, -0.585425, 0.00260577, 0.00135463, 8.82882e-05, 0.0309736, 0.0308719, 0.0214513, 0.0152366, 0.0145718, 0.0197189
-0.0133251, -0.00353512, -0.585367, 0.00251207, 0.00139375, 7.91494e-05, 0.0309692, 0.0308619, 0.0212946, 0.0148575, 0.0144603, 0.0196431
-0.0133351, -0.00356435, -0.585215, 0.00237984, 0.00147526, 8.61217e-05, 0.0309651, 0.0308519, 0.0211727, 0.0144605, 0.0143237, 0.0195661
-0.0133453, -0.00359369, -0.585061, 0.0022961, 0.00158551, 0.000109307, 0.0309615, 0.0308424, 0.0210978, 0.0140933, 0.0141648, 0.0194876
-0.0136504, -0.00356608, -0.585286, 0.00236744, 0.00112477, -5.51579e-05, 0.0309361, 0.0308406, 0.0207588, 0.0138896, 0.0134438, 0.0189313
-0.0136565, -0.00359243, -0.585231, 0.00236289, 0.0011756, -2.4641e-05, 0.0309327, 0.0308309, 0.0207271, 0.0135766, 0.0133168, 0.0188446
-0.0136545, -0.00359873, -0.585233, 0.00243853, 0.00117365, 9.28817e-06, 0.0309296, 0.0308218, 0.0207105, 0.0132803, 0.0131715, 0.0187567
-0.0136517, -0.00358951, -0.585263, 0.00258035, 0.00112673, 4.62174e-05, 0.0309268, 0.0308135, 0.0206941, 0.0129664, 0.0130074, 0.0186673
-0.0139272, -0.00347554, -0.585154, 0.00310198, 0.000910358, 4.54149e-05, 0.0309039, 0.0308098, 0.0203929, 0.0126895, 0.0124389, 0.0182346
-0.0139292, -0.00345659, -0.585183, 0.00315911, 0.000889985, 4.92447e-05, 0.0309011, 0.0308008, 0.0203645, 0.0123413, 0.0122986, 0.0181338
-0.0139265, -0.00344222, -0.585256, 0.00312087, 0.000856413, 1.41984e-05, 0.0308984, 0.0307907, 0.0202717, 0.0118876, 0.012137, 0.0180304
-0.0139173, -0.0034465, -0.585485, 0.0029101, 0.000795443, -8.42397e-05, 0.0308958, 0.0307777, 0.0200269, 0.0112926, 0.0119565, 0.0179242
-0.014316, -0.00343475, -0.585952, 0.0029631, 9.80077e-05, 0.000152187, 0.0308746, 0.0307748, 0.0196205, 0.0110729, 0.0114827, 0.0175815
-0.0143101, -0.00347636, -0.586115, 0.00259601, 0.000141553, -5.45007e-06, 0.0308717, 0.0307589, 0.0191686, 0.0104173, 0.0113432, 0.0174517
-0.0143138, -0.00355364, -0.586043, 0.00216996, 0.000248155, -0.000140214, 0.0308692, 0.0307439, 0.0185298, 0.00982512, 0.0112097, 0.0173307
-0.0143137, -0.0036043, -0.586146, 0.00185808, 0.000307374, -0.000237791, 0.0308673, 0.0307318, 0.0178631, 0.00936871, 0.0110849, 0.0172214
-0.0146763, -0.00363303, -0.586405, 0.00181773, -0.000246757, 2.02359e-05, 0.0308455, 0.030729, 0.0174144, 0.00921252, 0.0107116, 0.0169021
-0.0146838, -0.00368346, -0.586408, 0.00156062, -0.000161439, -7.04749e-05, 0.0308437, 0.0307187, 0.0169182, 0.00885839, 0.010612, 0.0167865
-0.0146922, -0.00372215, -0.586497, 0.00135884, -8.12294e-05, -0.000132217, 0.0308422, 0.0307095, 0.0165867, 0.0085433, 0.0104979, 0.016677
-0.0146983, -0.0037553, -0.58671, 0.00120242, -4.49987e-05, -0.000168368, 0.0308409, 0.0307004, 0.0163622, 0.00821621, 0.0103622, 0.0165688
-0.0150608, -0.00389374, -0.587275, 0.000905959, -0.000628603, -0.000238483, 0.0308203, 0.0306976, 0.0159915, 0.00806303, 0.0100639, 0.0162917
-0.0150677, -0.00393486, -0.587427, 0.000785007, -0.000589976, -0.000254985, 0.0308189, 0.0306873, 0.0158598, 0.00771656, 0.00993062, 0.0161718
-0.0150746, -0.00398465, -0.587583, 0.000654074, -0.000595555, -0.000270482, 0.0308175, 0.0306755, 0.0157755, 0.00730176, 0.009759, 0.0160482
-0.0150813, -0.00403967, -0.587727, 0.000530071, -0.000674022, -0.00028486, 0.0308162, 0.0306618, 0.0157224, 0.00681305, 0.00953809, 0.0159208
-0.0154392, -0.00420902, -0.588626, 0.000220657, -0.00127889, -0.000324802, 0.0307977, 0.0306592, 0.0153866, 0.00674808, 0.00926477, 0.015676
-0.0154456, -0.00423244, -0.588735, 0.000233845, -0.00144618, -0.000261215, 0.0307962, 0.0306432, 0.0153606, 0.00625925, 0.00903607, 0.0155311
-0.0154528, -0.00425876, -0.588825, 0.000250803, -0.00169551, -0.000214284, 0.0307945, 0.0306269, 0.0153406, 0.00579018, 0.00875121, 0.0153902
-0.0154603, -0.00428147, -0.588906, 0.000299219, -0.00195607, -0.000164084, 0.0307927, 0.0306115, 0.0153224, 0.00541828, 0.00843409, 0.0152616
-0.0158124, -0.00437729, -0.589712, 0.000248348, -0.00243936, -0.000210021, 0.0307773, 0.0306093, 0.0149546, 0.00540862, 0.00817456, 0.0150277
-0.0158172, -0.00440042, -0.589766, 0.000295912, -0.0025587, -0.00014643, 0.0307752, 0.0305958, 0.0149433, 0.00515378, 0.0079202, 0.0148977
-0.0158267, -0.0044327, -0.589821, 0.000330583, -0.0026027, -8.91119e-05, 0.0307731, 0.0305839, 0.0149324, 0.00499104, 0.00768576, 0.014791
-0.0158455, -0.0044657, -0.589859, 0.000372157, -0.00253089, 4.47439e-06, 0.0307711, 0.0305737, 0.0149229, 0.00489023, 0.00748135, 0.0147047
-0.0161546, -0.00460873, -0.591019, 0.000336164, -0.00288089, -0.000322573, 0.0307581, 0.0305701, 0.0145016, 0.00488031, 0.00724406, 0.0144799
-0.0161745, -0.00464456, -0.591057, 0.000389557, -0.00279739, -0.000197308, 0.0307561, 0.0305614, 0.0144934, 0.00481447, 0.00710147, 0.0144035
-0.0161923, -0.00469033, -0.591112, 0.000437061, -0.00270751, -7.39816e-05, 0.0307543, 0.0305538, 0.0144721, 0.00477615, 0.00697461, 0.0143461
-0.0162065, -0.00474279, -0.591203, 0.000486693, -0.00261469, 5.20201e-05, 0.0307527, 0.030547, 0.0144242, 0.00475467, 0.00686055, 0.0142988
-0.0163659, -0.00479942, -0.591989, 0.000466295, -0.00279147, -0.000122985, 0.0307464, 0.0305429, 0.0139113, 0.00473988, 0.00663461, 0.0140827
-0.0163733, -0.00486207, -0.592032, 0.000509337, -0.00272486, -8.97977e-06, 0.0307448, 0.0305363, 0.0138445, 0.00472533, 0.00654677, 0.0140387
-0.0163821, -0.00492167, -0.592038, 0.000542484, -0.00266097, 8.87276e-05, 0.0307431, 0.0305298, 0.0137744, 0.00471248, 0.00645872, 0.013995
-0.0163912, -0.00498216, -0.592058, 0.000577073, -0.00259662, 0.000194376, 0.0307414, 0.0305234, 0.0137167, 0.00469737, 0.00636879, 0.0139517
-0.0165158, -0.00497005, -0.592532, 0.00057279, -0.00261362, 0.000268227, 0.0307376, 0.0305185, 0.0131981, 0.00468173, 0.00615632, 0.0136578
-0.0165168, -0.00503536, -0.592641, 0.000611694, -0.00255562, 0.000382436, 0.0307359, 0.0305122, 0.0131444, 0.00466355, 0.00608048, 0.0136175
-0.0165073, -0.00509656, -0.592839, 0.000657577, -0.00249893, 0.000490342, 0.030734, 0.0305058, 0.0130657, 0.00464156, 0.00600139, 0.0135751
-0.0164913, -0.00515263, -0.59311, 0.000716756, -0.00243652, 0.000591656, 0.0307319, 0.0304993, 0.0129514, 0.00461605, 0.00591946, 0.01353
-0.0165829, -0.00521879, -0.593643, 0.000691975, -0.00240036, 0.00016338, 0.0307265, 0.0304956, 0.0124959, 0.0046076, 0.00574752, 0.0131899
-0.0165586, -0.00527312, -0.593909, 0.000753184, -0.00234146, 0.000246016, 0.0307242, 0.0304892, 0.0123581, 0.0045795, 0.00567548, 0.013149
-0.0165403, -0.00532341, -0.594129, 0.000814312, -0.00227817, 0.000329848, 0.0307218, 0.0304833, 0.0122072, 0.0045514, 0.00560041, 0.0131083
-0.0165144, -0.0053683, -0.59441, 0.000888596, -0.00220895, 0.000400075, 0.0307193, 0.0304779, 0.0120513, 0.00452384, 0.00552251, 0.0130684
-0.0166771, -0.00539529, -0.594946, 0.000867646, -0.00217755, -0.00014513, 0.030712, 0.0304762, 0.0116894, 0.00451788, 0.00538038, 0.012802
-0.0166464, -0.00544184, -0.595169, 0.000935488, -0.00211952, -8.53762e-05, 0.0307096, 0.0304716, 0.0115466, 0.00448892, 0.00530915, 0.0127675
-0.0166216, -0.00548667, -0.595327, 0.000992244, -0.00206589, -3.06337e-05, 0.0307071, 0.0304676, 0.0114078, 0.00445964, 0.00523391, 0.0127337
-0.0165911, -0.00553241, -0.595513, 0.00105915, -0.0019956, 1.8762e-05, 0.0307044, 0.0304641, 0.0112742, 0.00442936, 0.0051548, 0.0127006
-0.0166648, -0.00559566, -0.595814, 0.00108698, -0.00188348, -0.000599467, 0.0306957, 0.0304601, 0.0109918, 0.00442325, 0.00502513, 0.0124713
-0.016656, -0.00563039, -0.595883, 0.00112465, -0.00184717, -0.000536422, 0.0306931, 0.0304571, 0.0108858, 0.0043899, 0.00495225, 0.0124431
-0.0166604, -0.00565692, -0.595897, 0.00114232, -0.00181961, -0.000471023, 0.0306906, 0.0304544, 0.0107959, 0.00435317, 0.0048769, 0.012416
-0.0166546, -0.00568747, -0.595954, 0.0011754, -0.00177698, -0.00041051, 0.0306881, 0.0304518, 0.0107165, 0.00431121, 0.00479907, 0.01239
-0.0167287, -0.00570448, -0.595911, 0.00120251, -0.00171078, -0.000231702, 0.0306788, 0.0304375, 0.0104705, 0.0043037, 0.00467579, 0.0121886
-0.0167347, -0.0057241, -0.595921, 0.00121137, -0.00168646, -0.000172795, 0.0306761, 0.0304347, 0.0104058, 0.00425459, 0.00460761, 0.0121659
-0.0167711, -0.00571229, -0.595847, 0.00116473, -0.00168515, -0.000106915, 0.0306735, 0.0304315, 0.0103507, 0.00419785, 0.00453728, 0.0121445
-0.0168027, -0.00569337, -0.59579, 0.0011238, -0.00167594, -4.64825e-05, 0.0306709, 0.0304274, 0.010304, 0.00413242, 0.00446575, 0.0121244
-0.0168486, -0.00576044, -0.595769, 0.00115412, -0.00159321, -0.000131566, 0.0306601, 0.0303909, 0.0101035, 0.00412444, 0.00434834, 0.0119395
-0.0168943, -0.00570901, -0.595699, 0.00108241, -0.0015975, -8.29091e-05, 0.0306574, 0.0303849, 0.0100658, 0.00404854, 0.00428778, 0.0119218
-0.0169481, -0.00562039, -0.595615, 0.000988933, -0.00161692, -4.87917e-05, 0.0306549, 0.030377, 0.0100337, 0.00396143, 0.00422606, 0.0119051
-0.0169924, -0.00552701, -0.595555, 0.000904215, -0.00163088, -2.02901e-05, 0.0306526, 0.0303658, 0.0100078, 0.00386015, 0.004163, 0.0118894
-0.0170584, -0.00551195, -0.595582, 0.000932471, -0.00152343, -0.000334534, 0.0306412, 0.0302941, 0.00985009, 0.00385092, 0.00405182, 0.0116853
-0.0171077, -0.00538955, -0.595539, 0.000824375, -0.00153789, -0.000319396, 0.0306389, 0.0302761, 0.00983011, 0.00373238, 0.00399825, 0.0116708
-0.0171425, -0.0052928, -0.595518, 0.00073363, -0.00153782, -0.000303824, 0.0306369, 0.0302505, 0.0098154, 0.00359647, 0.0039416, 0.0116558
-0.0171622, -0.0052359, -0.595517, 0.000659849, -0.0015283, -0.000294088, 0.030635, 0.0302145, 0.00980478, 0.0034444, 0.0038812, 0.0116394
-0.017157, -0.00552608, -0.595341, 0.000683399, -0.0014599, 4.56731e-06, 0.0306234, 0.0300811, 0.00965156, 0.00343323, 0.00377707, 0.0114603
-0.017181, -0.00544374, -0.59535, 0.000597492, -0.0014478, 7.75194e-06, 0.0306214, 0.0300309, 0.00964095, 0.00327049, 0.00372283, 0.0114427
-0.0171962, -0.00539605, -0.595369, 0.000514015, -0.00142472, 6.02233e-06, 0.0306195, 0.0299673, 0.00963129, 0.00310267, 0.00366489, 0.0114222
-0.0172079, -0.00536565, -0.595399, 0.000414607, -0.00139204, -5.73316e-06, 0.0306176, 0.0298876, 0.0096215, 0.0029338, 0.00360356, 0.0113986
-0.0171529, -0.00581394, -0.595229, 0.000417272, -0.0013071, 0.000125476, 0.0306054, 0.0296589, 0.00943579, 0.00292343, 0.00350741, 0.0112604
-0.0171701, -0.00574092, -0.595275, 0.000308433, -0.00127779, 0.00010381, 0.0306034, 0.0295619, 0.00942244, 0.00275997, 0.00345293, 0.0112347
-0.0171904, -0.0056292, -0.595333, 0.000191244, -0.00124536, 8.1147e-05, 0.0306012, 0.0294451, 0.00940839, 0.00260422, 0.00339562, 0.0112055
-0.0172066, -0.00552543, -0.595393, 8.65688e-05, -0.00120989, 6.06496e-05, 0.0305988, 0.0293054, 0.00939337, 0.00245882, 0.00333594, 0.0111729
-0.0172168, -0.00567371, -0.595365, 9.20239e-05, -0.00112173, 1.16639e-07, 0.0305859, 0.028965, 0.00919153, 0.00244965, 0.00324887, 0.011053
-0.0172403, -0.00550782, -0.595453, -3.77178e-05, -0.00108641, -4.04651e-05, 0.0305833, 0.028804, 0.00917273, 0.00231756, 0.00319642, 0.0110181
-0.0172605, -0.00533856, -0.595542, -0.000153712, -0.00104777, -6.99198e-05, 0.0305804, 0.0286142, 0.00915343, 0.002199, 0.0031421, 0.0109798
-0.0172611, -0.00531407, -0.595606, -0.000230839, -0.00100454, -9.66992e-05, 0.0305772, 0.0283934, 0.00913291, 0.00209325, 0.00308663, 0.0109374
-0.0172432, -0.00576227, -0.595437, -0.000212724, -0.000980718, 0.000195267, 0.0305641, 0.0279462, 0.00893502, 0.00208486, 0.00300867, 0.0108265
-0.0172416, -0.00576659, -0.595496, -0.000275044, -0.000937643, 0.000168402, 0.0305609, 0.0277099, 0.0089112, 0.00199088, 0.00295948, 0.0107817
-0.0172342, -0.00580092, -0.595566, -0.00034303, -0.000890124, 0.000128447, 0.0305575, 0.0274448, 0.00888579, 0.00190675, 0.00290989, 0.0107333
-0.0172128, -0.00595767, -0.59562, -0.000397612, -0.00083742, 8.0648e-05, 0.0305539, 0.0271517, 0.00885851, 0.00183173, 0.00286059, 0.0106818
-0.0172102, -0.00612, -0.595583, -0.000390944, -0.000785524, 9.86797e-05, 0.0305413, 0.0266119, 0.00864524, 0.00182328, 0.00278531, 0.0105857
-0.0171909, -0.00626653, -0.595636, -0.000438193, -0.000740135, 5.02299e-05, 0.030538, 0.026317, 0.00861591, 0.0017565, 0.00274229, 0.0105335
-0.0171721, -0.00642133, -0.595672, -0.000467573, -0.000702265, 1.65179e-05, 0.0305345, 0.0259989, 0.00858496, 0.00169697, 0.00269975, 0.010478
-0.0171492, -0.0066206, -0.595702, -0.000492041, -0.000663655, -1.89838e-05, 0.030531, 0.0256576, 0.00855126, 0.00164334, 0.00265771, 0.010419
-0.0172868, -0.00559305, -0.595942, -0.000485753, -0.000520754, -0.000294483, 0.0305196, 0.0250752, 0.00835251, 0.00163433, 0.00258406, 0.0103318
-0.0172613, -0.00582615, -0.59597, -0.000508608, -0.000487019, -0.00034606, 0.0305166, 0.0247461, 0.00831593, 0.00158759, 0.00254724, 0.0102708
-0.0172285, -0.00616568, -0.595975, -0.000522085, -0.000450799, -0.000401289, 0.0305137, 0.0243993, 0.00827593, 0.00154567, 0.00251048, 0.0102049
-0.0171839, -0.0066639, -0.595953, -0.000533377, -0.000410635, -0.000479854, 0.0305108, 0.02404, 0.00823166, 0.00150741, 0.00247432, 0.0101353
-0.0172282, -0.00651645, -0.596037, -0.000524436, -0.000388168, -0.000347626, 0.0305022, 0.0234965, 0.00802405, 0.00149732, 0.00239799, 0.010054
-0.0171874, -0.00702898, -0.595999, -0.000529383, -0.000354995, -0.000432325, 0.0304999, 0.0231779, 0.00798, 0.00146258, 0.00236602, 0.00998631
-0.0171556, -0.00748155, -0.595951, -0.000531266, -0.000329753, -0.000502022, 0.0304979, 0.0228589, 0.00793187, 0.00143049, 0.00233508, 0.00991484
-0.0171315, -0.00792392, -0.595878, -0.000528024, -0.000310042, -0.000558554, 0.0304961, 0.0225446, 0.00787911, 0.00140125, 0.00230502, 0.00983881
-0.0171658, -0.00755307, -0.596012, -0.000517029, -0.000256102, -0.000551263, 0.0304907, 0.0221311, 0.00767218, 0.00138951, 0.00223111, 0.00975437
-0.0171514, -0.00787563, -0.595967, -0.00051834, -0.000237907, -0.000605227, 0.0304894, 0.0218726, 0.00762495, 0.00136428, 0.00220521, 0.00968015
-0.0171409, -0.00814464, -0.595933, -0.000521664, -0.000221801, -0.000655552, 0.0304882, 0.0216275, 0.00757522, 0.00134285, 0.00218036, 0.00960094
-0.0171426, -0.00841195, -0.595858, -0.000518099, -0.000210867, -0.000685026, 0.0304872, 0.0213993, 0.00752332, 0.00132454, 0.00215671, 0.00951762
-0.0171574, -0.00813451, -0.596032, -0.000502798, -0.000161605, -0.000604153, 0.0304847, 0.0211673, 0.00732458, 0.00130934, 0.00209212, 0.00940973
-0.0171616, -0.00831729, -0.595988, -0.000502575, -0.000151405, -0.000632423, 0.0304838, 0.0209883, 0.00728496, 0.0012946, 0.00207321, 0.00933352
-0.0171532, -0.00842933, -0.596001, -0.000509231, -0.000137016, -0.000673817, 0.0304828, 0.020827, 0.00724567, 0.00128264, 0.00205603, 0.00925502
-0.0171716, -0.00865739, -0.59593, -0.000509493, -0.000128604, -0.000697562, 0.0304818, 0.0206827, 0.0072077, 0.0012726, 0.0020406, 0.00917613
-0.0171754, -0.00874248, -0.595868, -0.000511838, -0.0001475, -0.000640841, 0.0304807, 0.0205898, 0.00704171, 0.00125632, 0.00199526, 0.00904256
-0.0171949, -0.0088904, -0.595827, -0.000512789, -0.00014, -0.000644145, 0.0304796, 0.0204742, 0.00701893, 0.00124768, 0.00198455, 0.00897345
-0.0171488, -0.00878932, -0.595914, -0.000517799, -0.000124185, -0.000692633, 0.0304783, 0.0203726, 0.00699823, 0.00124046, 0.00197549, 0.00890443
-0.0171405, -0.00879617, -0.595931, -0.000517256, -0.000113361, -0.000691432, 0.0304769, 0.0202809, 0.00697826, 0.00123489, 0.00196722, 0.00883455
-0.0171823, -0.00870937, -0.595979, -0.000510577, -9.85004e-05, -0.000641153, 0.0304749, 0.0202491, 0.00684935, 0.00121898, 0.00193806, 0.0086631
-0.0171936, -0.0087754, -0.595971, -0.000510171, -9.03183e-05, -0.000623069, 0.0304733, 0.0201693, 0.00683872, 0.00121484, 0.0019326, 0.00860219
-0.0171312, -0.00861449, -0.59603, -0.000509881, -7.14255e-05, -0.000691754, 0.0304715, 0.0200969, 0.00682903, 0.001211, 0.00192775, 0.00853855
-0.0170562, -0.00843835, -0.596101, -0.000507075, -4.64587e-05, -0.000752103, 0.0304694, 0.0200331, 0.00681875, 0.00120743, 0.00192275, 0.0084702
-0.0171462, -0.0083569, -0.596203, -0.000497205, -2.4077e-05, -0.000682029, 0.0304646, 0.0200127, 0.00672496, 0.00119472, 0.0019019, 0.0082702
-0.0171063, -0.00830131, -0.596226, -0.000495431, -6.62179e-06, -0.000721643, 0.0304622, 0.0199581, 0.0067188, 0.0011919, 0.00189751, 0.00820601
-0.0170437, -0.00818789, -0.59626, -0.000492981, 1.72652e-05, -0.000782846, 0.0304597, 0.0199078, 0.00671234, 0.00118866, 0.00189278, 0.0081344
-0.0169472, -0.00801212, -0.596311, -0.000490576, 5.12388e-05, -0.000881187, 0.030457, 0.019864, 0.00670487, 0.00118481, 0.00188767, 0.00805626
-0.0171523, -0.00797947, -0.596266, -0.000486171, 5.59119e-05, -0.000846536, 0.0304477, 0.0198417, 0.00664358, 0.0011747, 0.00186794, 0.00782221
-0.0170719, -0.0078527, -0.596288, -0.000483294, 8.48357e-05, -0.000917022, 0.0304447, 0.0198049, 0.00663808, 0.0011709, 0.00186283, 0.0077481
-0.0169948, -0.00774331, -0.596302, -0.000479113, 0.000112538, -0.000971078, 0.0304417, 0.019773, 0.0066312, 0.00116642, 0.00185736, 0.00766606
-0.0169161, -0.00763291, -0.596311, -0.000474669, 0.000139561, -0.00101302, 0.0304387, 0.0197457, 0.00662266, 0.00116122, 0.00185167, 0.00757613
-0.0172311, -0.00761706, -0.59629, -0.00046769, 0.000151519, -0.000967012, 0.0304229, 0.019719, 0.00658617, 0.00115299, 0.00182884, 0.00731076
-0.0171753, -0.00754166, -0.59628, -0.000462362, 0.000170905, -0.000972715, 0.0304197, 0.0196962, 0.00657845, 0.00114817, 0.00182315, 0.00722798
-0.0171142, -0.00745331, -0.596263, -0.000458177, 0.000189284, -0.000976888, 0.0304167, 0.0196752, 0.00656934, 0.00114302, 0.00181737, 0.0071374
-0.0170729, -0.00740047, -0.596225, -0.000451982, 0.000197734, -0.00093144, 0.0304139, 0.0196548, 0.00655909, 0.00113761, 0.00181154, 0.00703892
-0.0174431, -0.0073724, -0.596279, -0.000452754, 0.000200948, -0.000897854, 0.0303904, 0.0196218, 0.00653838, 0.00113086, 0.00178394, 0.00675518
-0.0174237, -0.00734212, -0.596238, -0.000448366, 0.000202665, -0.000840512, 0.0303876, 0.0196014, 0.00652897, 0.00112621, 0.00177776, 0.00666527
-0.0173935, -0.00728326, -0.596218, -0.000448195, 0.000208758, -0.000804946, 0.030385, 0.0195792, 0.00651913, 0.00112137, 0.00177095, 0.00656439
-0.0173572, -0.00720131, -0.59621, -0.000451103, 0.000218721, -0.000795209, 0.0303827, 0.0195561, 0.00650888, 0.00111627, 0.00176348, 0.00645349
-0.0178706, -0.00710221, -0.59624, -0.000459746, 0.000222126, -0.000834798, 0.0303518, 0.0195206, 0.00649706, 0.00111039, 0.00173068, 0.00617923
-0.0178342, -0.00700725, -0.59625, -0.000464345, 0.000238413, -0.000866733, 0.0303494, 0.0194992, 0.00648713, 0.00110589, 0.0017227, 0.00608082
-0.0178064, -0.00693002, -0.596263, -0.000467605, 0.000253437, -0.000893458, 0.0303473, 0.019479, 0.00647646, 0.00110131, 0.00171422, 0.00597557
-0.0177796, -0.00684673, -0.596285, -0.000471026, 0.000272611, -0.000935231, 0.0303454, 0.0194599, 0.00646516, 0.00109662, 0.0017053, 0.00586435
-0.0184419, -0.00670852, -0.596329, -0.000495918, 0.000256829, -0.00104413, 0.030305, 0.0194177, 0.00646022, 0.00109006, 0.00167056, 0.00561047
-0.018426, -0.00665905, -0.596349, -0.000496632, 0.000272429, -0.00107087, 0.0303031, 0.0194011, 0.00644881, 0.00108603, 0.00166148, 0.00551699
-0.0184254, -0.00665616, -0.596337, -0.000494878, 0.000270592, -0.00103444, 0.0303014, 0.019385, 0.00643701, 0.0010817, 0.00165198, 0.00541829
-0.018427, -0.00665427, -0.596343, -0.00049206, 0.000276073, -0.00103089, 0.0302998, 0.0193679, 0.00642527, 0.0010766, 0.0016417, 0.00531284
-0.0192918, -0.00651555, -0.596332, -0.000494591, 0.000294478, -0.00118992, 0.0302501, 0.0193177, 0.00642344, 0.00106823, 0.00160547, 0.00509039
-0.0192912, -0.00650258, -0.596349, -0.000491611, 0.000306018, -0.00120916, 0.0302485, 0.0193013, 0.00641177, 0.00106307, 0.00159521, 0.00500137
-0.0192908, -0.00651514, -0.596336, -0.000489719, 0.000301074, -0.00116989, 0.030247, 0.0192857, 0.00640006, 0.00105717, 0.0015847, 0.00490912
-0.0192967, -0.00654643, -0.596337, -0.000483658, 0.000301665, -0.00115227, 0.0302456, 0.0192695, 0.00638884, 0.0010499, 0.00157349, 0.00481184
-0.0203984, -0.00649089, -0.596304, -0.000451825, 0.000370196, -0.00137214, 0.0301882, 0.0192154, 0.00638747, 0.00103859, 0.00153711, 0.0046243
-0.0204167, -0.00652881, -0.596343, -0.000438657, 0.000386711, -0.00141696, 0.0301868, 0.0191995, 0.00637628, 0.00103077, 0.00152622, 0.00454153
-0.0204358, -0.00657182, -0.596377, -0.000425613, 0.000401523, -0.00145502, 0.0301853, 0.0191842, 0.0063647, 0.00102218, 0.00151536, 0.0044578
-0.02046, -0.00664253, -0.596412, -0.000408889, 0.000414678, -0.00148456, 0.0301837, 0.0191689, 0.00635301, 0.00101242, 0.00150442, 0.00437306
-0.0216245, -0.00660958, -0.596386, -0.000389775, 0.000455686, -0.00169367, 0.0301192, 0.0191077, 0.00635134, 0.000998541, 0.00147198, 0.00421796
-0.021666, -0.00673539, -0.596445, -0.000363329, 0.000474068, -0.00174013, 0.0301176, 0.0190906, 0.0063393, 0.000987735, 0.00146175, 0.00414672
-0.0217003, -0.00684731, -0.596486, -0.000341958, 0.000485109, -0.0017611, 0.0301155, 0.0190717, 0.00632705, 0.000974949, 0.00145155, 0.0040741
-0.0217141, -0.0069379, -0.596494, -0.000327894, 0.000482689, -0.00173086, 0.0301131, 0.0190524, 0.00631569, 0.000959647, 0.00144125, 0.00399937
-0.0229269, -0.00693143, -0.596457, -0.00030881, 0.000511603, -0.00187944, 0.030045, 0.0189889, 0.00631333, 0.000944453, 0.0014146, 0.0038718
-0.022951, -0.00704423, -0.596475, -0.000289509, 0.000511459, -0.00186489, 0.0300429, 0.0189695, 0.00630302, 0.000927238, 0.00140511, 0.00380673
-0.0229683, -0.00713827, -0.596484, -0.00027237, 0.000509571, -0.00183885, 0.0300406, 0.018951, 0.00629396, 0.000907701, 0.00139581, 0.00374041
-0.0229704, -0.00722722, -0.596477, -0.000259362, 0.000499837, -0.00179108, 0.0300382, 0.0189346, 0.00628629, 0.000886082, 0.00138674, 0.00367325
-0.0242249, -0.00712186, -0.596412, -0.000239329, 0.000533681, -0.00196016, 0.0299713, 0.018879, 0.00628261, 0.000871029, 0.00136542, 0.0035732
-0.0242223, -0.00720082, -0.596398, -0.000228603, 0.000521324, -0.00190266, 0.0299694, 0.0188641, 0.00627599, 0.000848873, 0.00135733, 0.00351491
-0.0242259, -0.00728619, -0.596393, -0.000210577, 0.000515127, -0.00186746, 0.0299676, 0.0188509, 0.00627011, 0.000825664, 0.00134962, 0.00345691
-0.0242156, -0.00735491, -0.596376, -0.000197529, 0.000504939, -0.00181541, 0.0299657, 0.0188391, 0.00626467, 0.000801977, 0.00134236, 0.00340031
-0.0253798, -0.00728336, -0.596375, -0.000223215, 0.000481479, -0.00193738, 0.0299016, 0.0187946, 0.00625813, 0.000788284, 0.0013252, 0.00332357
-0.0253696, -0.00734903, -0.596364, -0.000207897, 0.000473723, -0.00190328, 0.0299, 0.0187831, 0.00625253, 0.000766218, 0.00131904, 0.00327687
-0.0253652, -0.00741141, -0.596358, -0.000186275, 0.000470424, -0.00188071, 0.0298983, 0.018773, 0.00624662, 0.000744751, 0.00131349, 0.00323311
-0.0253476, -0.00744233, -0.596336, -0.000171245, 0.000462705, -0.00184047, 0.0298964, 0.0187635, 0.00624017, 0.000723996, 0.00130853, 0.00319243
-0.0264936, -0.00731441, -0.596308, -0.000182338, 0.000461742, -0.00196889, 0.0298339, 0.0187199, 0.00623134, 0.000712825, 0.0012952, 0.00313153
-0.0264677, -0.00731164, -0.596274, -0.000173941, 0.000451146, -0.00192251, 0.029832, 0.0187108, 0.00622411, 0.000693977, 0.00129097, 0.00309838
-0.0264375, -0.00729072, -0.596236, -0.000162935, 0.000441581, -0.00187936, 0.0298299, 0.0187024, 0.00621612, 0.000675879, 0.00128708, 0.00306698
-0.0263935, -0.00723859, -0.596183, -0.000149617, 0.000430156, -0.00183109, 0.0298275, 0.0186932, 0.00620696, 0.000658399, 0.00128345, 0.00303704
-0.0274689, -0.00715651, -0.596151, -0.000152383, 0.000437577, -0.00193989, 0.0297677, 0.0186494, 0.00619501, 0.000649138, 0.00127262, 0.00298853
-0.0274113, -0.0070598, -0.596076, -0.000143464, 0.000422063, -0.0018788, 0.0297652, 0.0186384, 0.00618441, 0.000633061, 0.00126931, 0.00296307
-0.0273543, -0.00694558, -0.596, -0.00012779, 0.00040892, -0.00182587, 0.0297624, 0.0186249, 0.00617203, 0.000617311, 0.00126606, 0.00293781
-0.0272861, -0.00678692, -0.595907, -0.000106976, 0.00039492, -0.00177328, 0.0297592, 0.018607, 0.00615717, 0.000601689, 0.00126293, 0.00291319
-0.0283114, -0.00680396, -0.595943, -0.000121979, 0.000384715, -0.00185834, 0.0297028, 0.0185627, 0.00614179, 0.000594021, 0.00125386, 0.00287396
-0.0282323, -0.00660754, -0.595824, -0.000101378, 0.000363725, -0.00179288, 0.0296996, 0.0185402, 0.00612464, 0.000579227, 0.00125086, 0.0028525
-0.0281546, -0.00636651, -0.595701, -7.90637e-05, 0.00034635, -0.00172947, 0.0296962, 0.0185115, 0.00610425, 0.000564314, 0.00124787, 0.00283112
-0.0280645, -0.00607345, -0.595556, -5.7881e-05, 0.000326898, -0.00166028, 0.0296924, 0.0184754, 0.00608012, 0.000549321, 0.00124486, 0.00280981
-0.029006, -0.00600552, -0.595546, -6.40323e-05, 0.000333851, -0.00174345, 0.0296386, 0.0184307, 0.00605984, 0.000543061, 0.00123694, 0.0027785
-0.0289183, -0.0056846, -0.595395, -4.46902e-05, 0.000314129, -0.00167569, 0.0296348, 0.0183873, 0.00603262, 0.000528829, 0.00123389, 0.0027594
-0.0288201, -0.00530556, -0.595222, -2.61713e-05, 0.000293907, -0.00160255, 0.0296308, 0.0183336, 0.00600092, 0.000514678, 0.00123083, 0.00274057
-0.0287131, -0.00487307, -0.595032, -5.69746e-06, 0.000272934, -0.00152759, 0.0296263, 0.0182684, 0.00596432, 0.000500597, 0.00122776, 0.00272203
-0.0295448, -0.0049081, -0.595048, -1.08458e-05, 0.000274014, -0.00158229, 0.0295735, 0.0182227, 0.00594142, 0.00049591, 0.00122073, 0.00269725
-0.0294306, -0.00441359, -0.594834, 4.88182e-06, 0.000251158, -0.00150069, 0.0295691, 0.018147, 0.00590133, 0.000482633, 0.00121762, 0.00268059
-0.0293042, -0.00387287, -0.594599, 2.06203e-05, 0.000227501, -0.00141326, 0.0295643, 0.0180594, 0.00585614, 0.000469514, 0.00121445, 0.0026637
-0.0291811, -0.00331986, -0.594368, 4.12594e-05, 0.000204288, -0.00133372, 0.0295593, 0.0179592, 0.00580565, 0.00045649, 0.00121125, 0.0026467
-0.0299304, -0.00337007, -0.594401, 3.45909e-05, 0.000205467, -0.00138401, 0.0295073, 0.0179096, 0.00577854, 0.000453049, 0.00120451, 0.00262753
-0.0298068, -0.00275379, -0.594146, 5.30294e-05, 0.000180543, -0.00129624, 0.0295025, 0.0178001, 0.00572546, 0.000440634, 0.00120119, 0.00261171
-0.0296745, -0.00211961, -0.593881, 7.13592e-05, 0.00015498, -0.001206, 0.0294975, 0.01768, 0.00566767, 0.000428229, 0.00119776, 0.00259532
-0.0295423, -0.00149077, -0.593616, 8.88333e-05, 0.000129827, -0.0011137, 0.0294923, 0.0175507, 0.00560583, 0.000415881, 0.00119424, 0.00257851
-0.0302298, -0.00171038, -0.593698, 8.35253e-05, 0.00011632, -0.00112293, 0.029441, 0.0174943, 0.00557418, 0.000413596, 0.00118726, 0.00256366
-0.0300972, -0.00105214, -0.593415, 9.96216e-05, 8.84456e-05, -0.00101857, 0.0294363, 0.0173657, 0.00551304, 0.000401881, 0.00118346, 0.00254701
-0.0299672, -0.000459821, -0.59315, 0.000114622, 6.11642e-05, -0.000916031, 0.0294314, 0.0172352, 0.00545015, 0.000390426, 0.00117952, 0.00252949
-0.0298267, 0.000127095, -0.592882, 0.000129806, 3.31839e-05, -0.000808561, 0.0294263, 0.0171056, 0.00538669, 0.000379334, 0.00117549, 0.0025116
-0.0305391, -0.000145509, -0.593004, 0.000123575, 1.47272e-05, -0.00080909, 0.029375, 0.0170483, 0.00535459, 0.00037808, 0.00116803, 0.00249954
-0.0304068, 0.000403105, -0.592742, 0.000137478, -1.4504e-05, -0.000696372, 0.0293705, 0.0169306, 0.00529591, 0.000367743, 0.00116366, 0.00248154
-0.0303063, 0.000785825, -0.592552, 0.000147827, -3.68245e-05, -0.000611544, 0.0293658, 0.0168165, 0.00523838, 0.000357974, 0.00115934, 0.00246403
-0.0301699, 0.00123274, -0.592328, 0.000158784, -6.08028e-05, -0.000513286, 0.0293608, 0.016706, 0.0051826, 0.000348875, 0.00115515, 0.00244792
-0.0309096, 0.000815455, -0.592513, 0.000154678, -9.39072e-05, -0.000479179, 0.0293084, 0.0166483, 0.00514974, 0.000348261, 0.00114683, 0.00243697
-0.0307557, 0.00129361, -0.592259, 0.000167329, -0.000123283, -0.00035994, 0.029304, 0.0165557, 0.00510116, 0.000339896, 0.00114234, 0.00242058
-0.0306416, 0.0015904, -0.592084, 0.000177019, -0.000146322, -0.000268935, 0.0292994, 0.0164742, 0.00505611, 0.000332005, 0.00113773, 0.002404
-0.0305195, 0.00185513, -0.591924, 0.000184884, -0.000165469, -0.000188663, 0.0292946, 0.0163991, 0.00501436, 0.000324885, 0.00113333, 0.00238948
-0.0310943, 0.0016154, -0.592017, 0.000184424, -0.000187218, -0.000160955, 0.0292405, 0.016344, 0.00498189, 0.000324494, 0.00112423, 0.00237795
-0.030943, 0.00193622, -0.591816, 0.000194605, -0.000211391, -5.59438e-05, 0.0292363, 0.0162839, 0.00494717, 0.000317972, 0.00111965, 0.00236371
-0.0308086, 0.00216109, -0.591654, 0.00020349, -0.000232889, 3.4496e-05, 0.029232, 0.0162361, 0.00491665, 0.000311896, 0.00111492, 0.00234953
-0.0306959, 0.00229374, -0.591542, 0.000208467, -0.000247231, 9.83315e-05, 0.0292276, 0.0161953, 0.00488917, 0.000306346, 0.0011102, 0.00233678
-0.0311149, 0.00205782, -0.591608, 0.00021049, -0.00027075, 0.00013601, 0.0291736, 0.0161363, 0.00485473, 0.000305917, 0.00109993, 0.00232307
-0.0310081, 0.00219349, -0.591502, 0.0002147, -0.000282871, 0.000192019, 0.0291696, 0.0161028, 0.00483183, 0.000300876, 0.00109514, 0.00231163
-0.0308819, 0.00235172, -0.591387, 0.000218974, -0.000292981, 0.000246796, 0.0291654, 0.0160736, 0.004811, 0.000296302, 0.0010903, 0.00230162
-0.0307707, 0.00246093, -0.591301, 0.00022098, -0.000299122, 0.000283779, 0.0291609, 0.0160481, 0.00479207, 0.000292151, 0.00108532, 0.00229283
-0.0311904, 0.00222011, -0.591368, 0.000223665, -0.000323167, 0.000327172, 0.0291057, 0.0159855, 0.00475608, 0.000291528, 0.00107423, 0.00227672
-0.0310756, 0.00233424, -0.591285, 0.000224515, -0.000326685, 0.000356829, 0.0291016, 0.0159644, 0.00474042, 0.000287708, 0.0010691, 0.00226844
-0.0309363, 0.00249454, -0.591183, 0.000227135, -0.00033027, 0.000391511, 0.0290971, 0.0159464, 0.00472638, 0.000284195, 0.00106366, 0.00226079
-0.0307982, 0.00265022, -0.591085, 0.000230667, -0.000334048, 0.00042606, 0.0290924, 0.0159327, 0.00471424, 0.000280844, 0.00105774, 0.00225291
-0.0312685, 0.00226442, -0.591203, 0.00023507, -0.000367219, 0.000494674, 0.0290385, 0.0158606, 0.00467479, 0.000280012, 0.00104607, 0.00223438
-0.0311409, 0.00239723, -0.591117, 0.000237599, -0.000369426, 0.000523652, 0.0290346, 0.0158509, 0.00466559, 0.000276703, 0.00103974, 0.00222524
-0.0310115, 0.00252066, -0.59104, 0.000239256, -0.000369494, 0.000544887, 0.0290304, 0.0158413, 0.00465737, 0.000273516, 0.00103282, 0.00221562
-0.0308847, 0.00263951, -0.59097, 0.00024022, -0.000367947, 0.000558862, 0.0290258, 0.0158297, 0.00464957, 0.000270435, 0.00102523, 0.00220546
-0.0314843, 0.00214948, -0.591135, 0.000244885, -0.000402052, 0.000639867, 0.028975, 0.015744, 0.00460631, 0.000269419, 0.001013, 0.00218477
-0.031366, 0.00227004, -0.591073, 0.000244566, -0.000398742, 0.000645301, 0.0289708, 0.015729, 0.00459931, 0.00026639, 0.00100503, 0.00217347
-0.0312234, 0.00242749, -0.591001, 0.000243813, -0.00039188, 0.000644615, 0.028966, 0.0157092, 0.00459186, 0.000263454, 0.000996313, 0.00216154
-0.0310734, 0.00259236, -0.590929, 0.00024309, -0.000383551, 0.000641106, 0.0289609, 0.0156837, 0.004584, 0.000260588, 0.000986876, 0.00214863
-0.0315172, 0.00214561, -0.59106, 0.000247668, -0.000413885, 0.000712933, 0.028915, 0.0155753, 0.00453472, 0.000259427, 0.000974262, 0.00212572
-0.0313797, 0.00233051, -0.590992, 0.000244991, -0.000402687, 0.00069758, 0.0289102, 0.0155432, 0.00452682, 0.000256609, 0.000964581, 0.00211154
-0.0312392, 0.00254941, -0.590921, 0.000240761, -0.000390344, 0.000672308, 0.0289047, 0.0155062, 0.00451823, 0.000253883, 0.00095419, 0.00209676
-0.0310796, 0.00278201, -0.590845, 0.000236664, -0.000377034, 0.000645467, 0.0288982, 0.0154646, 0.004509, 0.000251225, 0.000943091, 0.00208124
-0.0314524, 0.00238709, -0.59096, 0.000240511, -0.000401991, 0.000706864, 0.0288554, 0.0153542, 0.00446025, 0.000250008, 0.000930735, 0.00205887
-0.0312834, 0.0026252, -0.590885, 0.000236439, -0.000387094, 0.000677895, 0.028849, 0.0153067, 0.00445074, 0.000247414, 0.000919637, 0.00204257
-0.031132, 0.00286904, -0.590813, 0.000232075, -0.000374706, 0.000648146, 0.0288418, 0.0152528, 0.00444033, 0.000244842, 0.000907849, 0.00202523
-0.0309913, 0.00315611, -0.590735, 0.000226477, -0.000362723, 0.00061239, 0.0288334, 0.0151936, 0.00442902, 0.000242247, 0.000895237, 0.00200668
-0.0311705, 0.00290292, -0.590789, 0.000230117, -0.000384564, 0.000659378, 0.0287954, 0.015077, 0.00438021, 0.000241018, 0.000883161, 0.00198489
-0.0310393, 0.00320622, -0.590711, 0.000223768, -0.000371788, 0.000619973, 0.0287864, 0.0150151, 0.00436859, 0.000238423, 0.000870495, 0.00196568
-0.0308993, 0.00352158, -0.590629, 0.000216835, -0.000358777, 0.000578326, 0.0287757, 0.0149509, 0.00435637, 0.000235743, 0.00085688, 0.00194507
-0.0307683, 0.00383025, -0.590549, 0.00020927, -0.00034786, 0.00053801, 0.0287631, 0.0148854, 0.00434368, 0.000232956, 0.000842318, 0.00192296
-0.0309649, 0.00357076, -0.590623, 0.000211474, -0.000362467, 0.00057485, 0.0287266, 0.0147862, 0.00430182, 0.000231773, 0.000830906, 0.00190376
-0.030851, 0.0038254, -0.590556, 0.000203557, -0.000353394, 0.000538703, 0.028713, 0.0147217, 0.00428937, 0.000228924, 0.000816347, 0.00188108
-0.0307083, 0.00405711, -0.590492, 0.000195503, -0.000343168, 0.000502416, 0.028697, 0.0146522, 0.00427602, 0.000225874, 0.000800694, 0.0018562
-0.0305246, 0.00429769, -0.590426, 0.000187891, -0.000329982, 0.000462892, 0.0286793, 0.0145765, 0.00426166, 0.000222669, 0.000784241, 0.00182941
-0.0305744, 0.00403255, -0.590537, 0.000188614, -0.000336403, 0.000484879, 0.0286448, 0.0144757, 0.00422237, 0.000221591, 0.000773599, 0.00181172
-0.0303678, 0.00427949, -0.590472, 0.000180956, -0.000321451, 0.00044268, 0.0286274, 0.0143999, 0.00420846, 0.000218425, 0.000757822, 0.00178534
-0.0300939, 0.004614, -0.590387, 0.000172441, -0.000299804, 0.000386368, 0.0286092, 0.01432, 0.00419402, 0.000215213, 0.000741726, 0.00175794
-0.0297817, 0.00500539, -0.59029, 0.000163636, -0.000274077, 0.000321351, 0.0285906, 0.014239, 0.00417962, 0.000212035, 0.000725605, 0.00173023
-0.0299186, 0.00480251, -0.59035, 0.000164878, -0.000283543, 0.000346927, 0.0285604, 0.0141418, 0.00414329, 0.000211124, 0.000716102, 0.00171521
-0.0295991, 0.00518325, -0.590259, 0.00015551, -0.000259522, 0.000283617, 0.0285427, 0.0140672, 0.00413046, 0.000208123, 0.000701145, 0.00168926
-0.02926, 0.005577, -0.590167, 0.000145492, -0.000234911, 0.000217932, 0.0285242, 0.0139952, 0.00411829, 0.000205173, 0.000686247, 0.00166341
-0.0289177, 0.00595022, -0.590081, 0.000135703, -0.000212352, 0.000156197, 0.0285046, 0.0139268, 0.00410692, 0.00020228, 0.000671473, 0.00163783
-0.0290817, 0.00569209, -0.590161, 0.000136491, -0.000220515, 0.000181877, 0.0284774, 0.0138403, 0.00407535, 0.000201493, 0.000662899, 0.00162536
-0.0287341, 0.00602595, -0.590087, 0.000126778, -0.000200816, 0.000125772, 0.0284577, 0.0137793, 0.00406557, 0.000198729, 0.000649174, 0.00160146
-0.0283547, 0.00635161, -0.590016, 0.000116219, -0.00018162, 6.95359e-05, 0.0284364, 0.013722, 0.00405657, 0.000195989, 0.000635544, 0.00157778
-0.027956, 0.00665771, -0.58995, 0.00010617, -0.000163, 1.51807e-05, 0.0284135, 0.0136689, 0.00404836, 0.000193275, 0.000622055, 0.00155444
-0.0280876, 0.00640738, -0.590027, 0.0001072, -0.000172304, 4.26651e-05, 0.0283852, 0.0136031, 0.0040247, 0.000192583, 0.000614186, 0.00154419
-0.0276778, 0.00670814, -0.589964, 9.8027e-05, -0.000152386, -1.30716e-05, 0.028362, 0.0135548, 0.00401753, 0.000189978, 0.000601665, 0.00152233
-0.0272403, 0.00700486, -0.589906, 8.80692e-05, -0.000134023, -6.71571e-05, 0.0283373, 0.0135084, 0.00401085, 0.000187415, 0.000589275, 0.00150075
-0.0268024, 0.00727652, -0.589855, 7.9036e-05, -0.000116933, -0.000117738, 0.0283109, 0.0134643, 0.00400463, 0.000184877, 0.000577016, 0.00147945
-0.026814, 0.0071218, -0.589895, 8.06218e-05, -0.000128489, -9.09852e-05, 0.0282823, 0.0134036, 0.0039843, 0.000184295, 0.00056994, 0.00147091
-0.0263612, 0.00740187, -0.589844, 7.19352e-05, -0.000109642, -0.000144901, 0.0282557, 0.0133621, 0.00397868, 0.000181844, 0.000558529, 0.00145085
-0.0258613, 0.00767518, -0.5898, 6.21344e-05, -9.19313e-05, -0.00019817, 0.0282274, 0.0133222, 0.00397339, 0.000179419, 0.000547225, 0.00143108
-0.0253283, 0.00792846, -0.589762, 5.20627e-05, -7.47474e-05, -0.000250396, 0.028197, 0.0132851, 0.00396846, 0.000177014, 0.000536086, 0.00141176
-0.025318, 0.0078595, -0.589776, 5.34655e-05, -8.5331e-05, -0.000229594, 0.0281666, 0.0132271, 0.0039508, 0.000176537, 0.000529785, 0.00140466
-0.0247772, 0.00808701, -0.589746, 4.37816e-05, -6.81723e-05, -0.000280846, 0.0281353, 0.0131949, 0.00394656, 0.000174209, 0.000519489, 0.00138679
-0.0242341, 0.00828084, -0.589726, 3.47348e-05, -5.40409e-05, -0.000325508, 0.0281015, 0.0131654, 0.00394274, 0.00017191, 0.000509368, 0.00136946
-0.0236593, 0.00845128, -0.589714, 2.54509e-05, -4.17372e-05, -0.000366842, 0.0280648, 0.0131386, 0.00393928, 0.000169633, 0.000499443, 0.00135267
-0.0235636, 0.00846964, -0.589701, 2.71153e-05, -5.36116e-05, -0.000349147, 0.0280288, 0.0130939, 0.00392668, 0.000169234, 0.000493655, 0.00134685
-0.0229638, 0.00859901, -0.589704, 1.69549e-05, -4.26469e-05, -0.000387579, 0.0279906, 0.0130702, 0.00392355, 0.000167005, 0.00048451, 0.0013313
-0.0222868, 0.00867709, -0.589724, 5.45478e-06, -3.18795e-05, -0.000425338, 0.0279491, 0.0130489, 0.0039204, 0.000164783, 0.000475592, 0.00131635
-0.0216069, 0.00873527, -0.589745, -4.90893e-06, -2.06351e-05, -0.000462586, 0.0279046, 0.0130293, 0.00391713, 0.000162583, 0.000466935, 0.00130208
-0.021584, 0.00868026, -0.589756, -3.80044e-06, -3.07238e-05, -0.000444231, 0.0278592, 0.0129961, 0.0039091, 0.000162258, 0.000461612, 0.00129713
-0.0208943, 0.00874274, -0.589778, -1.35648e-05, -1.82659e-05, -0.0004838, 0.0278136, 0.012979, 0.00390599, 0.000160131, 0.000453673, 0.00128405
-0.0201672, 0.0088156, -0.589798, -2.30129e-05, -4.88585e-06, -0.000525616, 0.0277651, 0.0129645, 0.00390312, 0.000158066, 0.000445941, 0.00127164
-0.0194359, 0.00887297, -0.589824, -3.19587e-05, 6.82235e-06, -0.00056346, 0.0277137, 0.0129528, 0.00390058, 0.000156081, 0.000438432, 0.00125998
-0.0189954, 0.00889518, -0.589816, -2.95e-05, -1.03386e-05, -0.000534567, 0.0276558, 0.0129313, 0.00389636, 0.000155823, 0.000433478, 0.00125579
-0.01831, 0.00894973, -0.589842, -3.75099e-05, 7.58582e-07, -0.000570213, 0.0276034, 0.0129221, 0.00389415, 0.000153918, 0.000426596, 0.00124519
-0.0175817, 0.00900471, -0.58987, -4.53024e-05, 1.20899e-05, -0.000606619, 0.0275475, 0.0129148, 0.00389214, 0.000152071, 0.00041988, 0.00123521
-0.0168095, 0.009047, -0.589906, -5.35292e-05, 2.27948e-05, -0.000641861, 0.0274881, 0.0129093, 0.0038902, 0.00015029, 0.000413342, 0.00122589
-0.0162618, 0.00908124, -0.5899, -5.11774e-05, 5.45406e-06, -0.000614058, 0.0274172, 0.0128943, 0.003888, 0.000150083, 0.000408719, 0.00122239
-0.0154799, 0.00911703, -0.589939, -5.90434e-05, 1.71009e-05, -0.000650712, 0.027357, 0.0128899, 0.00388608, 0.000148374, 0.000402738, 0.00121399
-0.0146684, 0.00913191, -0.589985, -6.67653e-05, 2.81401e-05, -0.00068548, 0.0272933, 0.0128864, 0.00388399, 0.000146736, 0.000396923, 0.00120624
-0.0138746, 0.00912799, -0.590033, -7.35043e-05, 3.85205e-05, -0.000717488, 0.0272264, 0.0128834, 0.00388164, 0.000145165, 0.000391276, 0.00119912
-0.0135743, 0.00914359, -0.590031, -7.21915e-05, 2.56023e-05, -0.000698308, 0.0271393, 0.012874, 0.00388078, 0.000145003, 0.000386959, 0.00119606
-0.0128056, 0.00913152, -0.590082, -7.86741e-05, 3.47402e-05, -0.00072739, 0.0270716, 0.0128711, 0.00387828, 0.00014349, 0.000381788, 0.00118966
-0.0120367, 0.0091048, -0.590137, -8.49963e-05, 4.29945e-05, -0.000753983, 0.0270005, 0.0128683, 0.00387538, 0.00014202, 0.000376757, 0.00118375
-0.0113032, 0.0090638, -0.590193, -9.03623e-05, 4.97441e-05, -0.000776541, 0.0269259, 0.0128654, 0.00387204, 0.000140584, 0.000371861, 0.00117828
-0.0107941, 0.00907221, -0.590199, -8.88655e-05, 3.53409e-05, -0.000755661, 0.0268228, 0.0128585, 0.00387151, 0.000140453, 0.000367845, 0.00117563
-0.0100863, 0.00902962, -0.590255, -9.41837e-05, 4.13313e-05, -0.000776631, 0.0267479, 0.0128557, 0.00386801, 0.000139042, 0.000363365, 0.00117065
-0.00936046, 0.00897562, -0.590314, -9.92832e-05, 4.76548e-05, -0.000797605, 0.02667, 0.0128529, 0.00386409, 0.00013765, 0.000358994, 0.00116601
-0.00862325, 0.00891362, -0.590377, -0.000104421, 5.31699e-05, -0.000816959, 0.0265894, 0.0128501, 0.00385975, 0.000136282, 0.000354737, 0.00116171
-0.00811728, 0.00899147, -0.590373, -0.000103095, 4.16723e-05, -0.000807946, 0.0264724, 0.0128435, 0.00385902, 0.000136176, 0.000351119, 0.00115943
-0.00742851, 0.00892467, -0.590434, -0.000107996, 4.70483e-05, -0.000826108, 0.0263929, 0.0128407, 0.0038544, 0.000134845, 0.000347241, 0.00115556
-0.00673558, 0.00884802, -0.590497, -0.000112423, 5.19401e-05, -0.00084277, 0.0263115, 0.0128374, 0.00384929, 0.000133541, 0.000343472, 0.00115197
-0.00608513, 0.00877706, -0.590555, -0.000116159, 5.60605e-05, -0.000857437, 0.0262287, 0.0128338, 0.00384383, 0.00013226, 0.000339807, 0.00114862
-0.00541878, 0.00881645, -0.590566, -0.000114743, 4.22435e-05, -0.000844703, 0.0260935, 0.0128262, 0.0038421, 0.000132174, 0.000336414, 0.00114644
-0.00484652, 0.00876015, -0.590616, -0.000118036, 4.5618e-05, -0.000857511, 0.0260134, 0.0128227, 0.00383683, 0.000130911, 0.00033306, 0.00114333
-0.00427739, 0.00870322, -0.590667, -0.00012163, 4.84903e-05, -0.000869503, 0.0259322, 0.0128185, 0.00383136, 0.000129658, 0.000329782, 0.00114037
-0.00373151, 0.00866607, -0.59071, -0.000124404, 5.14338e-05, -0.000881298, 0.0258501, 0.012813, 0.0038257, 0.00012842, 0.000326589, 0.00113755
-0.00328695, 0.00865629, -0.590722, -0.00012348, 3.94638e-05, -0.000866218, 0.0257126, 0.0128024, 0.00382358, 0.000128343, 0.000323673, 0.00113569
-0.00274332, 0.00863479, -0.590762, -0.000126144, 4.36371e-05, -0.000880041, 0.0256339, 0.0127968, 0.00381824, 0.000127133, 0.000320754, 0.00113309
-0.00220285, 0.00862093, -0.5908, -0.000128661, 4.73565e-05, -0.000892959, 0.0255547, 0.0127906, 0.00381295, 0.000125957, 0.000317935, 0.0011307
-0.00173488, 0.00861523, -0.590832, -0.00013066, 4.94032e-05, -0.000902429, 0.0254749, 0.0127838, 0.00380773, 0.000124816, 0.000315223, 0.00112853
-0.00153277, 0.00858785, -0.59084, -0.000130297, 3.98315e-05, -0.000888229, 0.0253313, 0.0127715, 0.00380474, 0.000124748, 0.000312588, 0.00112676
-0.00108475, 0.00859567, -0.590867, -0.000132032, 4.19039e-05, -0.000897649, 0.0252548, 0.0127646, 0.00379989, 0.000123635, 0.000310119, 0.0011248
-0.000613369, 0.00862973, -0.590888, -0.000133239, 4.47577e-05, -0.000908368, 0.0251775, 0.0127577, 0.00379535, 0.000122546, 0.000307744, 0.00112302
-0.00024695, 0.00866854, -0.590902, -0.000133913, 4.60471e-05, -0.000915546, 0.0250992, 0.0127512, 0.00379128, 0.000121472, 0.000305461, 0.00112143
0.000248707, 0.00865396, -0.590918, -0.000133103, 3.55927e-05, -0.000904425, 0.0249595, 0.0127376, 0.00378787, 0.00012141, 0.000303168, 0.00111976
0.000517031, 0.00868214, -0.590929, -0.000134054, 3.53832e-05, -0.000908927, 0.0248848, 0.0127311, 0.00378449, 0.00012034, 0.000301075, 0.00111824
0.000803609, 0.00871088, -0.590943, -0.000135424, 3.5149e-05, -0.000913913, 0.0248088, 0.0127231, 0.00378143, 0.000119278, 0.00029904, 0.00111678
0.00110732, 0.00875884, -0.590953, -0.000136549, 3.56581e-05, -0.000920092, 0.0247317, 0.0127134, 0.00377864, 0.000118242, 0.000297075, 0.00111539
0.00164761, 0.00872641, -0.590975, -0.000135653, 2.64049e-05, -0.00091065, 0.0245957, 0.0126971, 0.00377432, 0.000118184, 0.000295055, 0.00111369
0.00198173, 0.00879587, -0.590982, -0.00013662, 2.7988e-05, -0.000918472, 0.0245235, 0.0126871, 0.0037721, 0.000117184, 0.000293273, 0.00111242
0.00230066, 0.00886341, -0.590989, -0.000137662, 2.91604e-05, -0.00092546, 0.0244509, 0.0126768, 0.00377021, 0.00011623, 0.000291583, 0.00111133
0.00262929, 0.00894308, -0.590994, -0.000138408, 2.997e-05, -0.000931893, 0.0243774, 0.012666, 0.00376855, 0.000115324, 0.000289977, 0.0011104
0.00294979, 0.00887542, -0.591013, -0.000137887, 2.28698e-05, -0.000923327, 0.0242445, 0.0126465, 0.00376269, 0.000115269, 0.000288132, 0.00110858
0.00331214, 0.00896759, -0.591017, -0.000138372, 2.45776e-05, -0.000930226, 0.0241762, 0.0126368, 0.00376138, 0.000114421, 0.000286714, 0.00110783
0.00354226, 0.00902978, -0.591019, -0.000138696, 2.45125e-05, -0.000933711, 0.0241068, 0.0126276, 0.00376023, 0.000113622, 0.000285384, 0.00110725
0.00375053, 0.00909415, -0.591018, -0.000138511, 2.45241e-05, -0.000936479, 0.0240352, 0.012618, 0.00375923, 0.000112848, 0.000284111, 0.00110676
0.0038352, 0.00903393, -0.59102, -0.000138338, 1.99879e-05, -0.00093291, 0.0239172, 0.0125973, 0.00375303, 0.000112792, 0.000282469, 0.00110482
0.00408112, 0.00911018, -0.591019, -0.000137748, 2.03669e-05, -0.000935572, 0.0238493, 0.0125878, 0.00375225, 0.00011204, 0.00028133, 0.00110439
0.0042778, 0.00917102, -0.591018, -0.000137165, 2.04127e-05, -0.000937269, 0.0237799, 0.0125776, 0.00375155, 0.000111305, 0.000280247, 0.00110399
0.0044361, 0.00922137, -0.591016, -0.000136485, 2.00912e-05, -0.000938187, 0.023709, 0.012566, 0.00375089, 0.000110584, 0.000279205, 0.00110361
0.00451197, 0.00916521, -0.591014, -0.000136268, 1.7356e-05, -0.000940144, 0.023605, 0.0125435, 0.00374419, 0.000110525, 0.000277718, 0.00110155
0.00462147, 0.00920562, -0.591012, -0.000135961, 1.69815e-05, -0.000941154, 0.0235376, 0.0125304, 0.00374358, 0.000109822, 0.000276776, 0.00110115
0.00482328, 0.00927352, -0.591011, -0.000135958, 1.69508e-05, -0.000943134, 0.0234685, 0.0125163, 0.00374288, 0.000109153, 0.000275875, 0.00110079
0.00512652, 0.00935658, -0.591014, -0.000136008, 1.70992e-05, -0.000944493, 0.0233982, 0.0125027, 0.00374186, 0.000108547, 0.000275032, 0.00110046
0.00478849, 0.00934749, -0.59098, -0.000136441, 1.63409e-05, -0.000947235, 0.0233081, 0.0124787, 0.00373479, 0.000108485, 0.000273631, 0.00109817
0.00501621, 0.0094043, -0.590983, -0.000136327, 1.59923e-05, -0.000947334, 0.0232408, 0.0124663, 0.0037334, 0.000107944, 0.000272895, 0.00109779
0.00526747, 0.00944888, -0.59099, -0.000136023, 1.55409e-05, -0.000946037, 0.0231715, 0.0124538, 0.00373149, 0.000107456, 0.000272185, 0.00109733
0.00549594, 0.00946492, -0.591001, -0.000135236, 1.47349e-05, -0.000943423, 0.0231003, 0.0124404, 0.0037289, 0.000107013, 0.000271488, 0.00109673
0.00516017, 0.00945586, -0.590964, -0.000135626, 1.62112e-05, -0.000952313, 0.0230233, 0.0124165, 0.00372168, 0.000106945, 0.000270105, 0.00109413
0.0053343, 0.0094472, -0.590976, -0.000134627, 1.52511e-05, -0.000949408, 0.0229539, 0.0124019, 0.00371857, 0.000106532, 0.000269458, 0.00109336
0.00537383, 0.0093999, -0.590986, -0.000133359, 1.45147e-05, -0.000947981, 0.0228815, 0.0123853, 0.00371496, 0.00010613, 0.000268803, 0.00109252
0.00543197, 0.00933067, -0.591003, -0.000131848, 1.38264e-05, -0.000945971, 0.0228058, 0.0123666, 0.00371106, 0.000105719, 0.000268143, 0.00109168
0.00500177, 0.00934057, -0.590954, -0.000132339, 1.63023e-05, -0.000957646, 0.022735, 0.0123423, 0.00370349, 0.000105647, 0.000266798, 0.00108902
0.00514047, 0.00927069, -0.590977, -0.000130785, 1.53659e-05, -0.000953934, 0.0226597, 0.0123221, 0.00369922, 0.000105235, 0.000266176, 0.00108812
0.00523421, 0.00918845, -0.591, -0.00012928, 1.44896e-05, -0.000951024, 0.0225816, 0.0123003, 0.00369433, 0.000104826, 0.000265542, 0.00108712
0.00531668, 0.0091154, -0.59102, -0.000127972, 1.3737e-05, -0.000948681, 0.0225007, 0.0122783, 0.0036891, 0.000104418, 0.000264899, 0.00108606
0.00475286, 0.00914051, -0.590955, -0.000128715, 1.76712e-05, -0.000965728, 0.0224342, 0.0122539, 0.0036811, 0.00010434, 0.000263611, 0.00108343
0.00488259, 0.0090931, -0.590973, -0.000127736, 1.68084e-05, -0.000962988, 0.0223542, 0.0122338, 0.00367573, 0.000103953, 0.000262995, 0.00108226
0.00503209, 0.00904333, -0.590994, -0.00012673, 1.59367e-05, -0.000960087, 0.0222721, 0.0122151, 0.00367, 0.000103594, 0.000262354, 0.00108094
0.00522717, 0.00900134, -0.591016, -0.000125952, 1.49294e-05, -0.000955875, 0.0221883, 0.0121974, 0.00366379, 0.000103269, 0.000261674, 0.00107937
0.00463663, 0.00905202, -0.590945, -0.000126639, 1.94244e-05, -0.000972353, 0.0221293, 0.0121755, 0.0036562, 0.000103188, 0.000260369, 0.00107655
0.00475432, 0.00900322, -0.590964, -0.00012571, 1.89707e-05, -0.000971175, 0.022047, 0.0121591, 0.00364973, 0.000102901, 0.000259682, 0.00107473
0.00481795, 0.00893992, -0.590983, -0.000124407, 1.94433e-05, -0.00097285, 0.0219631, 0.0121437, 0.00364324, 0.000102625, 0.000258977, 0.00107284
0.00489312, 0.00888591, -0.591001, -0.000123159, 1.98236e-05, -0.000975153, 0.0218782, 0.0121292, 0.00363689, 0.000102352, 0.000258266, 0.00107096
0.00434432, 0.00890996, -0.590934, -0.000123605, 2.63733e-05, -0.000995872, 0.0218218, 0.012106, 0.00362892, 0.000102269, 0.000257061, 0.0010681
0.00436321, 0.00885562, -0.590949, -0.000122124, 2.74732e-05, -0.00100116, 0.0217385, 0.0120938, 0.00362314, 0.000101997, 0.000256391, 0.00106631
0.00441, 0.00878734, -0.59097, -0.000120344, 2.87694e-05, -0.00100649, 0.0216543, 0.0120829, 0.00361788, 0.000101712, 0.000255741, 0.00106469
0.00447535, 0.00871685, -0.590993, -0.000118576, 3.00673e-05, -0.00101072, 0.0215695, 0.0120727, 0.00361303, 0.000101413, 0.00025511, 0.0010632
0.00393226, 0.00870678, -0.590929, -0.000118978, 3.70327e-05, -0.00103278, 0.0215143, 0.0120473, 0.00360461, 0.00010133, 0.000254058, 0.00106042
0.00398877, 0.00865477, -0.590948, -0.000117481, 3.80919e-05, -0.00103708, 0.0214321, 0.0120388, 0.00360045, 0.000101029, 0.000253474, 0.00105909
0.00406841, 0.00861735, -0.590965, -0.000116084, 3.90611e-05, -0.00104137, 0.0213501, 0.0120312, 0.00359672, 0.000100731, 0.000252884, 0.00105777
0.00414022, 0.00858114, -0.590983, -0.000114454, 4.05903e-05, -0.00104754, 0.0212689, 0.0120244, 0.00359347, 0.000100437, 0.000252287, 0.00105648
0.00363097, 0.00858163, -0.590924, -0.00011486, 4.57825e-05, -0.00106491, 0.0212167, 0.0119985, 0.00358506, 0.000100355, 0.000251343, 0.00105368
0.00376154, 0.00856666, -0.590942, -0.000113415, 4.67134e-05, -0.00106947, 0.0211393, 0.0119923, 0.00358252, 0.000100058, 0.000250789, 0.00105249
0.0039235, 0.0085653, -0.590958, -0.000112177, 4.75527e-05, -0.00107234, 0.0210639, 0.0119863, 0.00358029, 9.97748e-05, 0.000250215, 0.00105121
0.00406227, 0.00857137, -0.590973, -0.000110508, 4.92445e-05, -0.00107935, 0.020991, 0.0119802, 0.00357837, 9.94996e-05, 0.00024963, 0.00104986
0.00357386, 0.00857683, -0.590917, -0.000111047, 5.30515e-05, -0.00109399, 0.0209436, 0.0119563, 0.00357066, 9.942e-05, 0.000248755, 0.00104706
0.00376551, 0.00859912, -0.590932, -0.000109548, 5.42385e-05, -0.0010983, 0.0208755, 0.0119497, 0.0035692, 9.91448e-05, 0.00024821, 0.00104575
0.00400115, 0.00864173, -0.590946, -0.00010793, 5.54316e-05, -0.00110256, 0.0208104, 0.0119425, 0.00356792, 9.88773e-05, 0.000247655, 0.00104432
0.00424581, 0.00869752, -0.590959, -0.000105995, 5.7088e-05, -0.00110824, 0.0207486, 0.0119345, 0.00356681, 9.8608e-05, 0.000247106, 0.00104282
0.00376134, 0.00872581, -0.590896, -0.000106531, 6.19158e-05, -0.00112707, 0.0207046, 0.011912, 0.00355958, 9.85328e-05, 0.000246304, 0.00104005
0.00400419, 0.00878835, -0.590908, -0.000104581, 6.33965e-05, -0.00113247, 0.0206478, 0.0119032, 0.0035587, 9.82566e-05, 0.000245806, 0.00103861
0.00423278, 0.00885729, -0.590918, -0.000102493, 6.5013e-05, -0.00113873, 0.020594, 0.0118932, 0.00355796, 9.79686e-05, 0.000245328, 0.00103721
0.00448962, 0.00893627, -0.590928, -0.000100473, 6.61619e-05, -0.00114231, 0.0205432, 0.0118817, 0.00355731, 9.76669e-05, 0.000244869, 0.00103584
0.00406876, 0.00898251, -0.590868, -0.000100708, 7.11057e-05, -0.0011584, 0.0205047, 0.011863, 0.00355123, 9.75924e-05, 0.000244101, 0.00103317
0.00430295, 0.00906226, -0.590876, -9.87416e-05, 7.21189e-05, -0.00116209, 0.0204585, 0.0118507, 0.00355066, 9.72869e-05, 0.000243681, 0.0010318
0.00449462, 0.00913939, -0.590882, -9.67278e-05, 7.34845e-05, -0.00116739, 0.0204152, 0.0118364, 0.00355012, 9.69698e-05, 0.000243271, 0.00103043
0.0046692, 0.00922086, -0.590886, -9.47824e-05, 7.47914e-05, -0.00117231, 0.020375, 0.0118193, 0.00354957, 9.66373e-05, 0.000242872, 0.00102911
0.00426785, 0.00930682, -0.590818, -9.49602e-05, 8.0116e-05, -0.00118992, 0.0203413, 0.0118026, 0.00354433, 9.65678e-05, 0.000242117, 0.00102656
0.00442313, 0.00939327, -0.59082, -9.31282e-05, 8.12284e-05, -0.00119479, 0.0203055, 0.0117823, 0.0035437, 9.62257e-05, 0.000241752, 0.00102533
0.00454169, 0.0094782, -0.590818, -9.14929e-05, 8.23168e-05, -0.00120014, 0.0202728, 0.0117577, 0.00354288, 9.58734e-05, 0.000241385, 0.00102412
0.00467128, 0.00959242, -0.590811, -8.98717e-05, 8.3317e-05, -0.00120426, 0.0202433, 0.0117287, 0.0035418, 9.55144e-05, 0.000241009, 0.00102289
0.0042815, 0.00966071, -0.590753, -9.02533e-05, 8.63677e-05, -0.00121684, 0.0202124, 0.0117112, 0.00353682, 9.54561e-05, 0.000240263, 0.00102037
0.0043827, 0.00977678, -0.590743, -8.87314e-05, 8.73925e-05, -0.00122145, 0.020187, 0.0116783, 0.00353539, 9.50939e-05, 0.000239906, 0.0010191
0.00446496, 0.00989676, -0.59073, -8.73686e-05, 8.82579e-05, -0.00122626, 0.0201645, 0.01164, 0.00353343, 9.47255e-05, 0.000239537, 0.00101776
0.00452794, 0.0100225, -0.590715, -8.60649e-05, 8.92366e-05, -0.0012314, 0.0201446, 0.011596, 0.00353083, 9.43528e-05, 0.000239155, 0.00101634
0.00418123, 0.0100748, -0.590666, -8.63857e-05, 9.12573e-05, -0.00124019, 0.0201168, 0.0115745, 0.00352554, 9.43057e-05, 0.000238356, 0.00101369
0.0042425, 0.0102064, -0.590649, -8.51789e-05, 9.20391e-05, -0.00124449, 0.0201, 0.0115259, 0.0035223, 9.3933e-05, 0.000237991, 0.00101221
0.00428496, 0.0103586, -0.590626, -8.38591e-05, 9.30856e-05, -0.0012504, 0.0200852, 0.0114723, 0.00351835, 9.35576e-05, 0.000237616, 0.00101063
0.0043276, 0.0105127, -0.590603, -8.26286e-05, 9.38761e-05, -0.00125526, 0.0200723, 0.0114135, 0.00351362, 9.31764e-05, 0.000237237, 0.00100902
0.00405749, 0.010572, -0.590559, -8.28379e-05, 9.62271e-05, -0.00126422, 0.0200462, 0.0113878, 0.00350796, 9.31394e-05, 0.000236408, 0.0010062
0.00409212, 0.0107054, -0.590538, -8.17863e-05, 9.67809e-05, -0.00126728, 0.0200352, 0.0113271, 0.00350276, 9.27581e-05, 0.000236053, 0.00100454
0.00411844, 0.0108471, -0.590515, -8.07135e-05, 9.73877e-05, -0.00127062, 0.0200254, 0.0112634, 0.00349696, 9.23774e-05, 0.000235692, 0.00100278
0.00414219, 0.010988, -0.590491, -7.96646e-05, 9.7909e-05, -0.00127337, 0.0200166, 0.0111975, 0.00349066, 9.1997e-05, 0.000235329, 0.00100096
0.00386688, 0.0110343, -0.590452, -7.98411e-05, 9.94583e-05, -0.00127913, 0.0199928, 0.0111638, 0.003484, 9.19652e-05, 0.000234409, 0.000997659
0.00390123, 0.0111728, -0.590429, -7.87641e-05, 9.97324e-05, -0.00127912, 0.0199853, 0.0111002, 0.00347774, 9.15831e-05, 0.000234078, 0.000995806
0.00391388, 0.0112947, -0.590408, -7.78633e-05, 0.000100003, -0.00128146, 0.0199783, 0.0110375, 0.00347137, 9.12016e-05, 0.000233749, 0.000993847
0.00390635, 0.0113885, -0.590392, -7.71976e-05, 0.000100314, -0.00128541, 0.0199721, 0.0109744, 0.00346478, 9.08225e-05, 0.000233422, 0.00099197
0.00366882, 0.0115094, -0.590338, -7.74902e-05, 0.000102976, -0.00129697, 0.0199506, 0.010933, 0.00345726, 9.07886e-05, 0.000232423, 0.000988177
0.00366877, 0.0115751, -0.590327, -7.69641e-05, 0.000103015, -0.00129876, 0.0199453, 0.0108711, 0.00345069, 9.04162e-05, 0.000232117, 0.000986483
0.00369279, 0.0116435, -0.590315, -7.63048e-05, 0.000102857, -0.00129581, 0.0199404, 0.0108098, 0.00344408, 9.00579e-05, 0.000231804, 0.000984764
0.00370655, 0.0117037, -0.590305, -7.57198e-05, 0.000102753, -0.0012944, 0.019936, 0.010751, 0.00343766, 8.97118e-05, 0.000231488, 0.000982934
0.00345853, 0.0119213, -0.59023, -7.62511e-05, 0.000106625, -0.00131317, 0.0199168, 0.0106989, 0.00342877, 8.96653e-05, 0.000230373, 0.000978346
0.00346165, 0.0119561, -0.590225, -7.59045e-05, 0.000106503, -0.00131425, 0.0199129, 0.0106444, 0.00342279, 8.93275e-05, 0.000230075, 0.000976623
0.00347437, 0.0120219, -0.590214, -7.52383e-05, 0.000106378, -0.00131231, 0.0199093, 0.0105914, 0.0034169, 8.90021e-05, 0.000229774, 0.00097501
0.00348648, 0.0120972, -0.590201, -7.45081e-05, 0.000106217, -0.00131102, 0.0199059, 0.0105426, 0.00341142, 8.86804e-05, 0.000229477, 0.000973442
0.0032804, 0.0123231, -0.590129, -7.50834e-05, 0.00010988, -0.00132965, 0.0198886, 0.010481, 0.00340134, 8.86148e-05, 0.000228274, 0.000968176
0.00328228, 0.0123336, -0.590132, -7.49614e-05, 0.000109699, -0.00133495, 0.0198856, 0.0104377, 0.00339642, 8.82918e-05, 0.000227996, 0.00096685
0.00329066, 0.0123175, -0.59014, -7.48703e-05, 0.000109283, -0.00133752, 0.0198825, 0.0103924, 0.00339105, 8.79859e-05, 0.000227696, 0.00096594
0.00329939, 0.0123508, -0.590137, -7.43548e-05, 0.000109015, -0.0013373, 0.0198792, 0.0103477, 0.00338555, 8.76923e-05, 0.000227376, 0.000965241
0.0031282, 0.012385, -0.59011, -7.44871e-05, 0.00010981, -0.00134019, 0.0198637, 0.0102759, 0.00337413, 8.76058e-05, 0.000226102, 0.000959394
0.00315318, 0.0123799, -0.590119, -7.40921e-05, 0.00010903, -0.00134223, 0.0198604, 0.0102361, 0.00336901, 8.73077e-05, 0.000225784, 0.000958849
0.0032128, 0.0122623, -0.590156, -7.39859e-05, 0.000107011, -0.00134515, 0.0198566, 0.0101922, 0.003363, 8.70172e-05, 0.000225399, 0.000958582
0.00326684, 0.0121909, -0.590182, -7.33591e-05, 0.000105047, -0.00134372, 0.0198519, 0.0101396, 0.00335539, 8.67317e-05, 0.000224897, 0.000958459
0.00307755, 0.012332, -0.59013, -7.36928e-05, 0.00010685, -0.00135348, 0.0198377, 0.0100619, 0.00334315, 8.66313e-05, 0.000223625, 0.000952588
0.00312219, 0.0123221, -0.590141, -7.27206e-05, 0.000105321, -0.0013504, 0.0198323, 0.0100093, 0.00333503, 8.6332e-05, 0.000223074, 0.000952426
0.00320499, 0.0122106, -0.590178, -7.19512e-05, 0.000102757, -0.00134536, 0.0198256, 0.00995213, 0.00332569, 8.60275e-05, 0.000222432, 0.000952147
0.00329985, 0.0120843, -0.590218, -7.11096e-05, 9.99408e-05, -0.00133861, 0.019817, 0.00988554, 0.00331436, 8.57205e-05, 0.000221665, 0.000951639
0.00306628, 0.0123095, -0.590143, -7.16393e-05, 0.000102697, -0.00135374, 0.0198033, 0.00979143, 0.00329916, 8.56002e-05, 0.000220306, 0.000945191
0.0031324, 0.0122503, -0.590166, -7.07361e-05, 0.00010088, -0.00134792, 0.019793, 0.00972229, 0.00328682, 8.52846e-05, 0.00021949, 0.000944468
0.0032019, 0.0121775, -0.590191, -7.00064e-05, 9.91659e-05, -0.0013422, 0.0197802, 0.00964871, 0.00327308, 8.49724e-05, 0.000218615, 0.000943542
0.00329547, 0.0120678, -0.590226, -6.9305e-05, 9.70766e-05, -0.00133524, 0.0197646, 0.00956869, 0.00325763, 8.46668e-05, 0.000217678, 0.000942394
0.00310218, 0.0121369, -0.59019, -6.93711e-05, 9.79452e-05, -0.00133846, 0.0197499, 0.00945583, 0.00323887, 8.45244e-05, 0.000216202, 0.000935242
0.00320938, 0.0120137, -0.590229, -6.86822e-05, 9.57985e-05, -0.00133108, 0.0197318, 0.00937474, 0.00322266, 8.42197e-05, 0.000215261, 0.000933959
0.00336526, 0.0118272, -0.590286, -6.79624e-05, 9.28064e-05, -0.00132112, 0.0197105, 0.00928529, 0.00320446, 8.3922e-05, 0.000214255, 0.00093243
0.00354228, 0.0116178, -0.590349, -6.72126e-05, 8.95632e-05, -0.00130995, 0.0196856, 0.00918495, 0.0031839, 8.36287e-05, 0.000213165, 0.000930581
0.00319407, 0.0120059, -0.59023, -6.82122e-05, 9.43961e-05, -0.00133671, 0.01967, 0.00906036, 0.00316307, 8.34634e-05, 0.000211624, 0.000922909
0.00336589, 0.0118101, -0.59029, -6.75123e-05, 9.14543e-05, -0.00132618, 0.0196426, 0.00895773, 0.00314174, 8.31716e-05, 0.000210532, 0.00092094
0.00352852, 0.0116321, -0.590345, -6.67986e-05, 8.888e-05, -0.00131622, 0.0196117, 0.00884711, 0.00311858, 8.28839e-05, 0.000209385, 0.000918716
0.00366554, 0.0114942, -0.590389, -6.61158e-05, 8.68245e-05, -0.00130776, 0.0195779, 0.00873037, 0.00309392, 8.25997e-05, 0.000208197, 0.000916273
0.00340005, 0.0116582, -0.590327, -6.64659e-05, 8.87913e-05, -0.00131805, 0.0195614, 0.00860092, 0.00307226, 8.24178e-05, 0.000206629, 0.000908428
0.0035357, 0.0115306, -0.590369, -6.5831e-05, 8.68893e-05, -0.00131025, 0.0195259, 0.0084899, 0.00304828, 8.21366e-05, 0.000205502, 0.000906098
0.00373926, 0.0113236, -0.590433, -6.51079e-05, 8.40607e-05, -0.00129891, 0.0194877, 0.00837428, 0.00302315, 8.18581e-05, 0.000204343, 0.00090359
0.00397054, 0.0110815, -0.590508, -6.43454e-05, 8.08484e-05, -0.00128581, 0.0194474, 0.00825167, 0.00299671, 8.15786e-05, 0.000203127, 0.000900809
0.00371391, 0.0112796, -0.590439, -6.48375e-05, 8.32152e-05, -0.00129896, 0.0194318, 0.0081274, 0.00297622, 8.13857e-05, 0.000201598, 0.00089319
0.00392851, 0.0110595, -0.590506, -6.41529e-05, 8.02959e-05, -0.00128706, 0.0193914, 0.00800889, 0.00295067, 8.11053e-05, 0.000200416, 0.000890462
0.00406797, 0.0108968, -0.590554, -6.38254e-05, 7.83848e-05, -0.00127894, 0.0193496, 0.00788654, 0.00292447, 8.08261e-05, 0.000199203, 0.000887561
0.00417462, 0.0107427, -0.590595, -6.37527e-05, 7.68569e-05, -0.00127223, 0.0193062, 0.00776307, 0.00289798, 8.05559e-05, 0.000197996, 0.000884626
0.00388504, 0.0109858, -0.590512, -6.43373e-05, 7.91057e-05, -0.00128804, 0.0192926, 0.0076517, 0.00288006, 8.03571e-05, 0.000196545, 0.000877556
0.00390888, 0.010871, -0.590535, -6.47437e-05, 7.8385e-05, -0.00128481, 0.0192483, 0.00753767, 0.00285514, 8.01036e-05, 0.000195441, 0.000874957
0.00393531, 0.010655, -0.590574, -6.54898e-05, 7.66855e-05, -0.00127785, 0.0192011, 0.00742373, 0.00283007, 7.98729e-05, 0.000194369, 0.000872431
0.00388218, 0.0104576, -0.5906, -6.63498e-05, 7.51119e-05, -0.00127096, 0.0191504, 0.0073077, 0.00280471, 7.96657e-05, 0.000193301, 0.000869852
0.00369871, 0.0105456, -0.590558, -6.65004e-05, 7.53011e-05, -0.0012758, 0.0191428, 0.00722477, 0.00279249, 7.94675e-05, 0.000192004, 0.000863953
0.00359598, 0.0103913, -0.59057, -6.7226e-05, 7.3608e-05, -0.00126898, 0.0190881, 0.00711577, 0.00276822, 7.92872e-05, 0.000191005, 0.00086156
0.00353263, 0.0102293, -0.590589, -6.75975e-05, 7.16017e-05, -0.00126058, 0.0190294, 0.00700683, 0.00274394, 7.91261e-05, 0.000189981, 0.000859002
0.00335142, 0.0102192, -0.590566, -6.80391e-05, 7.09e-05, -0.00125785, 0.0189673, 0.00690022, 0.00271998, 7.8979e-05, 0.000188929, 0.000856283
0.00322363, 0.0102718, -0.590535, -6.80498e-05, 7.01307e-05, -0.00125974, 0.0189624, 0.00683937, 0.00271205, 7.87749e-05, 0.000187613, 0.000851127
0.00304187, 0.0103077, -0.590505, -6.83774e-05, 6.9839e-05, -0.0012588, 0.0188967, 0.00674469, 0.00268947, 7.8649e-05, 0.000186637, 0.000848636
0.00305049, 0.0102631, -0.590512, -6.82163e-05, 6.87085e-05, -0.00125462, 0.0188293, 0.00665611, 0.00266771, 7.85337e-05, 0.000185647, 0.000846079
0.00301924, 0.010257, -0.590508, -6.81034e-05, 6.77368e-05, -0.00125141, 0.0187622, 0.00657323, 0.00264701, 7.84209e-05, 0.000184623, 0.000843383
0.00290783, 0.0102893, -0.590481, -6.8106e-05, 6.66446e-05, -0.00125219, 0.0187579, 0.00652738, 0.00264173, 7.82066e-05, 0.000183186, 0.000838685
0.0028822, 0.0103237, -0.59047, -6.8001e-05, 6.606e-05, -0.00125077, 0.018691, 0.00645489, 0.00262255, 7.8103e-05, 0.000182226, 0.000836149
0.00296732, 0.0103056, -0.590481, -6.76899e-05, 6.51521e-05, -0.00124789, 0.0186256, 0.00638934, 0.00260464, 7.79989e-05, 0.000181247, 0.000833556
0.00305201, 0.0103519, -0.59048, -6.75403e-05, 6.50632e-05, -0.00124861, 0.0185628, 0.00633046, 0.0025881, 7.78912e-05, 0.000180252, 0.000830914
0.00305115, 0.0105255, -0.590427, -6.74682e-05, 6.10444e-05, -0.00125212, 0.0185583, 0.00629602, 0.00258467, 7.7659e-05, 0.000178613, 0.000826455
0.00308959, 0.010604, -0.590414, -6.75033e-05, 6.14864e-05, -0.0012546, 0.0184968, 0.00624597, 0.00256939, 7.75597e-05, 0.000177719, 0.000824075
0.00327674, 0.0106357, -0.590427, -6.7408e-05, 6.19791e-05, -0.0012569, 0.0184374, 0.0062013, 0.00255516, 7.74596e-05, 0.000176827, 0.00082172
0.00355242, 0.0106365, -0.590457, -6.72144e-05, 6.23141e-05, -0.00125839, 0.0183812, 0.00616064, 0.00254197, 7.7355e-05, 0.000175928, 0.000819343
0.00353503, 0.0106911, -0.590431, -6.68396e-05, 5.86284e-05, -0.00125488, 0.018377, 0.00613216, 0.00253936, 7.70976e-05, 0.000174088, 0.000814823
0.00380293, 0.0106991, -0.590458, -6.67276e-05, 5.91938e-05, -0.00125691, 0.0183238, 0.00609555, 0.00252704, 7.69989e-05, 0.000173283, 0.000812629
0.00406862, 0.0107032, -0.590484, -6.66024e-05, 5.95547e-05, -0.00125813, 0.018273, 0.00606143, 0.00251544, 7.68968e-05, 0.000172469, 0.000810391
0.00429103, 0.0107071, -0.590506, -6.64998e-05, 5.9741e-05, -0.00125866, 0.0182235, 0.00602926, 0.00250436, 7.67917e-05, 0.000171642, 0.000808101
0.00430708, 0.0107934, -0.590475, -6.56883e-05, 5.40945e-05, -0.00125034, 0.0182201, 0.00600346, 0.00250203, 7.65043e-05, 0.000169635, 0.000803348
0.00451477, 0.0107734, -0.590499, -6.55358e-05, 5.40202e-05, -0.00124951, 0.0181713, 0.00597349, 0.00249129, 7.64072e-05, 0.000168898, 0.000801211
0.00473252, 0.010744, -0.590526, -6.53481e-05, 5.37078e-05, -0.0012477, 0.0181227, 0.00594495, 0.0024809, 7.63054e-05, 0.000168133, 0.000798969
0.00494801, 0.0107238, -0.59055, -6.52251e-05, 5.34554e-05, -0.00124613, 0.0180737, 0.00591755, 0.00247075, 7.61994e-05, 0.000167343, 0.000796617
0.00491574, 0.0107233, -0.590535, -6.44931e-05, 4.89107e-05, -0.00123649, 0.0180708, 0.00589476, 0.0024688, 7.58677e-05, 0.000165086, 0.000791369
0.00510369, 0.0107044, -0.590556, -6.44368e-05, 4.87707e-05, -0.00123517, 0.0180204, 0.00586771, 0.00245845, 7.5773e-05, 0.000164383, 0.000789161
0.00534605, 0.0106619, -0.590587, -6.43124e-05, 4.84338e-05, -0.0012327, 0.0179688, 0.00584098, 0.00244804, 7.5676e-05, 0.000163655, 0.000786831
0.00563065, 0.0106061, -0.590625, -6.41629e-05, 4.80186e-05, -0.00122959, 0.0179156, 0.00581432, 0.0024375, 7.55754e-05, 0.000162896, 0.000784354
0.00560686, 0.0105636, -0.590624, -6.35896e-05, 4.49141e-05, -0.00122054, 0.0179136, 0.00579096, 0.00243537, 7.51951e-05, 0.000160466, 0.000778604
0.00594974, 0.0104926, -0.590671, -6.34029e-05, 4.44223e-05, -0.00121656, 0.0178589, 0.00576365, 0.00242447, 7.51057e-05, 0.000159791, 0.000776252
0.00633676, 0.0104159, -0.590724, -6.31737e-05, 4.38294e-05, -0.00121177, 0.0178024, 0.00573606, 0.0024133, 7.50124e-05, 0.000159082, 0.000773727
0.00683457, 0.01031, -0.590794, -6.27435e-05, 4.27563e-05, -0.0012043, 0.0177438, 0.0057082, 0.00240185, 7.49135e-05, 0.000158337, 0.00077101
0.00683794, 0.010311, -0.590785, -6.14283e-05, 3.70347e-05, -0.00118716, 0.0177421, 0.00568339, 0.00239938, 7.44882e-05, 0.00015579, 0.000764835
0.00736563, 0.0102066, -0.59086, -6.08919e-05, 3.59017e-05, -0.00117899, 0.0176818, 0.00565484, 0.00238748, 7.43968e-05, 0.00015512, 0.000762212
0.00792085, 0.0100942, -0.590938, -6.01383e-05, 3.42452e-05, -0.00116868, 0.0176195, 0.00562624, 0.00237535, 7.42935e-05, 0.000154403, 0.000759354
0.00849835, 0.00998757, -0.591019, -5.91817e-05, 3.2176e-05, -0.00115669, 0.0175549, 0.00559768, 0.00236298, 7.4174e-05, 0.00015363, 0.000756236
0.00843968, 0.0100173, -0.590999, -5.76199e-05, 2.586e-05, -0.00113844, 0.017553, 0.00556935, 0.00235977, 7.37156e-05, 0.000151063, 0.0007499
0.00901557, 0.00991314, -0.59108, -5.65561e-05, 2.36858e-05, -0.00112591, 0.0174851, 0.0055403, 0.00234681, 7.35951e-05, 0.000150342, 0.000746829
0.00959548, 0.00981778, -0.59116, -5.53601e-05, 2.13174e-05, -0.00111278, 0.0174142, 0.00551138, 0.00233357, 7.34528e-05, 0.000149557, 0.000743477
0.0101686, 0.00974442, -0.591236, -5.40615e-05, 1.8828e-05, -0.00109945, 0.0173392, 0.00548229, 0.00231984, 7.3287e-05, 0.000148703, 0.000739829
0.0100719, 0.00975168, -0.591218, -5.28459e-05, 1.40311e-05, -0.00108532, 0.017336, 0.00545035, 0.00231579, 7.27947e-05, 0.000146107, 0.000733362
0.0106235, 0.00970108, -0.591289, -5.15599e-05, 1.18454e-05, -0.00107338, 0.0172559, 0.00542047, 0.00230121, 7.26226e-05, 0.00014529, 0.000729727
0.0111781, 0.00965026, -0.59136, -5.01778e-05, 9.4456e-06, -0.00106068, 0.0171704, 0.00538993, 0.00228588, 7.24243e-05, 0.000144401, 0.000725775
0.0117694, 0.00960353, -0.591435, -4.86185e-05, 6.76798e-06, -0.00104676, 0.0170796, 0.00535875, 0.00226986, 7.21967e-05, 0.000143436, 0.000721505
0.011652, 0.00960414, -0.591418, -4.75991e-05, 2.95828e-06, -0.00103515, 0.017074, 0.00532242, 0.00226468, 7.16792e-05, 0.000140858, 0.000715072
0.0122613, 0.00957499, -0.591493, -4.59291e-05, 3.16369e-07, -0.00102142, 0.0169775, 0.00529023, 0.00224774, 7.14391e-05, 0.000139914, 0.00071079
0.012885, 0.00955739, -0.591568, -4.41062e-05, -2.53768e-06, -0.00100695, 0.0168757, 0.00525688, 0.00223002, 7.11652e-05, 0.000138887, 0.000706171
0.0136132, 0.00952139, -0.59166, -4.18869e-05, -6.23455e-06, -0.000988409, 0.0167693, 0.00522219, 0.00221162, 7.08523e-05, 0.00013777, 0.000701205
0.0134799, 0.00956929, -0.591632, -4.03536e-05, -1.0878e-05, -0.000972705, 0.0167599, 0.00518019, 0.00220484, 7.03305e-05, 0.000135307, 0.000695087
0.0142887, 0.00953282, -0.591734, -3.77705e-05, -1.512e-05, -0.000951408, 0.0166504, 0.00514436, 0.00218589, 6.99943e-05, 0.000134194, 0.00069009
0.0150146, 0.00954112, -0.591819, -3.52676e-05, -1.87736e-05, -0.00093351, 0.0165393, 0.00510662, 0.00216662, 6.96123e-05, 0.000132989, 0.00068477
0.0157087, 0.00957111, -0.591897, -3.27279e-05, -2.22591e-05, -0.000916725, 0.0164266, 0.0050664, 0.00214685, 6.91891e-05, 0.000131701, 0.000679151
0.0156066, 0.00952832, -0.591891, -3.25054e-05, -2.30474e-05, -0.00091319, 0.0164116, 0.00501826, 0.002138, 6.8697e-05, 0.000129461, 0.000673638
0.0162676, 0.00954343, -0.591969, -3.00763e-05, -2.64273e-05, -0.000896646, 0.0162979, 0.00497643, 0.00211773, 6.82602e-05, 0.000128186, 0.000668056
0.0168204, 0.00957082, -0.592031, -2.7967e-05, -2.91419e-05, -0.000883475, 0.0161852, 0.00493234, 0.00209731, 6.77963e-05, 0.000126856, 0.00066231
0.0173425, 0.0095914, -0.592092, -2.59719e-05, -3.17094e-05, -0.000870917, 0.0160743, 0.00488614, 0.00207682, 6.73146e-05, 0.000125489, 0.00065647
0.0172172, 0.00956869, -0.59208, -2.57721e-05, -3.193e-05, -0.000869034, 0.0160526, 0.0048301, 0.00206555, 6.68758e-05, 0.000123577, 0.000651771
0.0176322, 0.00960625, -0.592124, -2.4173e-05, -3.3518e-05, -0.000861084, 0.0159443, 0.00478402, 0.00204522, 6.64029e-05, 0.000122255, 0.000646134
0.0179406, 0.00966795, -0.592151, -2.29158e-05, -3.42061e-05, -0.000857589, 0.0158392, 0.00473639, 0.00202499, 6.59282e-05, 0.000120922, 0.000640519
0.0182276, 0.00970361, -0.59218, -2.18882e-05, -3.47271e-05, -0.000854504, 0.015738, 0.00468741, 0.00200495, 6.54571e-05, 0.000119589, 0.000634975
0.018044, 0.00973339, -0.592153, -2.14887e-05, -3.49234e-05, -0.000853428, 0.0157111, 0.00462933, 0.00199238, 6.50726e-05, 0.000117922, 0.000630843
0.0183035, 0.00975153, -0.592181, -2.06649e-05, -3.52512e-05, -0.000850954, 0.0156146, 0.00458254, 0.00197302, 6.46279e-05, 0.000116657, 0.000625625
0.0185842, 0.00973398, -0.592219, -1.99489e-05, -3.57517e-05, -0.000847233, 0.0155239, 0.00453531, 0.00195426, 6.4195e-05, 0.000115413, 0.000620569
0.0187868, 0.00974362, -0.592242, -1.94649e-05, -3.54524e-05, -0.000847373, 0.0154394, 0.00448782, 0.0019362, 6.37759e-05, 0.000114197, 0.00061571
0.0185228, 0.00985161, -0.592192, -1.881e-05, -3.55684e-05, -0.000848148, 0.0154103, 0.00443028, 0.00192334, 6.34544e-05, 0.000112774, 0.000612046
0.0186988, 0.00984952, -0.592214, -1.85077e-05, -3.50892e-05, -0.00084896, 0.0153316, 0.00438661, 0.00190635, 6.30661e-05, 0.000111632, 0.000607558
0.0188271, 0.0098312, -0.592233, -1.85431e-05, -3.42473e-05, -0.000851335, 0.0152587, 0.00434315, 0.00189004, 6.26947e-05, 0.000110522, 0.00060328
0.0189013, 0.0098225, -0.592243, -1.88389e-05, -3.27694e-05, -0.000856634, 0.015191, 0.00430029, 0.0018744, 6.23411e-05, 0.000109442, 0.000599213
0.0188039, 0.00980554, -0.592235, -1.91151e-05, -3.0934e-05, -0.000861301, 0.0151627, 0.00424719, 0.00186248, 6.20678e-05, 0.000108183, 0.000595803
0.0188391, 0.00980234, -0.592239, -1.95823e-05, -2.90714e-05, -0.000868358, 0.0151004, 0.00420892, 0.00184806, 6.17424e-05, 0.000107171, 0.000592097
0.0188541, 0.00978207, -0.592243, -2.02486e-05, -2.72195e-05, -0.000875459, 0.0150422, 0.00417166, 0.00183423, 6.14348e-05, 0.000106187, 0.000588584
0.0188495, 0.00975869, -0.592246, -2.11269e-05, -2.49709e-05, -0.00088428, 0.0149878, 0.00413556, 0.00182102, 6.11437e-05, 0.000105228, 0.000585256
0.0188552, 0.00967537, -0.592261, -2.18565e-05, -2.21985e-05, -0.00089034, 0.0149626, 0.00408725, 0.00181075, 6.09119e-05, 0.000104104, 0.000581926
0.0188307, 0.00964427, -0.592263, -2.28863e-05, -1.992e-05, -0.00089948, 0.0149126, 0.00405585, 0.00179871, 6.06435e-05, 0.000103207, 0.000578917
0.0188352, 0.0095955, -0.59227, -2.39202e-05, -1.79363e-05, -0.000907328, 0.0148658, 0.00402552, 0.00178724, 6.03886e-05, 0.000102331, 0.000576056
0.0188736, 0.00952057, -0.592286, -2.50804e-05, -1.60636e-05, -0.000914622, 0.0148218, 0.00399616, 0.00177629, 6.01452e-05, 0.000101475, 0.000573328
0.0188238, 0.00952442, -0.592282, -2.5594e-05, -1.33047e-05, -0.00092356, 0.0148006, 0.00395446, 0.001768, 5.99407e-05, 0.000100428, 0.000569867
0.0188843, 0.00942417, -0.592305, -2.68367e-05, -1.18882e-05, -0.00092933, 0.0147606, 0.00392874, 0.0017581, 5.97126e-05, 9.96327e-05, 0.000567405
0.0189175, 0.00934089, -0.592321, -2.81167e-05, -1.01314e-05, -0.000936642, 0.0147233, 0.00390356, 0.0017487, 5.9492e-05, 9.88548e-05, 0.000565035
0.0189438, 0.00926372, -0.592336, -2.94634e-05, -8.10095e-06, -0.000945148, 0.0146881, 0.0038791, 0.0017397, 5.92779e-05, 9.80877e-05, 0.000562738
0.0189366, 0.00926264, -0.592338, -3.01003e-05, -5.07253e-06, -0.000955126, 0.0146696, 0.00384468, 0.00173313, 5.90829e-05, 9.7064e-05, 0.000559013
0.0189882, 0.00917093, -0.592358, -3.14805e-05, -3.33231e-06, -0.000962811, 0.0146371, 0.00382325, 0.00172492, 5.88794e-05, 9.63474e-05, 0.000556917
0.0190543, 0.00906877, -0.592381, -3.2953e-05, -1.52441e-06, -0.000970804, 0.0146067, 0.00380226, 0.00171709, 5.86796e-05, 9.56381e-05, 0.000554859
0.0191155, 0.0089669, -0.592404, -3.44737e-05, 3.36402e-07, -0.000979206, 0.014578, 0.00378172, 0.0017096, 5.84825e-05, 9.49339e-05, 0.000552828
0.0191431, 0.00892782, -0.592416, -3.52084e-05, 3.3838e-06, -0.000987954, 0.0145606, 0.00375405, 0.00170423, 5.8285e-05, 9.39079e-05, 0.000548818
0.0191896, 0.0088484, -0.592434, -3.66049e-05, 5.34008e-06, -0.000996844, 0.014534, 0.00373576, 0.00169736, 5.80949e-05, 9.32494e-05, 0.000546942
0.0192062, 0.00880128, -0.592442, -3.78384e-05, 7.54542e-06, -0.0010065, 0.0145084, 0.00371806, 0.00169068, 5.79073e-05, 9.25892e-05, 0.000545078
0.0192544, 0.00874318, -0.592457, -3.90684e-05, 9.60856e-06, -0.00101555, 0.0144832, 0.0037011, 0.00168413, 5.7722e-05, 9.19245e-05, 0.00054322
0.0193101, 0.0087384, -0.592467, -3.98932e-05, 1.29978e-05, -0.00102753, 0.0144659, 0.00367845, 0.00167958, 5.75166e-05, 9.08762e-05, 0.000538841
0.019397, 0.00867365, -0.592487, -4.0987e-05, 1.47062e-05, -0.00103511, 0.014442, 0.00366324, 0.00167343, 5.73373e-05, 9.02526e-05, 0.000537119
0.0195217, 0.00859837, -0.592513, -4.20314e-05, 1.6225e-05, -0.00104181, 0.0144189, 0.00364825, 0.00166741, 5.71579e-05, 8.96254e-05, 0.000535392
0.0196535, 0.00852204, -0.59254, -4.30683e-05, 1.76843e-05, -0.00104835, 0.0143968, 0.00363332, 0.00166154, 5.69771e-05, 8.89953e-05, 0.000533656
0.019735, 0.0084843, -0.592559, -4.38094e-05, 2.05558e-05, -0.00105629, 0.0143788, 0.00361491, 0.00165756, 5.6757e-05, 8.78943e-05, 0.000528771
0.0198633, 0.00841827, -0.592583, -4.47571e-05, 2.2012e-05, -0.00106274, 0.0143579, 0.00360113, 0.00165201, 5.65792e-05, 8.73046e-05, 0.000527151
0.0200457, 0.00832562, -0.592619, -4.5851e-05, 2.33083e-05, -0.00106902, 0.0143377, 0.00358734, 0.00164657, 5.63988e-05, 8.67087e-05, 0.000525509
0.0202419, 0.00822546, -0.592656, -4.69992e-05, 2.46152e-05, -0.00107543, 0.0143185, 0.00357328, 0.00164128, 5.62143e-05, 8.61079e-05, 0.000523839
0.0203345, 0.00816278, -0.59268, -4.7502e-05, 2.67794e-05, -0.00107778, 0.0142987, 0.00355899, 0.00163763, 5.59726e-05, 8.49173e-05, 0.000518341
0.0205176, 0.00807048, -0.592715, -4.86373e-05, 2.80391e-05, -0.00108438, 0.0142808, 0.00354554, 0.00163263, 5.57883e-05, 8.43566e-05, 0.000516766
0.0207018, 0.00797583, -0.592749, -4.99402e-05, 2.94726e-05, -0.00109216, 0.0142634, 0.00353193, 0.00162773, 5.55999e-05, 8.37884e-05, 0.000515157
0.020864, 0.00789394, -0.592779, -5.12609e-05, 3.10756e-05, -0.00110067, 0.0142466, 0.00351833, 0.00162296, 5.54078e-05, 8.32129e-05, 0.000513518
0.0209831, 0.00786475, -0.592802, -5.21228e-05, 3.42616e-05, -0.00111061, 0.0142255, 0.00350746, 0.00161946, 5.51506e-05, 8.19557e-05, 0.000507604
0.0211149, 0.00780427, -0.592825, -5.32616e-05, 3.58148e-05, -0.00111859, 0.0142093, 0.00349478, 0.00161491, 5.49616e-05, 8.14184e-05, 0.000506069
0.0212475, 0.00774804, -0.592848, -5.43336e-05, 3.73492e-05, -0.00112625, 0.014193, 0.00348246, 0.00161041, 5.47706e-05, 8.08727e-05, 0.000504511
0.0213752, 0.00769876, -0.59287, -5.53225e-05, 3.88728e-05, -0.00113359, 0.0141764, 0.0034705, 0.00160593, 5.45771e-05, 8.03184e-05, 0.000502927
0.0214972, 0.00766467, -0.592893, -5.60042e-05, 4.14811e-05, -0.00114008, 0.0141551, 0.00346191, 0.00160256, 5.43163e-05, 7.90374e-05, 0.000496801
0.0216205, 0.00761999, -0.592913, -5.68879e-05, 4.28128e-05, -0.00114655, 0.0141384, 0.00345084, 0.00159823, 5.41269e-05, 7.85216e-05, 0.000495324
0.0217543, 0.00757471, -0.592935, -5.78068e-05, 4.41754e-05, -0.00115327, 0.0141213, 0.00344012, 0.00159391, 5.39351e-05, 7.7998e-05, 0.000493824
0.021891, 0.00753254, -0.592956, -5.87365e-05, 4.54955e-05, -0.00116001, 0.0141035, 0.00342979, 0.00158958, 5.37406e-05, 7.74671e-05, 0.0004923
0.0220269, 0.007494, -0.592981, -5.91942e-05, 4.74166e-05, -0.00116213, 0.0140823, 0.00342284, 0.00158633, 5.34803e-05, 7.61658e-05, 0.000485967
0.022183, 0.00744803, -0.593005, -6.01732e-05, 4.86413e-05, -0.00116884, 0.0140642, 0.00341325, 0.00158211, 5.32897e-05, 7.56754e-05, 0.000484553
0.0223538, 0.00740402, -0.59303, -6.12739e-05, 4.99364e-05, -0.00117627, 0.0140454, 0.00340402, 0.00157788, 5.30961e-05, 7.51795e-05, 0.000483121
0.0225211, 0.00736704, -0.593053, -6.23856e-05, 5.1222e-05, -0.00118372, 0.014026, 0.00339523, 0.00157362, 5.28995e-05, 7.46792e-05, 0.000481675
0.0226899, 0.00733558, -0.593081, -6.29458e-05, 5.33742e-05, -0.0011876, 0.0140062, 0.00338956, 0.00157058, 5.2656e-05, 7.34276e-05, 0.000475516
0.022829, 0.00730998, -0.5931, -6.39241e-05, 5.46243e-05, -0.0011944, 0.0139862, 0.00338158, 0.00156638, 5.24639e-05, 7.29687e-05, 0.000474191
0.0229971, 0.00727655, -0.593123, -6.49135e-05, 5.57449e-05, -0.00120075, 0.0139649, 0.00337409, 0.00156207, 5.22684e-05, 7.25056e-05, 0.000472857
0.0231934, 0.00723825, -0.59315, -6.5977e-05, 5.68282e-05, -0.00120721, 0.0139424, 0.00336695, 0.00155769, 5.20677e-05, 7.20384e-05, 0.000471507
0.0233437, 0.00722183, -0.593174, -6.67503e-05, 5.95486e-05, -0.00121636, 0.0139247, 0.00336221, 0.0015549, 5.18488e-05, 7.08665e-05, 0.000465684
0.0235238, 0.00719237, -0.593198, -6.77675e-05, 6.0593e-05, -0.0012225, 0.0139016, 0.00335562, 0.00155054, 5.16501e-05, 7.04385e-05, 0.000464447
0.0237109, 0.00716546, -0.593222, -6.87899e-05, 6.15399e-05, -0.00122836, 0.0138768, 0.00334943, 0.00154603, 5.14457e-05, 7.00074e-05, 0.000463199
0.0239313, 0.00713296, -0.593251, -6.99219e-05, 6.25803e-05, -0.00123466, 0.0138504, 0.0033436, 0.00154135, 5.12353e-05, 6.95739e-05, 0.000461941
0.0240301, 0.00711406, -0.59327, -7.03253e-05, 6.41822e-05, -0.00123783, 0.0138351, 0.00333945, 0.00153882, 5.10477e-05, 6.85182e-05, 0.000456617
0.0242457, 0.00708586, -0.593298, -7.1414e-05, 6.50903e-05, -0.00124357, 0.0138076, 0.0033341, 0.00153408, 5.08374e-05, 6.81207e-05, 0.000455463
0.0244379, 0.00706752, -0.593321, -7.25035e-05, 6.61033e-05, -0.0012495, 0.0137782, 0.00332909, 0.00152913, 5.06207e-05, 6.77215e-05, 0.000454304
0.0246337, 0.0070519, -0.593343, -7.36548e-05, 6.71944e-05, -0.00125569, 0.0137465, 0.00332449, 0.00152387, 5.03984e-05, 6.73212e-05, 0.000453147
0.0247659, 0.00701873, -0.593368, -7.36386e-05, 6.74822e-05, -0.00124968, 0.0137334, 0.00332081, 0.00152157, 5.02418e-05, 6.63859e-05, 0.000448366
0.024955, 0.00700402, -0.593389, -7.47291e-05, 6.84803e-05, -0.00125527, 0.0136996, 0.00331675, 0.0015161, 5.00184e-05, 6.60164e-05, 0.000447302
0.0251419, 0.00699042, -0.593411, -7.5798e-05, 6.94126e-05, -0.00126052, 0.0136633, 0.003313, 0.0015103, 4.97894e-05, 6.5646e-05, 0.000446241
0.0253616, 0.00697481, -0.593435, -7.7063e-05, 7.04925e-05, -0.00126654, 0.0136245, 0.00330955, 0.00150414, 4.95547e-05, 6.52748e-05, 0.000445182
0.0254769, 0.00695067, -0.593456, -7.71071e-05, 7.09494e-05, -0.00126278, 0.0136134, 0.00330615, 0.00150195, 4.94315e-05, 6.44951e-05, 0.000441119
0.025781, 0.00692672, -0.593493, -7.85581e-05, 7.19511e-05, -0.00126877, 0.0135733, 0.00330305, 0.00149564, 4.91951e-05, 6.41491e-05, 0.000440134
0.0261527, 0.00689658, -0.593538, -8.03132e-05, 7.30698e-05, -0.00127551, 0.0135329, 0.00330005, 0.00148921, 4.89526e-05, 6.38018e-05, 0.000439145
0.0265134, 0.00686435, -0.593579, -8.22908e-05, 7.44665e-05, -0.00128332, 0.0134926, 0.00329714, 0.00148269, 4.87054e-05, 6.34523e-05, 0.000438154
0.0266355, 0.0068337, -0.593603, -8.21402e-05, 7.42959e-05, -0.00127549, 0.0134823, 0.0032939, 0.00148033, 4.86135e-05, 6.28445e-05, 0.000434933
0.0270769, 0.00679273, -0.593657, -8.42793e-05, 7.5573e-05, -0.00128282, 0.0134434, 0.00329113, 0.0014739, 4.83652e-05, 6.25111e-05, 0.000433988
0.027499, 0.0067471, -0.593709, -8.6518e-05, 7.69546e-05, -0.00129033, 0.0134065, 0.00328828, 0.00146758, 4.81136e-05, 6.21727e-05, 0.000433027
0.0277972, 0.006702, -0.593743, -8.86239e-05, 7.86268e-05, -0.00129868, 0.013371, 0.00328536, 0.00146128, 4.78611e-05, 6.18285e-05, 0.000432052
0.0277979, 0.00669374, -0.593749, -8.85335e-05, 7.88353e-05, -0.0012965, 0.0133589, 0.00328236, 0.0014581, 4.7794e-05, 6.13865e-05, 0.000429806
0.02798, 0.00665543, -0.593768, -9.0266e-05, 8.03536e-05, -0.00130392, 0.0133243, 0.00327954, 0.00145185, 4.75461e-05, 6.10529e-05, 0.000428862
0.0281931, 0.00661473, -0.593793, -9.19986e-05, 8.17213e-05, -0.00131047, 0.0132894, 0.00327667, 0.00144542, 4.73005e-05, 6.07128e-05, 0.000427899
0.0283078, 0.00657411, -0.593804, -9.36131e-05, 8.32575e-05, -0.00131772, 0.0132546, 0.00327374, 0.00143888, 4.70584e-05, 6.03657e-05, 0.00042691
0.028437, 0.00654392, -0.593831, -9.34527e-05, 8.28442e-05, -0.00130965, 0.0132377, 0.00327069, 0.00143442, 4.70016e-05, 6.00013e-05, 0.000425211
0.0284582, 0.00651088, -0.593829, -9.46777e-05, 8.41583e-05, -0.00131581, 0.013203, 0.00326788, 0.0014279, 4.67681e-05, 5.96629e-05, 0.000424236
0.0286311, 0.0064747, -0.593851, -9.60972e-05, 8.51387e-05, -0.00132036, 0.0131677, 0.00326504, 0.0014212, 4.65395e-05, 5.9318e-05, 0.000423231
0.0287531, 0.00643532, -0.593865, -9.75511e-05, 8.62772e-05, -0.00132565, 0.0131333, 0.00326217, 0.00141451, 4.63161e-05, 5.89659e-05, 0.00042219
0.0287663, 0.00642495, -0.593873, -9.73377e-05, 8.5916e-05, -0.00132095, 0.0131091, 0.00325937, 0.00140839, 4.62576e-05, 5.86004e-05, 0.000420786
0.028792, 0.00638893, -0.593874, -9.85554e-05, 8.71078e-05, -0.00132653, 0.0130761, 0.00325665, 0.00140193, 4.60447e-05, 5.82592e-05, 0.000419754
0.0289148, 0.00635375, -0.59389, -9.98388e-05, 8.79469e-05, -0.00133052, 0.0130427, 0.00325395, 0.00139532, 4.58367e-05, 5.79114e-05, 0.000418683
0.0289479, 0.00633173, -0.593893, -0.000100606, 8.84137e-05, -0.00133271, 0.0130094, 0.00325132, 0.00138862, 4.56331e-05, 5.75573e-05, 0.000417572
0.0289641, 0.00632301, -0.593901, -0.000100451, 8.81427e-05, -0.00132935, 0.0129747, 0.00324874, 0.00138037, 4.55596e-05, 5.70941e-05, 0.000416116
0.0289986, 0.00631494, -0.593906, -0.000100733, 8.80639e-05, -0.00132892, 0.0129432, 0.0032464, 0.00137404, 4.53669e-05, 5.676e-05, 0.000415035
0.0290858, 0.0063177, -0.593918, -0.000100663, 8.73584e-05, -0.00132541, 0.0129119, 0.00324424, 0.00136768, 4.51781e-05, 5.64262e-05, 0.000413932
0.029181, 0.00632906, -0.593933, -0.000100214, 8.62314e-05, -0.0013197, 0.0128813, 0.00324232, 0.00136141, 4.49931e-05, 5.6096e-05, 0.000412819
0.0291982, 0.00632005, -0.593941, -0.000100125, 8.60508e-05, -0.00131745, 0.0128389, 0.00324011, 0.00135187, 4.4906e-05, 5.55166e-05, 0.000411106
0.0292509, 0.0063347, -0.59395, -9.9429e-05, 8.48172e-05, -0.00131099, 0.0128115, 0.00323857, 0.00134621, 4.47323e-05, 5.52192e-05, 0.000410071
0.0292302, 0.00635147, -0.593949, -9.85407e-05, 8.36384e-05, -0.00130456, 0.0127843, 0.00323724, 0.00134059, 4.4562e-05, 5.49272e-05, 0.000409038
0.0291924, 0.00637108, -0.593946, -9.7398e-05, 8.22231e-05, -0.00129669, 0.0127565, 0.00323607, 0.00133493, 4.43947e-05, 5.46408e-05, 0.000408007
0.0290403, 0.00637604, -0.593929, -9.69711e-05, 8.10648e-05, -0.00129141, 0.0127139, 0.00323438, 0.00132562, 4.43076e-05, 5.40268e-05, 0.000406155
0.0290169, 0.00639227, -0.593929, -9.58284e-05, 7.96845e-05, -0.0012835, 0.0126882, 0.00323347, 0.00132046, 4.415e-05, 5.37744e-05, 0.000405216
0.0289684, 0.00640502, -0.593926, -9.46989e-05, 7.83933e-05, -0.00127591, 0.0126624, 0.00323269, 0.00131531, 4.39949e-05, 5.35269e-05, 0.000404283
0.0288565, 0.00641675, -0.593915, -9.34934e-05, 7.72225e-05, -0.00126865, 0.0126359, 0.00323199, 0.00131013, 4.38418e-05, 5.32829e-05, 0.000403351
0.0287107, 0.00642054, -0.593898, -9.30229e-05, 7.60292e-05, -0.00126264, 0.0125948, 0.00323062, 0.00130138, 4.37559e-05, 5.26345e-05, 0.000401367
0.0286196, 0.00642736, -0.59389, -9.19383e-05, 7.50206e-05, -0.00125608, 0.0125698, 0.00323003, 0.00129659, 4.36105e-05, 5.24212e-05, 0.000400522
0.028496, 0.00643182, -0.593877, -9.09225e-05, 7.42049e-05, -0.00125039, 0.0125442, 0.00322947, 0.00129177, 4.34662e-05, 5.22088e-05, 0.000399668
0.0283062, 0.00643536, -0.593853, -8.99133e-05, 7.36094e-05, -0.00124547, 0.0125174, 0.00322891, 0.00128684, 4.33225e-05, 5.19954e-05, 0.000398797
0.0281706, 0.00643881, -0.593839, -8.95852e-05, 7.25889e-05, -0.00124124, 0.0124801, 0.00322777, 0.00127912, 4.32457e-05, 5.13806e-05, 0.000396893
0.0280123, 0.00643901, -0.593821, -8.86287e-05, 7.20235e-05, -0.00123636, 0.0124539, 0.00322722, 0.00127444, 4.31077e-05, 5.11926e-05, 0.000396092
0.0278615, 0.00643677, -0.593804, -8.76175e-05, 7.13762e-05, -0.00123092, 0.0124266, 0.00322663, 0.0012697, 4.29705e-05, 5.10031e-05, 0.000395272
0.0276672, 0.0064337, -0.593783, -8.64667e-05, 7.07101e-05, -0.00122491, 0.0123984, 0.00322601, 0.0012649, 4.28344e-05, 5.08123e-05, 0.000394435
0.027674, 0.00642822, -0.593788, -8.63995e-05, 7.06388e-05, -0.00122417, 0.0123641, 0.00322496, 0.00125799, 4.2765e-05, 5.02184e-05, 0.000392613
0.0274933, 0.00642215, -0.593769, -8.51634e-05, 6.99368e-05, -0.00121761, 0.0123369, 0.00322433, 0.00125348, 4.26361e-05, 5.00538e-05, 0.000391863
0.0273094, 0.00641293, -0.593751, -8.38326e-05, 6.91199e-05, -0.00121025, 0.0123093, 0.00322364, 0.00124901, 4.25095e-05, 4.98895e-05, 0.00039111
0.0270904, 0.00640178, -0.593729, -8.24882e-05, 6.83892e-05, -0.00120304, 0.0122815, 0.0032229, 0.00124458, 4.23857e-05, 4.97258e-05, 0.000390355
0.0269906, 0.00640368, -0.593718, -8.22202e-05, 6.75231e-05, -0.00119938, 0.0122525, 0.00322201, 0.0012388, 4.23269e-05, 4.92039e-05, 0.000388727
0.0267813, 0.00638917, -0.593699, -8.08296e-05, 6.68142e-05, -0.00119197, 0.0122258, 0.00322123, 0.00123465, 4.22097e-05, 4.90638e-05, 0.000388055
0.0267813, 0.00638917, -0.593699, -8.08296e-05, 6.68142e-05, -0.00119197, 0.0122258, 0.00322124, 0.00123467, 4.221e-05, 4.9064e-05, 0.000388055
0.0267813, 0.00638917, -0.593699, -8.08296e-05, 6.68142e-05, -0.00119197, 0.0122258, 0.00322125, 0.0012347, 4.22102e-05, 4.90641e-05, 0.000388055
0.0267338, 0.00638992, -0.593696, -8.07887e-05, 6.64089e-05, -0.00119145, 0.0121986, 0.00322048, 0.00122941, 4.21544e-05, 4.85934e-05, 0.000386531
0.0267338, 0.00638992, -0.593696, -8.07887e-05, 6.64089e-05, -0.00119145, 0.0121986, 0.00322049, 0.00122943, 4.21546e-05, 4.85935e-05, 0.000386531
0.0267338, 0.00638992, -0.593696, -8.07887e-05, 6.64089e-05, -0.00119145, 0.0121986, 0.0032205, 0.00122945, 4.21548e-05, 4.85937e-05, 0.000386531
0.0267338, 0.00638992, -0.593696, -8.07887e-05, 6.64089e-05, -0.00119145, 0.0121986, 0.00322051, 0.00122948, 4.2155e-05, 4.85939e-05, 0.000386531
0.0266913, 0.0063933, -0.593694, -8.07517e-05, 6.59432e-05, -0.00119092, 0.0121965, 0.00322018, 0.00122913, 4.21368e-05, 4.84802e-05, 0.000385798
0.0266913, 0.0063933, -0.593694, -8.07517e-05, 6.59432e-05, -0.00119092, 0.0121965, 0.00322018, 0.00122916, 4.2137e-05, 4.84804e-05, 0.000385798
0.0266913, 0.0063933, -0.593694, -8.07517e-05, 6.59432e-05, -0.00119092, 0.0121965, 0.00322019, 0.00122918, 4.21372e-05, 4.84806e-05, 0.000385798
0.0266913, 0.0063933, -0.593694, -8.07517e-05, 6.59432e-05, -0.00119092, 0.0121966, 0.0032202, 0.0012292, 4.21374e-05, 4.84808e-05, 0.000385798
0.0265009, 0.00640391, -0.593672, -8.03912e-05, 6.44547e-05, -0.00118623, 0.012164, 0.00321957, 0.00122321, 4.20728e-05, 4.79877e-05, 0.000384172
0.0265009, 0.00640391, -0.593672, -8.03912e-05, 6.44547e-05, -0.00118623, 0.012164, 0.00321958, 0.00122324, 4.2073e-05, 4.79878e-05, 0.000384172
0.0265009, 0.00640391, -0.593672, -8.03912e-05, 6.44547e-05, -0.00118623, 0.012164, 0.00321959, 0.00122326, 4.20732e-05, 4.7988e-05, 0.000384172
0.0265009, 0.00640391, -0.593672, -8.03912e-05, 6.44547e-05, -0.00118623, 0.012164, 0.0032196, 0.00122328, 4.20734e-05, 4.79882e-05, 0.000384172
0.026301, 0.00641403, -0.59365, -7.99486e-05, 6.28504e-05, -0.0011807, 0.0121331, 0.00321909, 0.00121771, 4.20113e-05, 4.75367e-05, 0.000382637
0.026301, 0.00641403, -0.59365, -7.99486e-05, 6.28504e-05, -0.0011807, 0.0121331, 0.0032191, 0.00121773, 4.20115e-05, 4.75368e-05, 0.000382637
0.0250469, 0.00635488, -0.593534, -7.4207e-05, 6.16584e-05, -0.00116036, 0.0120495, 0.00321809, 0.00120722, 4.17023e-05, 4.73364e-05, 0.000381779
0.0240753, 0.00631017, -0.593444, -6.97779e-05, 6.07233e-05, -0.00114498, 0.0119795, 0.00321717, 0.0011982, 4.14575e-05, 4.71508e-05, 0.000381043
0.0240188, 0.00631448, -0.59344, -6.96554e-05, 6.00559e-05, -0.00114313, 0.0119519, 0.00321671, 0.00119329, 4.14067e-05, 4.67614e-05, 0.00037974
0.0232778, 0.0062782, -0.593372, -6.62024e-05, 5.93853e-05, -0.00113145, 0.0118932, 0.00321584, 0.00118559, 4.1209e-05, 4.66024e-05, 0.000379146
0.0227068, 0.00625018, -0.59332, -6.35175e-05, 5.88159e-05, -0.00112242, 0.0118417, 0.00321501, 0.0011787, 4.10417e-05, 4.64514e-05, 0.00037861
0.0222474, 0.00622699, -0.593278, -6.13261e-05, 5.83207e-05, -0.00111512, 0.0117961, 0.0032142, 0.00117248, 4.08967e-05, 4.63067e-05, 0.000378116
0.0223476, 0.00622766, -0.593295, -6.15339e-05, 5.86444e-05, -0.00111706, 0.0117719, 0.00321382, 0.00116817, 4.08551e-05, 4.59872e-05, 0.000377035
0.0219768, 0.00620726, -0.593261, -5.96944e-05, 5.82382e-05, -0.00111105, 0.011732, 0.00321302, 0.00116262, 4.07291e-05, 4.58581e-05, 0.000376612
0.0216792, 0.00619027, -0.593233, -5.81811e-05, 5.78678e-05, -0.00110607, 0.011696, 0.00321222, 0.0011575, 4.06164e-05, 4.57327e-05, 0.000376214
0.0214302, 0.0061752, -0.59321, -5.68788e-05, 5.75311e-05, -0.00110183, 0.0116634, 0.00321143, 0.00115275, 4.05144e-05, 4.56105e-05, 0.000375836
0.0213727, 0.00617711, -0.593206, -5.66966e-05, 5.6883e-05, -0.0010989, 0.0116415, 0.00321113, 0.00114887, 4.04771e-05, 4.53344e-05, 0.000374878
0.0211625, 0.00616328, -0.593186, -5.55659e-05, 5.6622e-05, -0.00109533, 0.0116126, 0.00321034, 0.00114455, 4.03849e-05, 4.52234e-05, 0.000374544
0.0209749, 0.00615003, -0.593168, -5.45219e-05, 5.63493e-05, -0.00109197, 0.0115861, 0.00320955, 0.0011405, 4.03001e-05, 4.51146e-05, 0.000374223
0.02081, 0.0061388, -0.593152, -5.35568e-05, 5.60869e-05, -0.00108896, 0.0115617, 0.00320876, 0.00113667, 4.02215e-05, 4.50077e-05, 0.000373913
0.0207519, 0.00614122, -0.593147, -5.3376e-05, 5.54423e-05, -0.00108598, 0.0115412, 0.00320851, 0.00113306, 4.01868e-05, 4.47594e-05, 0.000373042
0.0206224, 0.00613146, -0.593135, -5.24639e-05, 5.51439e-05, -0.00108301, 0.0115191, 0.00320773, 0.0011295, 4.01144e-05, 4.46613e-05, 0.000372766
0.0205229, 0.0061231, -0.593126, -5.16631e-05, 5.48502e-05, -0.00108043, 0.0114987, 0.00320695, 0.00112613, 4.00467e-05, 4.45646e-05, 0.000372499
0.0204343, 0.00611443, -0.593118, -5.09318e-05, 5.45832e-05, -0.00107814, 0.0114797, 0.00320617, 0.00112292, 3.99831e-05, 4.44693e-05, 0.000372241
0.0204988, 0.00611937, -0.593129, -5.10891e-05, 5.47235e-05, -0.00107891, 0.0114601, 0.00320595, 0.0011195, 3.99509e-05, 4.42513e-05, 0.000371457
0.0204185, 0.00611124, -0.593121, -5.03987e-05, 5.44783e-05, -0.00107677, 0.0114425, 0.00320517, 0.00111647, 3.98917e-05, 4.41623e-05, 0.000371226
0.0203792, 0.00610701, -0.593118, -4.97024e-05, 5.40992e-05, -0.00107444, 0.0114259, 0.00320438, 0.00111354, 3.98357e-05, 4.40742e-05, 0.000371001
0.0203208, 0.00610091, -0.593113, -4.89574e-05, 5.37683e-05, -0.0010723, 0.0114103, 0.00320359, 0.00111073, 3.97826e-05, 4.39869e-05, 0.000370785
