-0.0137282, -0.00139655, -0.604032, 0.000397985, -0.00465621, -0.00144695, 0.0316228, 0.0316228, 0.0316228, 0.0316228, 0.0316228, 0.0316228
-0.0137282, -0.00139655, -0.604032, 0.000397985, -0.00465621, -0.00144695, 0.0316228, 0.0316228, 0.0316228, 0.0316228, 0.0316228, 0.0316228
-0.0137286, -0.00140072, -0.603976, 0.000385249, -0.00551923, -0.001506, 0.0316226, 0.031622, 0.031622, 0.0315871, 0.0314347, 0.0314348
-0.0137312, -0.00140214, -0.603961, 0.000431054, -0.00565197, -0.00151459, 0.0316223, 0.0316208, 0.0316208, 0.0315433, 0.0313524, 0.03135
-0.013735, -0.00139217, -0.603932, 0.000485688, -0.00583886, -0.00144933, 0.0316218, 0.0316176, 0.0316177, 0.0314896, 0.0312228, 0.0312176
-0.0137439, -0.00139355, -0.60394, 0.000483469, -0.00583591, -0.00144109, 0.0316211, 0.0316171, 0.0316172, 0.0314739, 0.031197, 0.0311903
-0.013749, -0.00139036, -0.60386, 0.00050475, -0.00627619, -0.00142731, 0.0316203, 0.0316109, 0.031611, 0.0314101, 0.0310114, 0.0310008
-0.0137584, -0.00142668, -0.603622, 0.000467607, -0.00740383, -0.00162294, 0.031619, 0.0315989, 0.0315984, 0.0313334, 0.0307156, 0.0307162
-0.0137701, -0.00144769, -0.603531, 0.000494598, -0.00779308, -0.00172443, 0.0316172, 0.0315833, 0.031576, 0.0312436, 0.0302705, 0.0304103
-0.0137769, -0.00145959, -0.603527, 0.000485168, -0.00782728, -0.00165331, 0.0316146, 0.031582, 0.0315739, 0.0312282, 0.0302376, 0.030359
-0.0137964, -0.00150925, -0.603537, 0.000499756, -0.00776643, -0.00185068, 0.0316123, 0.0315664, 0.0315449, 0.0311291, 0.0297578, 0.0301079
-0.0138183, -0.00158335, -0.603381, 0.000502208, -0.00828793, -0.00210355, 0.0316091, 0.0315512, 0.0315065, 0.0310193, 0.0292336, 0.0299241
-0.0138382, -0.00162555, -0.603268, 0.000536499, -0.00862926, -0.00223158, 0.0316049, 0.0315395, 0.0314557, 0.0308954, 0.0286312, 0.0298235
-0.0138852, -0.00164186, -0.60327, 0.000543825, -0.00864757, -0.00210769, 0.0315985, 0.031537, 0.0314499, 0.0308804, 0.0285851, 0.0297187
-0.0139055, -0.00167992, -0.603075, 0.000591528, -0.0092058, -0.00221649, 0.0315939, 0.0315288, 0.0313873, 0.0307428, 0.0279227, 0.029666
-0.0139271, -0.00171413, -0.602846, 0.000652948, -0.00982123, -0.00233405, 0.0315883, 0.0315242, 0.0313163, 0.0305853, 0.0272279, 0.0296378
-0.0139495, -0.00173738, -0.602634, 0.000737294, -0.0103758, -0.00245787, 0.0315817, 0.0315213, 0.0312508, 0.0304058, 0.0266163, 0.0296035
-0.0140527, -0.00178396, -0.6026, 0.000699281, -0.0103814, -0.00218766, 0.0315694, 0.0315153, 0.0312388, 0.0303908, 0.0265435, 0.0294538
-0.0140782, -0.00180748, -0.602447, 0.000815967, -0.010762, -0.00231991, 0.0315631, 0.0315129, 0.0311908, 0.0301922, 0.0261087, 0.0294105
-0.0141024, -0.00182393, -0.602402, 0.000955326, -0.0108473, -0.00240951, 0.0315565, 0.0315107, 0.0311584, 0.0299658, 0.0258403, 0.0293582
-0.0141236, -0.00184038, -0.602366, 0.00112515, -0.0109037, -0.00252272, 0.0315498, 0.0315085, 0.0311337, 0.0297107, 0.0256734, 0.0292926
-0.0142531, -0.00193927, -0.602304, 0.00105468, -0.0108905, -0.00208948, 0.0315299, 0.0314958, 0.0311098, 0.0296945, 0.0255797, 0.0291019
-0.0142695, -0.00195435, -0.602321, 0.00126824, -0.0108553, -0.00218985, 0.0315242, 0.0314933, 0.0310867, 0.0294187, 0.0254664, 0.0290336
-0.0142875, -0.00196655, -0.602325, 0.00144521, -0.0108194, -0.00225008, 0.0315186, 0.0314905, 0.0310621, 0.0291098, 0.0253805, 0.0289525
-0.0143009, -0.00198136, -0.602374, 0.00158806, -0.0107452, -0.00227172, 0.0315133, 0.0314875, 0.0310367, 0.0287683, 0.0253085, 0.0288645
-0.01483, -0.00212516, -0.602242, 0.00120079, -0.011327, -0.002003, 0.0314604, 0.0314509, 0.0308569, 0.0287212, 0.0246474, 0.0283741
-0.0148813, -0.00212563, -0.602322, 0.00132665, -0.0112372, -0.00202418, 0.0314414, 0.031446, 0.030811, 0.0284097, 0.0246053, 0.0283083
-0.0149276, -0.00212719, -0.602463, 0.00149129, -0.0111174, -0.00204166, 0.031425, 0.0314383, 0.0307542, 0.0280919, 0.0245723, 0.0282393
-0.0149697, -0.00213397, -0.602723, 0.00166087, -0.0109443, -0.00206192, 0.0314099, 0.0314234, 0.0306747, 0.0277448, 0.0245396, 0.0281715
-0.0150247, -0.00229108, -0.602912, 0.00162371, -0.0108293, -0.0015375, 0.0313891, 0.0313959, 0.030613, 0.0277169, 0.0242216, 0.027893
-0.0150555, -0.0023146, -0.603316, 0.00181541, -0.0106125, -0.00156097, 0.0313767, 0.031371, 0.0304937, 0.0273252, 0.0241836, 0.0278415
-0.0151038, -0.00237231, -0.603837, 0.0019711, -0.0103313, -0.00160521, 0.0313639, 0.0313319, 0.0303239, 0.0269052, 0.024131, 0.027804
-0.015163, -0.00244944, -0.60452, 0.00216172, -0.00995982, -0.00170171, 0.0313507, 0.0312802, 0.0300936, 0.0264749, 0.0240556, 0.0277726
-0.0153587, -0.00255717, -0.604729, 0.00218231, -0.0100707, -0.00125168, 0.03133, 0.0312635, 0.029935, 0.0264486, 0.0236285, 0.027518
-0.0154197, -0.00264879, -0.605577, 0.00243072, -0.00957723, -0.00141115, 0.031318, 0.0312138, 0.0296437, 0.026027, 0.023515, 0.0274712
-0.0155139, -0.00275122, -0.606385, 0.00267832, -0.00902888, -0.00160505, 0.0313055, 0.0311638, 0.0292937, 0.0256228, 0.0233479, 0.0273975
-0.0156402, -0.00285625, -0.607035, 0.0028758, -0.00850467, -0.00180868, 0.0312926, 0.0311202, 0.0289239, 0.0252319, 0.0231431, 0.0273072
-0.0158376, -0.00288546, -0.607524, 0.00278871, -0.00866082, -0.0012779, 0.0312692, 0.0311164, 0.0286325, 0.0251882, 0.0225029, 0.0269679
-0.0159607, -0.00302436, -0.608135, 0.0029728, -0.00812659, -0.00156317, 0.0312574, 0.0310829, 0.0282904, 0.0247988, 0.022265, 0.0268332
-0.0161111, -0.00316348, -0.608523, 0.00304348, -0.00765854, -0.00187135, 0.031245, 0.0310539, 0.0279791, 0.0244324, 0.0219969, 0.0266981
-0.0162795, -0.00326848, -0.608606, 0.00309157, -0.00735232, -0.00211687, 0.0312323, 0.0310295, 0.0277164, 0.0240678, 0.0217357, 0.026584
-0.0165333, -0.00327306, -0.609114, 0.00300194, -0.00746454, -0.00180837, 0.0312048, 0.0310279, 0.0273257, 0.0239905, 0.0209217, 0.0260539
-0.0166857, -0.00335077, -0.608958, 0.00298245, -0.00735576, -0.00205952, 0.0311937, 0.031009, 0.0271344, 0.0235894, 0.0206874, 0.0259505
-0.0168345, -0.00341861, -0.608712, 0.00296957, -0.00721459, -0.00226408, 0.0311829, 0.0309926, 0.026963, 0.0231411, 0.0204899, 0.0258887
-0.0169742, -0.00348446, -0.608346, 0.00294512, -0.00701545, -0.0024345, 0.0311727, 0.0309775, 0.026792, 0.0226202, 0.0203124, 0.025849
-0.0172212, -0.00341073, -0.608336, 0.00280852, -0.00686764, -0.00213441, 0.0311444, 0.030976, 0.0263658, 0.0225115, 0.0193722, 0.0251631
-0.0173389, -0.00347008, -0.607883, 0.0027335, -0.00670417, -0.00228415, 0.0311358, 0.0309613, 0.0261975, 0.0219168, 0.0192193, 0.0251284
-0.0174246, -0.00353246, -0.607732, 0.00251332, -0.00641285, -0.00230831, 0.0311279, 0.0309465, 0.0259831, 0.0212275, 0.0190604, 0.0250943
-0.0175027, -0.0036279, -0.6078, 0.00211591, -0.00608576, -0.00227882, 0.0311208, 0.0309308, 0.0257199, 0.0205389, 0.0188929, 0.0250622
-0.0176603, -0.00360343, -0.607814, 0.00213316, -0.00604118, -0.00216027, 0.0310947, 0.0309294, 0.0252771, 0.0204136, 0.0179374, 0.0242962
-0.0177257, -0.00371122, -0.607724, 0.00170705, -0.00573223, -0.0021971, 0.0310889, 0.030914, 0.024993, 0.0197367, 0.0177879, 0.0242658
-0.0177832, -0.00381342, -0.607783, 0.0013355, -0.00547009, -0.00215981, 0.0310836, 0.0308996, 0.0246982, 0.0190276, 0.0176162, 0.0242357
-0.0178342, -0.00390356, -0.607893, 0.00110066, -0.00526007, -0.00208859, 0.0310786, 0.030886, 0.0244238, 0.0183138, 0.0174309, 0.0242029
-0.0180035, -0.00382226, -0.607199, 0.00115221, -0.00461368, -0.00206143, 0.0310544, 0.0308849, 0.0239691, 0.0182182, 0.0165853, 0.0233927
-0.0180422, -0.00389851, -0.60719, 0.00108064, -0.00445712, -0.00202403, 0.0310501, 0.0308711, 0.023729, 0.0175177, 0.0164309, 0.0233637
-0.0180818, -0.00396513, -0.607072, 0.00106484, -0.00427288, -0.00197628, 0.0310461, 0.0308573, 0.0234921, 0.0167577, 0.01626, 0.0233304
-0.0181196, -0.00402597, -0.606801, 0.00111457, -0.00405466, -0.00192205, 0.0310422, 0.0308434, 0.0232468, 0.0159342, 0.0160689, 0.0232858
-0.01838, -0.00398862, -0.606756, 0.00127244, -0.00415118, -0.00219331, 0.0310174, 0.0308422, 0.0227628, 0.0158398, 0.0152597, 0.0224334
-0.0184221, -0.00405042, -0.606091, 0.00125065, -0.00384699, -0.00212654, 0.0310139, 0.0308278, 0.0224987, 0.0149597, 0.0150832, 0.0223871
-0.018458, -0.00411285, -0.605246, 0.00107891, -0.00341452, -0.00198573, 0.0310106, 0.0308129, 0.0221455, 0.0140057, 0.0148579, 0.0223049
-0.018481, -0.00417638, -0.604388, 0.000820478, -0.00293868, -0.00178781, 0.0310076, 0.0307977, 0.0217065, 0.0130847, 0.0145859, 0.022191
-0.0187116, -0.00411755, -0.603839, 0.00102902, -0.00274981, -0.00216111, 0.0309849, 0.0307963, 0.0212212, 0.0129871, 0.013855, 0.0213192
-0.0187342, -0.00419362, -0.603061, 0.000747154, -0.00236294, -0.00195129, 0.0309822, 0.0307808, 0.0207445, 0.0121397, 0.0136122, 0.0212225
-0.0187503, -0.00428508, -0.602633, 0.000443639, -0.00208283, -0.00170008, 0.0309797, 0.0307655, 0.0202312, 0.0113578, 0.0133483, 0.0211057
-0.0187619, -0.00439889, -0.602378, 0.000134509, -0.00189513, -0.00141858, 0.0309773, 0.0307506, 0.0197369, 0.0106427, 0.0130859, 0.0209831
-0.0190539, -0.00429692, -0.601511, 0.000326565, -0.0015661, -0.0017381, 0.0309568, 0.0307489, 0.0193458, 0.0105514, 0.012579, 0.0201672
-0.0190682, -0.00439556, -0.601416, 0.000167503, -0.00146861, -0.00155867, 0.0309545, 0.0307343, 0.0189173, 0.00987137, 0.012378, 0.0200832
-0.0190762, -0.00447792, -0.601435, 0.000192732, -0.00145189, -0.00141852, 0.0309521, 0.0307198, 0.0185342, 0.00924088, 0.012184, 0.0200029
-0.0191184, -0.00454959, -0.601048, 0.000384945, -0.00131395, -0.00129416, 0.0309493, 0.0307055, 0.0181974, 0.00865043, 0.0119974, 0.0199259
-0.0194544, -0.00453039, -0.600702, 0.000488108, -0.00142134, -0.00193893, 0.030924, 0.0307034, 0.0178667, 0.00861801, 0.0115875, 0.0192208
-0.0195575, -0.00460734, -0.600185, 0.000823623, -0.00129979, -0.00178205, 0.0309194, 0.0306897, 0.0176342, 0.00807939, 0.0114503, 0.0191596
-0.0197699, -0.00473499, -0.599544, 0.00118635, -0.00118194, -0.00154116, 0.0309128, 0.0306771, 0.0175057, 0.00767496, 0.0113176, 0.0190948
-0.0200019, -0.00489954, -0.599254, 0.0015236, -0.00119034, -0.00126768, 0.0309056, 0.030665, 0.0174605, 0.00744655, 0.0111759, 0.0190219
-0.0204944, -0.00489389, -0.599034, 0.00153396, -0.00174561, -0.00197429, 0.0308709, 0.0306614, 0.0171175, 0.00741929, 0.0106317, 0.0183098
-0.0206519, -0.00505354, -0.599108, 0.00175485, -0.00181225, -0.00171941, 0.030864, 0.0306493, 0.0170989, 0.0073202, 0.0104925, 0.0182461
-0.0207439, -0.00517922, -0.599276, 0.00190684, -0.00183799, -0.00152005, 0.0308601, 0.0306382, 0.0170609, 0.00727557, 0.0103428, 0.0181806
-0.020792, -0.00529004, -0.599439, 0.00202105, -0.00182422, -0.001346, 0.0308578, 0.0306275, 0.0170044, 0.00724194, 0.0101865, 0.0181125
-0.0212842, -0.00520409, -0.599064, 0.00215093, -0.00255409, -0.0010911, 0.0308237, 0.0306236, 0.0165791, 0.00720924, 0.00953613, 0.0175753
-0.0213202, -0.00529463, -0.599222, 0.00223637, -0.00249978, -0.000931902, 0.0308219, 0.0306131, 0.0165176, 0.00717512, 0.00940843, 0.0175161
-0.0213453, -0.00538034, -0.599358, 0.00231019, -0.00241222, -0.000777111, 0.0308206, 0.0306025, 0.0164576, 0.00713869, 0.00927574, 0.0174545
-0.0213617, -0.00545738, -0.599504, 0.00238089, -0.0023323, -0.000638605, 0.0308194, 0.0305917, 0.0164027, 0.00710061, 0.00913707, 0.0173892
-0.021575, -0.00543311, -0.599571, 0.00244332, -0.00269425, -0.000177756, 0.0308009, 0.0305883, 0.0158973, 0.00706579, 0.00858966, 0.0171005
-0.0215902, -0.00550176, -0.599669, 0.00251878, -0.00260437, -3.61823e-05, 0.0307998, 0.0305775, 0.015853, 0.00702841, 0.00847631, 0.0170366
-0.0216062, -0.00557865, -0.599703, 0.00260959, -0.00250679, 0.000145274, 0.0307986, 0.0305667, 0.0158138, 0.00699078, 0.00835631, 0.0169694
-0.0216241, -0.00564956, -0.599711, 0.00269425, -0.00240297, 0.000329846, 0.0307974, 0.0305564, 0.0157756, 0.00695387, 0.00823055, 0.0169022
-0.0216146, -0.00559519, -0.599299, 0.0028066, -0.00223557, 0.000801571, 0.0307893, 0.0305546, 0.0152251, 0.00691488, 0.00785245, 0.0167753
-0.0216316, -0.00566433, -0.599325, 0.00289799, -0.00215081, 0.000996225, 0.0307881, 0.0305449, 0.0151902, 0.00687983, 0.00774695, 0.0167098
-0.0216556, -0.00573411, -0.599304, 0.00296602, -0.00206189, 0.00119585, 0.0307869, 0.0305358, 0.0151569, 0.00684502, 0.00763439, 0.0166435
-0.021678, -0.0057974, -0.59929, 0.00302619, -0.00196789, 0.00138783, 0.0307856, 0.0305276, 0.0151234, 0.00680964, 0.007515, 0.0165778
-0.0216172, -0.00570836, -0.59858, 0.00315497, -0.00167327, 0.00218499, 0.0307792, 0.0305266, 0.0145904, 0.00677409, 0.00726318, 0.0164511
-0.0216396, -0.00577065, -0.598572, 0.00320257, -0.00158861, 0.0023721, 0.030778, 0.0305191, 0.0145626, 0.00673446, 0.00715923, 0.0163845
-0.0216618, -0.00583001, -0.598548, 0.00322721, -0.0015052, 0.00256185, 0.0307769, 0.0305122, 0.0145362, 0.00668627, 0.00704825, 0.0163163
-0.0216748, -0.00589061, -0.598552, 0.00326724, -0.00141635, 0.00273483, 0.0307758, 0.0305057, 0.0145107, 0.0066247, 0.00693095, 0.0162452
-0.0216659, -0.0059331, -0.598317, 0.00332703, -0.00115663, 0.00252868, 0.0307693, 0.0305032, 0.0139947, 0.00658876, 0.00674294, 0.0160967
-0.0216808, -0.00600212, -0.598286, 0.00332838, -0.00108675, 0.00274015, 0.0307685, 0.030497, 0.0139727, 0.00650975, 0.00664156, 0.0160216
-0.0217082, -0.00607082, -0.59815, 0.00320246, -0.00102044, 0.00305576, 0.0307676, 0.0304908, 0.0139456, 0.00641507, 0.0065338, 0.015944
-0.0217298, -0.00613962, -0.598026, 0.00310885, -0.000947317, 0.00334027, 0.0307668, 0.0304846, 0.0139089, 0.00630563, 0.00641997, 0.015863
-0.0217958, -0.0062083, -0.598252, 0.00309891, -0.000773314, 0.00265927, 0.0307598, 0.0304749, 0.0134252, 0.00626741, 0.00626975, 0.0156804
-0.0218101, -0.0062815, -0.598129, 0.00301774, -0.000726195, 0.00292138, 0.0307591, 0.0304688, 0.0133832, 0.00614158, 0.00617171, 0.0155987
-0.0218278, -0.00634112, -0.597948, 0.0028521, -0.000684441, 0.00323917, 0.0307586, 0.0304622, 0.0133368, 0.00599995, 0.00606821, 0.0155173
-0.0218434, -0.00638064, -0.597768, 0.00266422, -0.000632375, 0.00354352, 0.0307581, 0.0304546, 0.0132869, 0.00584307, 0.00595961, 0.0154404
-0.0219153, -0.00636097, -0.597927, 0.0026499, -0.000485181, 0.00321588, 0.0307508, 0.0304318, 0.012824, 0.00580354, 0.00582599, 0.0152788
-0.0219244, -0.00640371, -0.597745, 0.00245164, -0.000453338, 0.00348961, 0.0307505, 0.0304231, 0.0127736, 0.00562959, 0.00573188, 0.0152089
-0.0219285, -0.00642378, -0.597561, 0.00222011, -0.000421402, 0.00375649, 0.0307502, 0.0304121, 0.0127222, 0.0054428, 0.00563213, 0.0151454
-0.0219301, -0.00641731, -0.597455, 0.00205235, -0.00038436, 0.00395829, 0.0307498, 0.0303976, 0.0126746, 0.00524443, 0.00552702, 0.0150901
-0.0219392, -0.00657251, -0.596973, 0.00213853, -0.000299471, 0.00418453, 0.0307417, 0.0303517, 0.0122564, 0.00521302, 0.00540176, 0.0148963
-0.0219375, -0.00652121, -0.596849, 0.0018797, -0.000252593, 0.004391, 0.0307414, 0.0303335, 0.0122187, 0.00500739, 0.00530955, 0.0148509
-0.0219328, -0.00642977, -0.596731, 0.00161012, -0.000210905, 0.00458291, 0.0307409, 0.0303087, 0.0121837, 0.00479428, 0.00521098, 0.0148102
-0.0219301, -0.00629813, -0.596646, 0.00138563, -0.000173817, 0.00474099, 0.0307402, 0.0302743, 0.012153, 0.00457348, 0.00510561, 0.0147712
-0.0220074, -0.00641054, -0.596708, 0.00125736, 7.65909e-06, 0.00369306, 0.0307329, 0.0301884, 0.0117404, 0.00454034, 0.004987, 0.0145873
-0.0220037, -0.00631294, -0.596633, 0.00108433, 3.35851e-05, 0.00380693, 0.0307322, 0.0301451, 0.0117127, 0.00431649, 0.00489651, 0.0145492
-0.0219935, -0.00620342, -0.596563, 0.000897273, 5.36592e-05, 0.00388673, 0.0307311, 0.0300874, 0.0116899, 0.0040958, 0.00479988, 0.0145081
-0.0219804, -0.00613182, -0.596516, 0.000758228, 7.5553e-05, 0.00394836, 0.0307299, 0.0300126, 0.0116699, 0.00388196, 0.00469821, 0.0144616
-0.0219975, -0.00641784, -0.596214, 0.00075966, 0.000146502, 0.00387161, 0.0307231, 0.0298694, 0.0112724, 0.00385356, 0.00459178, 0.0142603
-0.0219845, -0.00632798, -0.596181, 0.000622197, 0.000162947, 0.00390745, 0.0307219, 0.029781, 0.0112572, 0.00365369, 0.00450294, 0.0142128
-0.0219702, -0.00623803, -0.596156, 0.000498867, 0.000182131, 0.00393373, 0.0307205, 0.0296723, 0.011242, 0.00346591, 0.00441076, 0.0141595
-0.0219705, -0.00613281, -0.596162, 0.000470547, 0.000164838, 0.00396219, 0.0307188, 0.0295409, 0.011227, 0.00329171, 0.00431603, 0.0141015
-0.021986, -0.00657724, -0.595813, 0.000433465, 0.000234464, 0.00368345, 0.0307124, 0.0293217, 0.0108546, 0.00326641, 0.00421871, 0.0139252
-0.0219811, -0.00643178, -0.595829, 0.000374932, 0.000237376, 0.00371039, 0.0307107, 0.0291718, 0.0108418, 0.00310692, 0.00413631, 0.0138662
-0.0219581, -0.00625856, -0.595856, 0.000248542, 0.000249936, 0.00368922, 0.0307087, 0.0289891, 0.0108278, 0.00295713, 0.00404999, 0.0137991
-0.0219563, -0.00601162, -0.595887, 0.000192785, 0.000238241, 0.0037147, 0.0307065, 0.0287688, 0.0108132, 0.00281579, 0.00395992, 0.0137212
-0.0220436, -0.00550767, -0.596137, 8.48212e-05, 0.000395527, 0.00295644, 0.0307009, 0.028468, 0.0104693, 0.00279586, 0.00387201, 0.0135812
-0.0220516, -0.00525683, -0.596163, 6.23451e-05, 0.000371944, 0.00299176, 0.0306986, 0.0282224, 0.0104574, 0.00266453, 0.00379342, 0.0134976
-0.0220408, -0.00502655, -0.596204, -6.81096e-06, 0.00035896, 0.00297051, 0.030696, 0.0279318, 0.0104432, 0.0025424, 0.00371053, 0.0134019
-0.022044, -0.00487914, -0.596222, -2.04609e-05, 0.000346855, 0.0029833, 0.0306933, 0.0275967, 0.0104263, 0.0024301, 0.00362489, 0.0132943
-0.0220561, -0.00492027, -0.59621, -3.74007e-05, 0.000402809, 0.00288333, 0.0306892, 0.0272426, 0.0100712, 0.00241292, 0.00354726, 0.0131749
-0.0220523, -0.00482639, -0.596227, -6.30879e-05, 0.000388894, 0.00285447, 0.0306864, 0.0268948, 0.0100549, 0.00231495, 0.00347113, 0.0130681
-0.0220346, -0.00478281, -0.596258, -0.000109204, 0.000392598, 0.00279555, 0.0306836, 0.0265115, 0.010034, 0.00222855, 0.00339494, 0.0129547
-0.0220267, -0.00481737, -0.596261, -0.000129965, 0.000388652, 0.0027362, 0.0306809, 0.026098, 0.0100071, 0.00215368, 0.00332009, 0.0128364
-0.0220463, -0.00451516, -0.596379, -0.00014084, 0.000464222, 0.00266237, 0.030678, 0.0257361, 0.00969514, 0.00213938, 0.00324897, 0.0127322
-0.0220379, -0.00463414, -0.59637, -0.000155951, 0.000461468, 0.00259135, 0.0306755, 0.02534, 0.00967048, 0.00207776, 0.00318509, 0.0126204
-0.0220263, -0.00469222, -0.596379, -0.000179607, 0.000458931, 0.00251267, 0.0306731, 0.0249317, 0.00963753, 0.0020267, 0.00312453, 0.0125066
-0.0220248, -0.00469676, -0.596374, -0.000191757, 0.000449986, 0.00245618, 0.030671, 0.0245199, 0.00959839, 0.00198349, 0.00306714, 0.0123883
-0.0220345, -0.0042188, -0.596535, -0.000188358, 0.000531765, 0.00248586, 0.0306692, 0.0242162, 0.00934825, 0.00196933, 0.00299848, 0.0122783
-0.0220653, -0.00439584, -0.596435, -0.000171206, 0.000509128, 0.00243028, 0.0306671, 0.0238543, 0.00931176, 0.00193654, 0.00295211, 0.0121722
-0.0220615, -0.00450593, -0.596413, -0.000186303, 0.00050248, 0.0023322, 0.030665, 0.0235143, 0.00926108, 0.00191119, 0.00291078, 0.0120654
-0.0220683, -0.00469232, -0.596347, -0.000197399, 0.000493506, 0.00222513, 0.0306632, 0.0232038, 0.00920315, 0.00189003, 0.00287373, 0.0119552
-0.0220504, -0.0047157, -0.596325, -0.000211019, 0.000503835, 0.00214164, 0.030662, 0.0230231, 0.00900513, 0.00187293, 0.00281886, 0.0118041
-0.0220709, -0.00492262, -0.596234, -0.000217728, 0.000494191, 0.00204745, 0.0306602, 0.0227817, 0.00895857, 0.00185726, 0.00279234, 0.0117096
-0.0220464, -0.00494626, -0.596268, -0.000240471, 0.000495389, 0.00191889, 0.0306585, 0.0225766, 0.0089059, 0.00184348, 0.00276921, 0.01161
-0.0220304, -0.00495803, -0.596285, -0.000261056, 0.000491006, 0.00179218, 0.030657, 0.0223998, 0.00885638, 0.00182979, 0.00274805, 0.0115031
-0.0220069, -0.00530684, -0.596059, -0.000294632, 0.000441937, 0.00155212, 0.0306558, 0.0222963, 0.00873138, 0.00181166, 0.00271038, 0.0113069
-0.0220006, -0.00522188, -0.596071, -0.00030779, 0.000433351, 0.00145889, 0.0306543, 0.0221649, 0.00869708, 0.00180028, 0.00269534, 0.0112125
-0.0219652, -0.00501227, -0.596154, -0.00032825, 0.000434144, 0.00132596, 0.030653, 0.0220504, 0.00866413, 0.00178836, 0.00268107, 0.0111067
-0.0219587, -0.00494689, -0.596163, -0.000341081, 0.000431894, 0.00123605, 0.0306518, 0.021946, 0.00863471, 0.00177535, 0.00266725, 0.0109888
-0.0219837, -0.00506604, -0.596103, -0.000357513, 0.000423729, 0.00105791, 0.0306497, 0.0218714, 0.00856267, 0.0017586, 0.00264099, 0.0107537
-0.021985, -0.00501886, -0.596096, -0.000366212, 0.000421829, 0.000991498, 0.0306484, 0.0217898, 0.00854031, 0.0017475, 0.00263055, 0.0106458
-0.0219546, -0.0048184, -0.596159, -0.000383666, 0.000428219, 0.000845787, 0.0306472, 0.0217158, 0.00851808, 0.00173576, 0.00262009, 0.0105241
-0.021938, -0.00466983, -0.596194, -0.00039916, 0.000430862, 0.000718697, 0.0306461, 0.0216427, 0.0084983, 0.00172251, 0.00260967, 0.0103895
-0.0219801, -0.00501357, -0.596059, -0.000434504, 0.000436713, 0.000336284, 0.0306422, 0.0215752, 0.00845473, 0.00170887, 0.00258811, 0.0101297
-0.0219621, -0.00485926, -0.596094, -0.000441517, 0.000445469, 0.000261497, 0.030641, 0.0215082, 0.00844036, 0.00169626, 0.00257907, 0.0100034
-0.0219243, -0.00452347, -0.596171, -0.000459659, 0.000467057, 9.11539e-05, 0.03064, 0.021438, 0.00842737, 0.00168165, 0.00256973, 0.00985913
-0.0218959, -0.004211, -0.596236, -0.000475603, 0.000485602, -5.2116e-05, 0.0306391, 0.0213624, 0.00841624, 0.00166425, 0.00256031, 0.00969869
-0.0220344, -0.00432434, -0.596141, -0.000495298, 0.000544898, -0.000384179, 0.0306316, 0.0213048, 0.00838471, 0.00165323, 0.00253685, 0.0094163
-0.0219924, -0.00389022, -0.596211, -0.000520583, 0.000574333, -0.000563647, 0.0306307, 0.0212272, 0.00837764, 0.00163391, 0.002528, 0.00926412
-0.0219798, -0.0036924, -0.596234, -0.000528152, 0.000589133, -0.0006176, 0.03063, 0.0211463, 0.00837127, 0.00161182, 0.00251908, 0.00909911
-0.0219755, -0.00359352, -0.596242, -0.000530594, 0.000600141, -0.000637943, 0.0306292, 0.0210696, 0.00836366, 0.00159032, 0.00250998, 0.00892426
-0.0222299, -0.00375581, -0.596219, -0.000542099, 0.000677609, -0.000903483, 0.0306159, 0.0210095, 0.00833879, 0.00158191, 0.00247942, 0.00863103
-0.0222142, -0.00357042, -0.59624, -0.000552271, 0.000698037, -0.000973033, 0.0306151, 0.0209387, 0.00833154, 0.00156166, 0.00247035, 0.00847404
-0.0221909, -0.00328319, -0.596275, -0.000566666, 0.000726601, -0.001082, 0.0306144, 0.0208656, 0.00832385, 0.00154007, 0.00246157, 0.00831196
-0.0221754, -0.00303893, -0.5963, -0.000575651, 0.000749732, -0.0011526, 0.0306137, 0.0207886, 0.00831644, 0.00151604, 0.00245336, 0.00814647
-0.0225118, -0.00336453, -0.596281, -0.000576629, 0.000869228, -0.00134203, 0.0305938, 0.0207269, 0.00829591, 0.00150964, 0.00241515, 0.00785445
-0.0225105, -0.00329869, -0.596269, -0.000584616, 0.000878724, -0.00134864, 0.0305932, 0.0206548, 0.00828825, 0.00148597, 0.00240701, 0.00771118
-0.0225032, -0.00314341, -0.596275, -0.000591528, 0.000895058, -0.00139508, 0.0305926, 0.0205814, 0.00827841, 0.00146283, 0.0023986, 0.00756667
-0.0224923, -0.00294843, -0.596299, -0.00058939, 0.000916455, -0.001448, 0.030592, 0.0205054, 0.00826824, 0.00143815, 0.00239043, 0.00742113
-0.0229661, -0.00275328, -0.596336, -0.000590833, 0.000949944, -0.00164353, 0.030566, 0.0204759, 0.00825412, 0.00143418, 0.00235748, 0.00714508
-0.0229721, -0.00284314, -0.596331, -0.000584614, 0.000945344, -0.0015909, 0.0305654, 0.0203994, 0.00824398, 0.00140947, 0.00234953, 0.00701892
-0.0229796, -0.00292047, -0.596327, -0.000580225, 0.000940603, -0.0015423, 0.0305648, 0.0203231, 0.00823141, 0.00138587, 0.00234003, 0.00688448
-0.0229724, -0.00287675, -0.596377, -0.000559038, 0.000959683, -0.00158918, 0.0305642, 0.0202464, 0.00821808, 0.00136182, 0.00232973, 0.00674416
-0.0236802, -0.0026861, -0.596371, -0.00053783, 0.00105878, -0.00184013, 0.030533, 0.0201998, 0.00820467, 0.00135566, 0.00227495, 0.00649509
-0.0236755, -0.00269736, -0.596406, -0.000517596, 0.00107132, -0.00183942, 0.0305325, 0.0201297, 0.0081923, 0.00133115, 0.00226404, 0.00637313
-0.0236781, -0.00279865, -0.596422, -0.000502999, 0.00106997, -0.00178788, 0.030532, 0.0200595, 0.00817903, 0.00130627, 0.00225229, 0.00624506
-0.0236772, -0.00288718, -0.596457, -0.000481975, 0.00107594, -0.00176982, 0.0305315, 0.0199888, 0.00816449, 0.00128134, 0.00223951, 0.00611052
-0.0246527, -0.00281348, -0.596474, -0.000450071, 0.00121504, -0.00206583, 0.0304938, 0.0199549, 0.00815274, 0.00127401, 0.00218532, 0.00589711
-0.0246452, -0.00287143, -0.596532, -0.00042081, 0.00123134, -0.00208551, 0.0304933, 0.0198883, 0.0081384, 0.00124892, 0.00217226, 0.00578037
-0.0246406, -0.00297836, -0.596585, -0.000390542, 0.00124079, -0.00207608, 0.0304928, 0.0198236, 0.00812447, 0.0012228, 0.0021591, 0.0056601
-0.0246361, -0.00312006, -0.596643, -0.000356872, 0.00124781, -0.00205783, 0.0304923, 0.0197605, 0.00811047, 0.00119602, 0.00214558, 0.00553552
-0.0258068, -0.00291126, -0.596636, -0.000328808, 0.00144441, -0.00247843, 0.0304478, 0.0197338, 0.00810012, 0.00118812, 0.00209722, 0.00535912
-0.025803, -0.00303433, -0.596683, -0.000300897, 0.00144825, -0.0024579, 0.0304473, 0.0196751, 0.00808635, 0.00116138, 0.0020836, 0.00524981
-0.0258002, -0.00312909, -0.59672, -0.000278094, 0.00145152, -0.00244274, 0.0304468, 0.0196184, 0.00807314, 0.0011338, 0.00207027, 0.00513932
-0.0257949, -0.00322823, -0.596767, -0.000249384, 0.00145808, -0.00244093, 0.0304462, 0.0195647, 0.00806077, 0.00110534, 0.00205747, 0.00502972
-0.0270833, -0.00298202, -0.596719, -0.000216151, 0.00161146, -0.002784, 0.0303971, 0.0195414, 0.00805222, 0.0010982, 0.00201786, 0.00489101
-0.0270786, -0.00309567, -0.596752, -0.000192988, 0.00160921, -0.00275534, 0.0303964, 0.019492, 0.00804066, 0.00106989, 0.00200545, 0.00479715
-0.0270761, -0.0032117, -0.596769, -0.000176967, 0.00159997, -0.00271933, 0.0303956, 0.0194464, 0.00802977, 0.00104132, 0.00199342, 0.00470299
-0.0270799, -0.00336761, -0.596755, -0.000172802, 0.00157405, -0.00262744, 0.0303948, 0.0194027, 0.00801893, 0.00101328, 0.00198161, 0.00460803
-0.0284489, -0.00306284, -0.5967, -0.000148528, 0.00172804, -0.0030176, 0.0303443, 0.0193815, 0.00801056, 0.00100705, 0.00194906, 0.00450337
-0.0284413, -0.00320606, -0.596715, -0.000131759, 0.00171478, -0.00296486, 0.030343, 0.0193384, 0.00799933, 0.000980942, 0.00193739, 0.00441844
-0.0284218, -0.0033555, -0.596748, -0.000101297, 0.00170801, -0.00292719, 0.0303418, 0.0193028, 0.00798901, 0.000954809, 0.00192572, 0.00433187
-0.0284057, -0.00349212, -0.59677, -7.6127e-05, 0.00169749, -0.00288871, 0.0303405, 0.0192721, 0.0079788, 0.000929009, 0.00191407, 0.00424486
-0.0296082, -0.00324139, -0.596726, -6.38879e-05, 0.00171563, -0.00310829, 0.0302907, 0.0192491, 0.0079687, 0.0009238, 0.00188778, 0.00416686
-0.0295767, -0.00339607, -0.596762, -2.79665e-05, 0.00170556, -0.00306976, 0.0302892, 0.0192217, 0.00795892, 0.000898664, 0.00187561, 0.00408946
-0.0295543, -0.00351719, -0.596784, 1.07725e-06, 0.00169382, -0.00303165, 0.0302877, 0.0192001, 0.00794885, 0.000873306, 0.00186323, 0.00401166
-0.0295315, -0.00363018, -0.5968, 2.88704e-05, 0.00168, -0.00299264, 0.0302861, 0.0191817, 0.0079383, 0.000848185, 0.00185102, 0.00393577
-0.0307688, -0.00336059, -0.596717, 4.43614e-05, 0.00172253, -0.00319912, 0.0302365, 0.0191569, 0.00792742, 0.00084445, 0.00183054, 0.00387835
-0.0307471, -0.00344748, -0.596725, 6.87959e-05, 0.0017078, -0.00315296, 0.0302347, 0.0191419, 0.00791678, 0.000819966, 0.00181789, 0.00381032
-0.0307388, -0.00350644, -0.596726, 8.37803e-05, 0.00169581, -0.00312147, 0.0302328, 0.0191298, 0.00790539, 0.000795771, 0.00180562, 0.00374534
-0.0307366, -0.0035507, -0.59672, 9.34112e-05, 0.00168445, -0.00309647, 0.0302307, 0.0191197, 0.00789323, 0.000771998, 0.00179399, 0.00368516
-0.0318235, -0.00337208, -0.596702, 9.74839e-05, 0.00168615, -0.00327999, 0.0301834, 0.0190958, 0.00788176, 0.000769542, 0.00177765, 0.00364254
-0.0318348, -0.00340539, -0.596672, 9.72418e-05, 0.0016701, -0.00324216, 0.0301809, 0.0190869, 0.00786978, 0.00074698, 0.00176649, 0.0035921
-0.0318283, -0.00344132, -0.596643, 0.000105546, 0.00165144, -0.00320039, 0.030178, 0.0190786, 0.00785641, 0.000725525, 0.00175627, 0.00354591
-0.031822, -0.00346618, -0.596593, 0.000111963, 0.00162767, -0.00314892, 0.030175, 0.0190703, 0.00784065, 0.000705115, 0.00174654, 0.00350216
-0.0327799, -0.00333673, -0.596565, 0.000119755, 0.00161219, -0.00324608, 0.0301323, 0.0190453, 0.00782502, 0.000703193, 0.00173257, 0.00346949
-0.0327885, -0.00334047, -0.596495, 0.000120578, 0.00158722, -0.00318675, 0.0301288, 0.019037, 0.00780743, 0.000684362, 0.00172294, 0.00342985
-0.0327935, -0.0033325, -0.596429, 0.000123249, 0.00156487, -0.00313438, 0.0301251, 0.0190269, 0.00778666, 0.000666636, 0.00171397, 0.00339255
-0.0328047, -0.0032991, -0.596335, 0.000123427, 0.0015383, -0.00307219, 0.0301211, 0.0190139, 0.00776201, 0.000649939, 0.00170557, 0.00335725
-0.0335656, -0.00333163, -0.596412, 0.000122989, 0.00149932, -0.00315307, 0.0300837, 0.0189788, 0.00773685, 0.00064808, 0.00169269, 0.00333162
-0.0335918, -0.00327766, -0.596305, 0.000120043, 0.0014737, -0.00308808, 0.0300791, 0.0189645, 0.00770996, 0.00063289, 0.00168461, 0.00330008
-0.0335994, -0.0031836, -0.59618, 0.000122892, 0.0014454, -0.0030154, 0.0300741, 0.018945, 0.007678, 0.000618633, 0.00167714, 0.00327022
-0.0335821, -0.00304047, -0.596037, 0.000132623, 0.00141431, -0.00294102, 0.0300691, 0.0189161, 0.00763864, 0.000604924, 0.00166985, 0.0032405
-0.034225, -0.00318358, -0.596148, 0.000131653, 0.0013664, -0.00297177, 0.0300367, 0.0188621, 0.00759997, 0.000602964, 0.00165763, 0.00322045
-0.034233, -0.00299498, -0.595981, 0.000137131, 0.00133496, -0.00289113, 0.0300312, 0.0188244, 0.00755451, 0.000589764, 0.00165014, 0.00319214
-0.0342421, -0.00276161, -0.595796, 0.000143693, 0.00130348, -0.00280914, 0.0300253, 0.0187714, 0.00749947, 0.000576811, 0.00164298, 0.00316451
-0.0342582, -0.00247607, -0.595588, 0.000150586, 0.00127198, -0.0027247, 0.0300193, 0.0186983, 0.00743302, 0.000563815, 0.00163606, 0.00313739
-0.0348428, -0.0027886, -0.595782, 0.00014509, 0.00122577, -0.00276737, 0.0299912, 0.0186166, 0.00737885, 0.000561758, 0.00162396, 0.0031219
-0.034837, -0.00243446, -0.595555, 0.000157912, 0.00119204, -0.00268049, 0.0299846, 0.0185282, 0.00730449, 0.000548966, 0.00161689, 0.00309604
-0.0348048, -0.00207728, -0.595356, 0.000175079, 0.00116261, -0.00260974, 0.029978, 0.0184081, 0.00721518, 0.000535339, 0.00160977, 0.00307052
-0.0347954, -0.00167928, -0.595134, 0.000189658, 0.0011337, -0.00253857, 0.0299713, 0.0182532, 0.00711112, 0.000520875, 0.00160277, 0.00304632
-0.035346, -0.00188133, -0.59525, 0.000189261, 0.00109625, -0.0025473, 0.0299461, 0.0181389, 0.00704106, 0.000518769, 0.00158987, 0.00303375
-0.0353487, -0.00144341, -0.595013, 0.000203072, 0.00106683, -0.00247271, 0.0299391, 0.0179646, 0.00692999, 0.000504169, 0.00158266, 0.00301101
-0.0353804, -0.00103967, -0.594786, 0.000212012, 0.00104135, -0.00240703, 0.0299319, 0.0177577, 0.0068057, 0.000489228, 0.00157585, 0.00299007
-0.0354184, -0.000647878, -0.594567, 0.000219995, 0.00101811, -0.00234771, 0.0299245, 0.017522, 0.00667031, 0.000474333, 0.00156967, 0.00297165
-0.0359344, -0.00100708, -0.594746, 0.000218668, 0.000963555, -0.0023227, 0.0299017, 0.0173876, 0.00659065, 0.000472493, 0.00155541, 0.00295966
-0.0359927, -0.00063327, -0.594532, 0.000224564, 0.000941464, -0.00226361, 0.0298938, 0.0171442, 0.00645429, 0.000458063, 0.00154932, 0.00294305
-0.0360372, -0.000349683, -0.594371, 0.000229885, 0.000923765, -0.00221921, 0.029886, 0.0168745, 0.00630908, 0.000443701, 0.00154377, 0.0029288
-0.036129, -0.000105679, -0.594204, 0.000229686, 0.000908154, -0.00217326, 0.0298784, 0.0165842, 0.00615778, 0.000429692, 0.00153875, 0.00291705
-0.0366283, -0.000545614, -0.594418, 0.000227583, 0.000849282, -0.00213538, 0.029857, 0.0164386, 0.00607286, 0.000428214, 0.00152255, 0.002903
-0.0367199, -0.000298226, -0.594252, 0.000228491, 0.000833434, -0.00208826, 0.029849, 0.0161613, 0.00592895, 0.00041543, 0.00151773, 0.00289237
-0.036779, -0.000176445, -0.59416, 0.000229236, 0.000821205, -0.00205796, 0.0298413, 0.0158715, 0.00578232, 0.000403098, 0.00151325, 0.0028837
-0.0368695, -2.22043e-05, -0.594035, 0.000228285, 0.000809198, -0.00202158, 0.029834, 0.0155765, 0.00563588, 0.000391429, 0.00150901, 0.00287691
-0.0373932, -0.000196671, -0.594127, 0.000229052, 0.000778865, -0.00201791, 0.0298132, 0.0154216, 0.00554834, 0.000390266, 0.00149033, 0.00285852
-0.0374536, -7.30287e-05, -0.594036, 0.00023004, 0.000767127, -0.00198853, 0.029806, 0.0151527, 0.00541502, 0.00037964, 0.00148601, 0.00285217
-0.0375261, -4.39689e-05, -0.593977, 0.000227731, 0.000758921, -0.00196442, 0.0297994, 0.0148844, 0.00528436, 0.000369548, 0.0014817, 0.00284737
-0.0376183, -2.80851e-05, -0.59391, 0.00022389, 0.000751061, -0.00193908, 0.0297932, 0.0146264, 0.00515874, 0.000360444, 0.0014774, 0.00284374
-0.0381268, -0.000351588, -0.594037, 0.000225421, 0.000696653, -0.00187485, 0.0297721, 0.0144842, 0.00507558, 0.000359577, 0.00145738, 0.00282123
-0.0382008, -0.000348108, -0.593987, 0.000222718, 0.000688616, -0.00185343, 0.0297661, 0.014261, 0.00496609, 0.000351505, 0.00145294, 0.00281782
-0.0382802, -0.000421454, -0.593964, 0.000218035, 0.000682248, -0.00183544, 0.0297606, 0.0140491, 0.00486234, 0.000344168, 0.0014483, 0.00281533
-0.0383715, -0.000523625, -0.593943, 0.000212046, 0.000676833, -0.00181726, 0.0297557, 0.0138535, 0.00476623, 0.000337742, 0.00144335, 0.00281352
-0.0388908, -0.000667581, -0.593994, 0.000214192, 0.000643725, -0.00178458, 0.0297334, 0.0137311, 0.00469029, 0.00033701, 0.00142285, 0.00278797
-0.0389719, -0.000781867, -0.593987, 0.000208735, 0.000639689, -0.00176944, 0.0297288, 0.0135704, 0.0046104, 0.000331498, 0.0014178, 0.00278622
-0.0390474, -0.000905379, -0.593984, 0.000203492, 0.000634989, -0.00175508, 0.0297249, 0.0134245, 0.00453767, 0.000326558, 0.00141219, 0.00278463
-0.039107, -0.00102167, -0.593988, 0.000199609, 0.000628472, -0.00174096, 0.0297215, 0.0132932, 0.00447177, 0.000322082, 0.00140587, 0.00278282
-0.0396533, -0.00134376, -0.594093, 0.000201752, 0.000572012, -0.00165735, 0.0296968, 0.0131762, 0.00439811, 0.000321246, 0.00138527, 0.00275486
-0.0397082, -0.00140167, -0.594075, 0.000198764, 0.000566444, -0.00164564, 0.0296938, 0.0130704, 0.00434453, 0.000317043, 0.00137861, 0.00275249
-0.0397663, -0.0014355, -0.594043, 0.000195152, 0.000563667, -0.00163803, 0.0296912, 0.012975, 0.00429541, 0.000313051, 0.00137111, 0.00274942
-0.0398254, -0.00136531, -0.593962, 0.000192184, 0.00056342, -0.00163314, 0.0296889, 0.0128899, 0.00424959, 0.000309389, 0.00136292, 0.00274576
-0.0403526, -0.00165878, -0.59404, 0.000194837, 0.000507382, -0.00154315, 0.0296612, 0.0127734, 0.00417627, 0.000308356, 0.0013429, 0.00271716
-0.0404056, -0.00157055, -0.593959, 0.000192949, 0.000506828, -0.00153574, 0.029659, 0.0127062, 0.00413683, 0.000305034, 0.00133479, 0.00271305
-0.0404524, -0.00155367, -0.593913, 0.00019046, 0.000504712, -0.00152947, 0.0296571, 0.0126453, 0.00409965, 0.000301845, 0.00132583, 0.00270804
-0.0404884, -0.00149794, -0.593853, 0.000188546, 0.000503287, -0.00152529, 0.0296553, 0.012591, 0.00406555, 0.000298773, 0.00131581, 0.00270177
-0.0410645, -0.00199571, -0.594008, 0.000189005, 0.000431614, -0.00139832, 0.0296243, 0.0124648, 0.00399099, 0.000297517, 0.00129609, 0.00267242
-0.0410897, -0.00192667, -0.59395, 0.000188103, 0.000428834, -0.00139268, 0.0296227, 0.0124214, 0.00396242, 0.000294529, 0.0012858, 0.00266479
-0.0411113, -0.00189432, -0.593914, 0.000186961, 0.000425243, -0.0013886, 0.029621, 0.0123802, 0.00393572, 0.000291424, 0.00127414, 0.0026549
-0.0411231, -0.00180436, -0.593852, 0.000184906, 0.000427842, -0.00139528, 0.0296191, 0.012342, 0.00391106, 0.000288355, 0.00126124, 0.00264294
-0.0416308, -0.00203762, -0.593877, 0.000188986, 0.000372019, -0.00129502, 0.0295838, 0.0122087, 0.00383584, 0.000286843, 0.00124214, 0.00261395
-0.0416362, -0.00191931, -0.593807, 0.000186682, 0.000378328, -0.00130752, 0.029582, 0.0121774, 0.00381506, 0.000283998, 0.00122925, 0.00260085
-0.0416624, -0.00185884, -0.593765, 0.000182781, 0.000385121, -0.00132521, 0.0295796, 0.0121462, 0.00379513, 0.000281342, 0.00121539, 0.00258631
-0.0417106, -0.00183463, -0.59374, 0.000177799, 0.000392611, -0.00134696, 0.0295763, 0.0121169, 0.00377768, 0.000278841, 0.0012, 0.00256912
-0.042333, -0.00225426, -0.593849, 0.000178123, 0.000335621, -0.00123273, 0.0295369, 0.0119822, 0.0037033, 0.000277005, 0.00118161, 0.00254105
-0.042364, -0.00218804, -0.593811, 0.000173303, 0.000346455, -0.00126117, 0.029533, 0.0119574, 0.0036899, 0.000274657, 0.00116555, 0.00252136
-0.0424297, -0.00218809, -0.593799, 0.000170185, 0.000345428, -0.00126804, 0.0295281, 0.0119336, 0.00367813, 0.000272348, 0.00114838, 0.00249899
-0.0425285, -0.0022051, -0.593794, 0.000166929, 0.000342687, -0.00127142, 0.0295218, 0.0119119, 0.00366879, 0.000269737, 0.00112892, 0.00247063
-0.0432484, -0.00272802, -0.593926, 0.000166297, 0.000285666, -0.00114844, 0.0294769, 0.01177, 0.00359505, 0.000267545, 0.00111103, 0.00244366
-0.0433342, -0.0027148, -0.593912, 0.000162536, 0.000288031, -0.00116187, 0.0294701, 0.0117525, 0.00358879, 0.000264723, 0.00109121, 0.00241166
-0.0434574, -0.00269935, -0.593895, 0.000157758, 0.000293237, -0.00118046, 0.0294616, 0.0117359, 0.00358371, 0.000261718, 0.00106981, 0.00237484
-0.043539, -0.0026391, -0.593866, 0.000152668, 0.000303857, -0.00121186, 0.0294513, 0.01172, 0.00357934, 0.000258698, 0.0010473, 0.00233444
-0.0442393, -0.00303996, -0.593934, 0.000154165, 0.000245921, -0.00108499, 0.0294004, 0.0115605, 0.00350552, 0.000256276, 0.00103025, 0.00230936
-0.0443071, -0.00297932, -0.593907, 0.000149848, 0.000254808, -0.0011129, 0.0293899, 0.0115443, 0.00350189, 0.000253379, 0.00100894, 0.00226949
-0.0444401, -0.00294047, -0.593885, 0.000145699, 0.000259706, -0.00113039, 0.0293776, 0.0115272, 0.00349857, 0.000250395, 0.000986868, 0.00222676
-0.044611, -0.0029178, -0.593864, 0.000142036, 0.000260994, -0.00113841, 0.0293636, 0.0115107, 0.00349573, 0.00024727, 0.000964078, 0.00218072
-0.0453156, -0.00341502, -0.593966, 0.000140533, 0.000216655, -0.00102906, 0.0293082, 0.0113383, 0.0034243, 0.000244777, 0.000948343, 0.00215882
-0.045488, -0.00341428, -0.593951, 0.000137779, 0.000215113, -0.00102841, 0.0292941, 0.0113232, 0.00342239, 0.000241484, 0.000926695, 0.00211212
-0.0456647, -0.00342213, -0.593938, 0.000134094, 0.000216597, -0.00103499, 0.0292786, 0.0113077, 0.00342074, 0.000238075, 0.000904888, 0.00206348
-0.0458338, -0.00343627, -0.593928, 0.000130207, 0.000218857, -0.00104378, 0.0292617, 0.0112914, 0.00341917, 0.000234698, 0.000883339, 0.00201448
-0.0464771, -0.00401056, -0.594046, 0.000126688, 0.000172775, -0.00093319, 0.0292011, 0.0110866, 0.0033478, 0.000232255, 0.000868831, 0.00199539
-0.0465832, -0.00400251, -0.594037, 0.000121164, 0.000183001, -0.000965254, 0.0291842, 0.0110698, 0.00334652, 0.000228988, 0.000849249, 0.00194945
-0.046627, -0.00395463, -0.594024, 0.000113989, 0.000201487, -0.0010217, 0.0291652, 0.0110514, 0.0033451, 0.00022606, 0.000830409, 0.00190619
-0.0466069, -0.00386625, -0.594005, 0.000106478, 0.000223258, -0.0010899, 0.0291434, 0.0110301, 0.00334336, 0.00022354, 0.000812306, 0.00186628
-0.047248, -0.00448002, -0.594145, 0.000100429, 0.000187608, -0.00100836, 0.0290795, 0.0108152, 0.00327613, 0.000221197, 0.000798949, 0.00185024
-0.0472624, -0.00438066, -0.594122, 9.14965e-05, 0.000213238, -0.00108501, 0.0290562, 0.0107937, 0.00327439, 0.000218987, 0.000782701, 0.00181506
-0.0471941, -0.00421813, -0.594088, 8.21142e-05, 0.000245069, -0.00117819, 0.0290291, 0.0107704, 0.00327223, 0.00021713, 0.00076686, 0.00178256
-0.0470603, -0.00397966, -0.594035, 7.23837e-05, 0.00028156, -0.00128377, 0.0289972, 0.0107438, 0.00326927, 0.000215624, 0.000751377, 0.00175287
-0.0478859, -0.00489408, -0.594271, 6.08931e-05, 0.000250616, -0.00121625, 0.0289308, 0.0105452, 0.00321056, 0.000213421, 0.000739, 0.0017392
-0.0477867, -0.00462466, -0.594205, 5.058e-05, 0.000288347, -0.00132122, 0.0288955, 0.0105192, 0.00320709, 0.000212209, 0.000725063, 0.00171382
-0.0475505, -0.00430829, -0.594129, 4.22076e-05, 0.000325866, -0.00142414, 0.0288547, 0.0104902, 0.0032024, 0.000211282, 0.000711382, 0.00169063
-0.0471167, -0.00394737, -0.594045, 3.66363e-05, 0.000361695, -0.00152312, 0.0288073, 0.0104537, 0.00319612, 0.000210497, 0.000697872, 0.00166943
-0.0477833, -0.00463285, -0.594213, 2.7771e-05, 0.000335825, -0.0014703, 0.0287379, 0.0102828, 0.00314772, 0.000208452, 0.000686246, 0.00165729
-0.0475364, -0.00424403, -0.594115, 2.08105e-05, 0.000368062, -0.00155722, 0.0286865, 0.0102444, 0.00314097, 0.000207697, 0.000674061, 0.00163901
-0.0473362, -0.0038496, -0.594012, 1.39452e-05, 0.000396118, -0.00163248, 0.0286295, 0.0102057, 0.00313376, 0.000207055, 0.000662052, 0.00162173
-0.0470443, -0.00348816, -0.593918, 8.44501e-06, 0.000419659, -0.00169769, 0.028567, 0.0101669, 0.00312625, 0.000206482, 0.000650241, 0.00160535
-0.0475499, -0.00399436, -0.59403, 1.54448e-06, 0.000392806, -0.00164103, 0.0284934, 0.0100292, 0.00308998, 0.000204814, 0.000639306, 0.00159401
-0.0472605, -0.00366682, -0.593947, -4.31583e-06, 0.000414098, -0.00170198, 0.0284286, 0.00999362, 0.00308326, 0.000204199, 0.000628635, 0.00157925
-0.0470351, -0.00331913, -0.593857, -1.13457e-05, 0.000433607, -0.00175867, 0.028359, 0.00995998, 0.00307686, 0.000203593, 0.000618051, 0.00156486
-0.0467313, -0.00300305, -0.593776, -1.78492e-05, 0.000450817, -0.00181001, 0.0282847, 0.00992845, 0.00307059, 0.000203027, 0.000607621, 0.00155097
-0.0472958, -0.00359482, -0.593911, -2.56025e-05, 0.000426784, -0.00176601, 0.0282039, 0.00980979, 0.00304276, 0.000201633, 0.000597529, 0.00154041
-0.0468763, -0.00332033, -0.593846, -3.22747e-05, 0.000444636, -0.00181993, 0.0281276, 0.00978122, 0.00303697, 0.00020104, 0.000588154, 0.00152803
-0.0464604, -0.00301107, -0.593772, -3.97091e-05, 0.000461936, -0.0018716, 0.0280463, 0.00975271, 0.00303116, 0.000200462, 0.000578924, 0.00151632
-0.0460226, -0.00271007, -0.593699, -4.69003e-05, 0.000476283, -0.0019148, 0.0279605, 0.00972445, 0.00302501, 0.00019995, 0.000569908, 0.00150537
-0.046178, -0.0030084, -0.593751, -5.02435e-05, 0.00044491, -0.00185342, 0.0278687, 0.00962907, 0.00300555, 0.000198876, 0.000560519, 0.00149528
-0.0455714, -0.00278137, -0.593704, -5.66017e-05, 0.000459367, -0.00189789, 0.0277821, 0.00960184, 0.00299957, 0.000198348, 0.000552466, 0.00148566
-0.0449622, -0.0025294, -0.593651, -6.3789e-05, 0.000472635, -0.00193916, 0.0276907, 0.00957508, 0.00299386, 0.000197796, 0.000544496, 0.0014765
-0.0443632, -0.00230656, -0.593604, -7.10697e-05, 0.000482455, -0.00197175, 0.0275959, 0.00954985, 0.00298831, 0.000197249, 0.00053662, 0.0014677
-0.044726, -0.00269256, -0.593679, -7.53545e-05, 0.0004568, -0.00192896, 0.0274891, 0.00947083, 0.00297481, 0.000196389, 0.000527896, 0.00145812
-0.0439853, -0.00256951, -0.593665, -8.18136e-05, 0.000466073, -0.00196238, 0.0273948, 0.00944887, 0.00296996, 0.000195748, 0.000520744, 0.00145
-0.0432253, -0.00244706, -0.593655, -8.96486e-05, 0.000475687, -0.00199781, 0.0272961, 0.00942996, 0.00296612, 0.000194943, 0.000513483, 0.00144171
-0.0424938, -0.00233687, -0.593648, -9.94192e-05, 0.000484068, -0.00203039, 0.0271941, 0.00941346, 0.0029626, 0.000194071, 0.00050621, 0.00143346
-0.0425106, -0.00256705, -0.593684, -0.000101236, 0.000453259, -0.00197499, 0.0270679, 0.00934578, 0.00295331, 0.000193369, 0.000498179, 0.00142455
-0.0416495, -0.00253015, -0.593701, -0.000109651, 0.00046188, -0.00200805, 0.0269677, 0.00933075, 0.00294984, 0.000192441, 0.000491605, 0.00141704
-0.0406871, -0.00252653, -0.593731, -0.000116971, 0.000468146, -0.00203746, 0.0268621, 0.00931752, 0.00294696, 0.000191331, 0.000484957, 0.00140952
-0.0396515, -0.00252867, -0.593767, -0.000125127, 0.000474825, -0.00206871, 0.0267506, 0.00930579, 0.00294453, 0.000190008, 0.000478226, 0.00140191
-0.0395766, -0.00276724, -0.593807, -0.000127433, 0.00044407, -0.00200959, 0.0266007, 0.00924667, 0.00293806, 0.000189384, 0.000470748, 0.00139357
-0.0384814, -0.00279246, -0.593853, -0.000135212, 0.000451622, -0.00204344, 0.0264895, 0.0092359, 0.00293579, 0.00018784, 0.000464539, 0.00138631
-0.0372434, -0.00282312, -0.593905, -0.000141519, 0.000458364, -0.00207616, 0.0263718, 0.00922571, 0.00293368, 0.000186006, 0.000458191, 0.00137876
-0.0358276, -0.00282761, -0.593957, -0.000145501, 0.000464222, -0.00210758, 0.0262466, 0.00921493, 0.00293161, 0.000183783, 0.000451666, 0.00137077
-0.0357589, -0.00304965, -0.593995, -0.000147964, 0.000435536, -0.00205569, 0.0260705, 0.00916188, 0.00292676, 0.000183143, 0.000444506, 0.00136289
-0.0343106, -0.00302007, -0.59404, -0.000151185, 0.000442815, -0.00209073, 0.0259461, 0.00914951, 0.00292445, 0.000180488, 0.000438352, 0.00135467
-0.0328164, -0.00296044, -0.594081, -0.000153951, 0.000449478, -0.0021253, 0.0258149, 0.00913405, 0.00292153, 0.000177461, 0.000432045, 0.001346
-0.0310397, -0.00278034, -0.594095, -0.000150629, 0.000453766, -0.00215315, 0.025677, 0.009114, 0.00291783, 0.00017407, 0.000425628, 0.00133695
-0.0311719, -0.00301118, -0.594134, -0.00015401, 0.000427237, -0.00211378, 0.025482, 0.00906065, 0.00291313, 0.0001733, 0.000418737, 0.00132971
-0.0293059, -0.00270085, -0.594114, -0.000146207, 0.000431618, -0.00213882, 0.025349, 0.00903542, 0.00290859, 0.000169538, 0.000412741, 0.00132036
-0.0273868, -0.00228024, -0.594066, -0.000136705, 0.000434722, -0.00216027, 0.0252125, 0.00900144, 0.00290282, 0.000165486, 0.000406712, 0.00131065
-0.0255902, -0.00181799, -0.594003, -0.000127001, 0.000434344, -0.00217425, 0.0250751, 0.00895922, 0.00289593, 0.000161373, 0.000400778, 0.00130103
-0.0245569, -0.00176985, -0.59401, -0.000125546, 0.000393683, -0.00211287, 0.0248805, 0.00890769, 0.00289123, 0.000160537, 0.000394174, 0.00129472
-0.0230516, -0.00133206, -0.593947, -0.00011737, 0.000394509, -0.00212973, 0.02476, 0.00886344, 0.00288426, 0.000156715, 0.000388898, 0.00128558
-0.0215829, -0.000845086, -0.593869, -0.000107747, 0.000392477, -0.00214007, 0.0246414, 0.0088143, 0.00287674, 0.000153066, 0.000383813, 0.00127705
-0.0202134, -0.000317977, -0.593776, -9.63726e-05, 0.000386852, -0.00214058, 0.0245259, 0.00876015, 0.00286865, 0.000149572, 0.00037891, 0.00126901
-0.019519, -0.000242249, -0.593765, -9.58254e-05, 0.000356071, -0.00209446, 0.02435, 0.00871487, 0.00286443, 0.000148821, 0.000372921, 0.00126382
-0.0185911, 8.69621e-05, -0.593713, -9.0289e-05, 0.000350904, -0.00209818, 0.0242517, 0.00866269, 0.00285685, 0.000145698, 0.000368617, 0.00125635
-0.0178859, 0.000274836, -0.593693, -8.81856e-05, 0.000343024, -0.00209844, 0.0241531, 0.00860864, 0.00284948, 0.000142765, 0.000364466, 0.00124943
-0.0170328, 0.000595976, -0.593646, -8.28946e-05, 0.000335018, -0.00210051, 0.0240525, 0.00855198, 0.00284226, 0.000139936, 0.00036043, 0.00124277
-0.0164826, 0.000653821, -0.593637, -8.28653e-05, 0.00030832, -0.00206218, 0.0238864, 0.00852272, 0.00283981, 0.000139457, 0.000355277, 0.00123813
-0.0156537, 0.00103028, -0.59358, -7.67245e-05, 0.000302755, -0.00206984, 0.023799, 0.00846895, 0.00283319, 0.000136862, 0.000351701, 0.00123184
-0.0149985, 0.00128623, -0.593545, -7.2934e-05, 0.000294734, -0.00207103, 0.0237111, 0.00841329, 0.0028267, 0.000134362, 0.00034825, 0.00122598
-0.0142112, 0.00162141, -0.593501, -6.83461e-05, 0.000287484, -0.00207741, 0.0236209, 0.00835729, 0.00282054, 0.000131951, 0.000344917, 0.00122054
-0.0133911, 0.00171992, -0.593489, -6.76191e-05, 0.000259454, -0.00203177, 0.0234668, 0.00834036, 0.00281879, 0.000131624, 0.0003404, 0.00121623
-0.0126453, 0.00204006, -0.59345, -6.38663e-05, 0.00025408, -0.00204199, 0.0233875, 0.00829092, 0.00281356, 0.000129465, 0.000337461, 0.00121139
-0.0120546, 0.0022386, -0.593432, -6.20523e-05, 0.000246937, -0.00204552, 0.0233053, 0.00824462, 0.00280891, 0.000127438, 0.000334639, 0.00120726
-0.0114431, 0.00243656, -0.593416, -6.01359e-05, 0.000239094, -0.00204819, 0.0232169, 0.00820075, 0.00280466, 0.000125471, 0.000331885, 0.00120356
-0.0105357, 0.0025024, -0.593415, -5.96672e-05, 0.000213021, -0.00200033, 0.0230686, 0.0081931, 0.00280298, 0.000125264, 0.000327877, 0.0011992
-0.0099149, 0.00272875, -0.593395, -5.72497e-05, 0.000206938, -0.0020068, 0.0229864, 0.00815448, 0.00279933, 0.000123435, 0.000325394, 0.00119581
-0.00918622, 0.00296823, -0.59338, -5.54153e-05, 0.00020144, -0.00201605, 0.0229002, 0.00811945, 0.00279606, 0.000121709, 0.000322968, 0.00119298
-0.0083816, 0.00320366, -0.593371, -5.41445e-05, 0.000196147, -0.00202563, 0.0228107, 0.00808909, 0.00279324, 0.000120121, 0.000320597, 0.00119079
-0.00775869, 0.0032251, -0.593372, -5.43932e-05, 0.000174926, -0.00198819, 0.0226678, 0.00808484, 0.0027909, 0.000119979, 0.000316956, 0.0011863
-0.00695567, 0.00345279, -0.593366, -5.34306e-05, 0.00017106, -0.00199896, 0.0225856, 0.00806044, 0.00278866, 0.000118586, 0.000314825, 0.0011846
-0.00605707, 0.00367269, -0.593368, -5.30319e-05, 0.00016722, -0.00200811, 0.0225009, 0.00804077, 0.00278682, 0.000117353, 0.000312734, 0.00118346
