-0.0124969, -0.0034227, -0.589021, 0.000293109, 0.000273645, -0.000643089, 0.0316228, 0.0316228, 0.0316228, 0.0316228, 0.0316228, 0.0316228
-0.0124969, -0.0034227, -0.589021, 0.000293109, 0.000273645, -0.000643089, 0.0316228, 0.0316228, 0.0316228, 0.0316228, 0.0316228, 0.0316228
-0.0124961, -0.00342114, -0.588996, 0.000269304, -0.00010924, -0.000617514, 0.0316226, 0.031622, 0.031622, 0.0315861, 0.0314293, 0.0314282
-0.0124947, -0.00341395, -0.588995, 0.000273329, -0.000117742, -0.0005572, 0.0316223, 0.0316207, 0.0316207, 0.031541, 0.0313366, 0.0313361
-0.0124937, -0.0034034, -0.588985, 0.000274959, -0.000190184, -0.000490385, 0.0316217, 0.0316173, 0.0316171, 0.0314851, 0.0311795, 0.0311831
-0.0124921, -0.00340511, -0.588986, 0.000279837, -0.000173575, -0.000483768, 0.031621, 0.0316168, 0.0316166, 0.0314693, 0.0311523, 0.0311546
-0.0124915, -0.00338982, -0.588944, 0.000263243, -0.000419024, -0.000400949, 0.0316202, 0.0316098, 0.0316093, 0.0314023, 0.0309059, 0.0309234
-0.0124942, -0.0033942, -0.588828, 0.000202634, -0.000998775, -0.000428523, 0.0316188, 0.0315984, 0.0315962, 0.0313235, 0.030564, 0.0306329
-0.012498, -0.00342803, -0.588661, 0.000109331, -0.00175058, -0.000585422, 0.0316168, 0.0315851, 0.031576, 0.0312314, 0.0301331, 0.03037
-0.0124934, -0.00344104, -0.588637, 9.89969e-05, -0.00170212, -0.000516048, 0.0316142, 0.0315835, 0.0315738, 0.0312157, 0.0300987, 0.0303219
-0.0124936, -0.00347039, -0.588621, 7.74818e-05, -0.00176579, -0.000635986, 0.0316117, 0.0315732, 0.0315487, 0.0311088, 0.0296263, 0.0301539
-0.0124927, -0.00349433, -0.58863, 5.58353e-05, -0.00172837, -0.000712339, 0.0316083, 0.0315641, 0.0315196, 0.0309888, 0.0291889, 0.0300544
-0.0124967, -0.00350878, -0.588602, 2.67609e-05, -0.00181371, -0.00075437, 0.0316038, 0.0315566, 0.0314901, 0.0308545, 0.0288386, 0.0300057
-0.0124894, -0.00353497, -0.588542, 1.46888e-05, -0.00168863, -0.0006691, 0.0315974, 0.0315523, 0.0314836, 0.0308388, 0.0287958, 0.0299319
-0.012491, -0.0035448, -0.588478, 5.65545e-06, -0.00186983, -0.000707691, 0.0315924, 0.0315473, 0.0314564, 0.0306881, 0.0285457, 0.029911
-0.0124831, -0.00353894, -0.588497, 4.34228e-05, -0.00183875, -0.000712268, 0.0315865, 0.0315435, 0.0314273, 0.0305167, 0.0283371, 0.029894
-0.0124719, -0.00352733, -0.588517, 0.000110853, -0.0018131, -0.000720975, 0.0315795, 0.0315382, 0.0313855, 0.0303266, 0.0280914, 0.0298802
-0.0124985, -0.0035626, -0.588477, 0.000104757, -0.00174409, -0.000617464, 0.031567, 0.0315286, 0.0313707, 0.0303112, 0.0280408, 0.0297887
-0.0124921, -0.00354822, -0.588454, 0.000162014, -0.00180906, -0.000644345, 0.0315602, 0.0315227, 0.0313131, 0.0301036, 0.027749, 0.0297765
-0.0124785, -0.00352567, -0.588518, 0.000244336, -0.00170161, -0.000654614, 0.0315526, 0.0315159, 0.0312363, 0.0298737, 0.0274023, 0.029765
-0.0124632, -0.00349173, -0.58864, 0.000346128, -0.00149083, -0.000665216, 0.0315443, 0.031506, 0.0311325, 0.0296213, 0.0269797, 0.0297556
-0.0125085, -0.00353469, -0.588644, 0.000342106, -0.00144242, -0.000554624, 0.0315242, 0.0314904, 0.0311065, 0.029607, 0.0269062, 0.0296524
-0.0125011, -0.00350682, -0.588706, 0.000436985, -0.00133514, -0.000556978, 0.0315166, 0.0314786, 0.0309795, 0.0293359, 0.0264185, 0.029643
-0.0124983, -0.00348836, -0.588618, 0.000464802, -0.00148438, -0.000558725, 0.0315086, 0.0314665, 0.0308372, 0.029045, 0.0259076, 0.0296322
-0.0125005, -0.00347713, -0.588463, 0.000508829, -0.00172169, -0.000566118, 0.0315004, 0.0314568, 0.030693, 0.0287364, 0.0254334, 0.0296169
-0.0127093, -0.0034892, -0.588465, 0.000597935, -0.00191805, -0.000737182, 0.0314509, 0.0314324, 0.0305618, 0.0286924, 0.0243584, 0.0292559
-0.0127488, -0.00346762, -0.588322, 0.000657434, -0.00211786, -0.00082124, 0.0314348, 0.0314231, 0.0304309, 0.0283884, 0.023996, 0.0292233
-0.0127879, -0.00345186, -0.588169, 0.000795111, -0.00231394, -0.000912003, 0.0314182, 0.0314139, 0.0303026, 0.0280522, 0.0236922, 0.029185
-0.0128506, -0.00344908, -0.587888, 0.000951321, -0.00260963, -0.0010605, 0.0314018, 0.0314062, 0.0301862, 0.0276821, 0.0234638, 0.0291356
-0.0129956, -0.00337485, -0.587657, 0.000959704, -0.00292317, -0.00102421, 0.0313792, 0.0313807, 0.0301088, 0.0276687, 0.0230753, 0.0289429
-0.0130529, -0.00336656, -0.587522, 0.00111787, -0.00303269, -0.00114372, 0.0313644, 0.0313753, 0.0300164, 0.0272605, 0.0229203, 0.0288778
-0.0130651, -0.00333843, -0.587599, 0.00124807, -0.00295428, -0.00117098, 0.0313498, 0.0313682, 0.0299321, 0.0268376, 0.0227847, 0.0288321
-0.0130745, -0.00328925, -0.587703, 0.00134312, -0.002858, -0.00116893, 0.0313354, 0.0313545, 0.0298423, 0.0264179, 0.0226474, 0.0287989
-0.0132483, -0.00326213, -0.587759, 0.00129704, -0.00330196, -0.00122183, 0.031311, 0.0313274, 0.0296808, 0.0264053, 0.0221215, 0.0286314
-0.0132569, -0.00320865, -0.58787, 0.00140232, -0.00321639, -0.0011917, 0.0312987, 0.0313088, 0.0295835, 0.0259779, 0.0219922, 0.0285847
-0.0132637, -0.00316577, -0.588025, 0.00147748, -0.00309878, -0.0011684, 0.0312863, 0.0312802, 0.0294662, 0.0255638, 0.0218536, 0.0285119
-0.0132718, -0.00315132, -0.588209, 0.00149597, -0.00295018, -0.00118634, 0.0312738, 0.0312436, 0.029332, 0.0251777, 0.021705, 0.0284068
-0.0134845, -0.00305664, -0.58805, 0.00160275, -0.00330707, -0.00118391, 0.0312467, 0.0312271, 0.0290613, 0.0251497, 0.0210895, 0.0281769
-0.0134956, -0.00307681, -0.588216, 0.00158295, -0.00314117, -0.00127255, 0.0312356, 0.0311927, 0.0289387, 0.0248001, 0.0209464, 0.0279962
-0.0135101, -0.00311297, -0.588412, 0.00153767, -0.00293387, -0.0013988, 0.0312245, 0.0311574, 0.0288139, 0.0244741, 0.0207899, 0.0277839
-0.0135187, -0.00314785, -0.588643, 0.00149198, -0.00270838, -0.0015204, 0.0312136, 0.0311245, 0.028698, 0.0241648, 0.0206183, 0.0275506
-0.0137902, -0.00307505, -0.588798, 0.00142542, -0.00314672, -0.00149885, 0.0311836, 0.0311179, 0.0283068, 0.0241142, 0.0198778, 0.0271141
-0.0137941, -0.00308816, -0.588997, 0.00140586, -0.00291534, -0.00157712, 0.0311742, 0.0310902, 0.028217, 0.0238123, 0.0196914, 0.0267815
-0.0138212, -0.00308168, -0.589039, 0.00138271, -0.00279795, -0.00157286, 0.0311652, 0.0310652, 0.0281329, 0.0235005, 0.019504, 0.0264899
-0.0138576, -0.00308204, -0.588915, 0.00131822, -0.00276551, -0.00158651, 0.0311568, 0.0310431, 0.0280363, 0.0231619, 0.0193414, 0.0263302
-0.0141535, -0.00295638, -0.588528, 0.00111607, -0.00288722, -0.00133173, 0.0311248, 0.0310389, 0.0275308, 0.0230563, 0.0184825, 0.0255926
-0.0141846, -0.00297807, -0.588475, 0.00101225, -0.00278319, -0.00140033, 0.0311176, 0.0310179, 0.0274191, 0.0226843, 0.0183438, 0.0254958
-0.0142157, -0.00300638, -0.588342, 0.000866457, -0.00268352, -0.0014378, 0.0311107, 0.0309981, 0.0272748, 0.0222445, 0.0182101, 0.0254531
-0.0142451, -0.0030451, -0.588112, 0.000628315, -0.00255765, -0.00142181, 0.0311042, 0.0309789, 0.0270691, 0.0216822, 0.0180747, 0.0254326
-0.014522, -0.00303049, -0.588483, 0.000457003, -0.00301103, -0.00108876, 0.0310734, 0.0309766, 0.0265194, 0.0215575, 0.0171497, 0.0245531
-0.0145363, -0.00306769, -0.588446, 0.000163325, -0.00288171, -0.00107239, 0.0310679, 0.030958, 0.0262505, 0.0208884, 0.0170204, 0.0245306
-0.0145485, -0.00311145, -0.588509, -0.000126629, -0.00275203, -0.00101454, 0.0310626, 0.0309395, 0.0259023, 0.0201474, 0.0168807, 0.0244904
-0.0145638, -0.00315527, -0.588385, -0.000372152, -0.00263004, -0.000930132, 0.0310576, 0.0309222, 0.0255125, 0.0193533, 0.0167323, 0.0244284
-0.0147534, -0.00314375, -0.588959, -0.000194189, -0.00309377, -0.000970918, 0.031028, 0.030921, 0.0249564, 0.0192521, 0.0158315, 0.0235147
-0.0147763, -0.00317879, -0.588609, -0.000321393, -0.00297715, -0.00091064, 0.0310235, 0.0309049, 0.0245488, 0.018344, 0.0156943, 0.0234526
-0.0148035, -0.00320886, -0.588279, -0.000319051, -0.00284444, -0.000868859, 0.031019, 0.0308896, 0.0241388, 0.017281, 0.0155299, 0.0233612
-0.0148477, -0.0032245, -0.587709, -7.47192e-05, -0.00258163, -0.000886569, 0.0310141, 0.0308751, 0.0238053, 0.0161012, 0.0153154, 0.0232626
-0.0149962, -0.00321208, -0.587827, -0.000162549, -0.00273882, -0.000661422, 0.0309862, 0.0308743, 0.0232586, 0.016027, 0.0144917, 0.0224021
-0.0150885, -0.00321764, -0.587144, 0.000276118, -0.00230441, -0.00069239, 0.0309804, 0.0308611, 0.0230962, 0.0148389, 0.0142834, 0.0223337
-0.0151919, -0.00325091, -0.586786, 0.000687817, -0.00177533, -0.000680213, 0.0309743, 0.0308496, 0.0230532, 0.0138686, 0.0140439, 0.0222778
-0.0152797, -0.00331448, -0.586818, 0.00101433, -0.00131223, -0.000627258, 0.0309689, 0.0308392, 0.0230471, 0.0132731, 0.0138189, 0.0222337
-0.0154223, -0.00329707, -0.586814, 0.00115231, -0.0015561, -0.00108817, 0.0309452, 0.0308385, 0.0224197, 0.013204, 0.0130943, 0.0215619
-0.0154722, -0.00336748, -0.587045, 0.00139668, -0.00130794, -0.00101221, 0.0309409, 0.0308287, 0.0223761, 0.0129002, 0.0129353, 0.0215215
-0.0154973, -0.00343036, -0.587315, 0.00156985, -0.00113977, -0.00093664, 0.0309375, 0.0308193, 0.0222856, 0.0127428, 0.0127832, 0.0214752
-0.0155069, -0.00348914, -0.58763, 0.00172732, -0.000991074, -0.000861784, 0.0309345, 0.0308103, 0.0221657, 0.0126362, 0.0126331, 0.0214237
-0.0156328, -0.00348411, -0.588127, 0.00183797, -0.00141427, -0.00115682, 0.0309196, 0.0308097, 0.0214347, 0.0125104, 0.0119839, 0.0210568
-0.0156357, -0.00353233, -0.588404, 0.00196841, -0.00129396, -0.00109293, 0.030917, 0.030801, 0.0213149, 0.012415, 0.0118529, 0.0210066
-0.0156366, -0.00357064, -0.588629, 0.00209265, -0.00120306, -0.00104326, 0.0309144, 0.0307927, 0.0211993, 0.0123192, 0.0117172, 0.0209541
-0.0156334, -0.00360427, -0.588852, 0.00221696, -0.00110153, -0.00100242, 0.0309118, 0.0307849, 0.0210994, 0.012223, 0.0115764, 0.0208999
-0.0156822, -0.00359733, -0.5893, 0.00237464, -0.00133181, -0.00111594, 0.0309024, 0.0307844, 0.0203561, 0.0120854, 0.0110605, 0.0206877
-0.015681, -0.00362471, -0.589448, 0.00248889, -0.0012622, -0.00108214, 0.0309002, 0.0307771, 0.0202784, 0.0119919, 0.0109336, 0.0206343
-0.01568, -0.00365331, -0.589561, 0.00260428, -0.00119569, -0.00104786, 0.030898, 0.0307705, 0.0202118, 0.0118944, 0.0107994, 0.0205761
-0.0156794, -0.00367976, -0.589635, 0.00270644, -0.00114457, -0.00101036, 0.0308958, 0.0307644, 0.0201542, 0.0117889, 0.0106574, 0.0205134
-0.0156761, -0.00366388, -0.589836, 0.00284916, -0.0012041, -0.00115393, 0.0308866, 0.030764, 0.0194362, 0.0116869, 0.0102575, 0.0203398
-0.0156767, -0.00369225, -0.589894, 0.00294732, -0.00116574, -0.00110906, 0.0308848, 0.0307586, 0.0193834, 0.0115708, 0.0101285, 0.0202756
-0.0156777, -0.00371497, -0.589945, 0.00303022, -0.0011218, -0.00106785, 0.0308832, 0.0307537, 0.0193344, 0.011434, 0.00999046, 0.0202062
-0.0156804, -0.00374151, -0.589963, 0.00308347, -0.00108737, -0.00100553, 0.0308815, 0.0307492, 0.0192882, 0.0112668, 0.0098428, 0.0201303
-0.0156605, -0.00375396, -0.589774, 0.00305421, -0.000961502, -0.000536326, 0.0308724, 0.0307481, 0.0185691, 0.0111711, 0.00951467, 0.0198207
-0.0156645, -0.00378281, -0.589774, 0.00307968, -0.000943476, -0.00045772, 0.030871, 0.0307438, 0.0185234, 0.0109706, 0.00938084, 0.0197417
-0.0156678, -0.00380958, -0.589781, 0.00309281, -0.000904698, -0.000393124, 0.0308697, 0.0307394, 0.0184789, 0.0107258, 0.00923646, 0.0196546
-0.0156697, -0.00384387, -0.589772, 0.00307157, -0.000863265, -0.000309433, 0.0308684, 0.0307346, 0.0184391, 0.0104283, 0.00908263, 0.019558
-0.0157424, -0.00378954, -0.590215, 0.00312531, -0.000836385, -0.000799873, 0.0308588, 0.0307304, 0.017734, 0.0103554, 0.00880642, 0.0191887
-0.0157465, -0.00383578, -0.590154, 0.00297677, -0.00080384, -0.000647762, 0.0308577, 0.030725, 0.017696, 0.0100101, 0.00867082, 0.0190917
-0.0157493, -0.00388269, -0.590081, 0.00280314, -0.000777332, -0.000484056, 0.0308565, 0.0307188, 0.0176581, 0.00961511, 0.00852352, 0.0189872
-0.0157484, -0.00393121, -0.590027, 0.0026441, -0.000734865, -0.000346651, 0.0308553, 0.030711, 0.0176252, 0.00916699, 0.00836391, 0.018877
-0.0157216, -0.00396184, -0.589604, 0.00286318, -0.00054556, -0.000864806, 0.030846, 0.0306992, 0.0169096, 0.00911104, 0.00813056, 0.0185429
-0.0157162, -0.00403286, -0.589527, 0.00258381, -0.000482159, -0.000710159, 0.0308449, 0.0306894, 0.0168822, 0.00862589, 0.00799084, 0.0184389
-0.0157155, -0.0040954, -0.589396, 0.00215338, -0.000439283, -0.000443803, 0.0308436, 0.0306776, 0.0168565, 0.00811119, 0.00783698, 0.0183304
-0.0157125, -0.00415388, -0.58928, 0.00179611, -0.000396734, -0.000229931, 0.0308422, 0.0306639, 0.0168289, 0.00759784, 0.00767102, 0.0182168
-0.0157002, -0.00425764, -0.588934, 0.0017796, -0.000253071, 0.000160727, 0.0308323, 0.0306388, 0.016191, 0.00755817, 0.00746336, 0.0177106
-0.0157017, -0.00429138, -0.588882, 0.00156695, -0.000225942, 0.000292723, 0.0308308, 0.0306236, 0.0161722, 0.00707013, 0.00731524, 0.0176088
-0.0157013, -0.00432423, -0.588821, 0.00131175, -0.000204318, 0.000442392, 0.0308292, 0.0306059, 0.0161557, 0.00660675, 0.00716123, 0.0175047
-0.0156889, -0.00438686, -0.588784, 0.0011361, -0.000149503, 0.000493818, 0.0308274, 0.0305846, 0.0161399, 0.00616551, 0.00700207, 0.017394
-0.0156637, -0.00461323, -0.588302, 0.00113041, -3.05978e-05, 0.00108604, 0.0308174, 0.0305372, 0.0155244, 0.00613944, 0.00682324, 0.016963
-0.0156554, -0.00464839, -0.588301, 0.00107366, -9.86106e-06, 0.00109909, 0.0308155, 0.0305122, 0.0155159, 0.00573111, 0.00668454, 0.0168644
-0.0156405, -0.00471137, -0.588294, 0.000929115, 3.65147e-05, 0.00112463, 0.0308134, 0.0304809, 0.0155056, 0.00535127, 0.00654327, 0.0167655
-0.015622, -0.00478588, -0.588283, 0.000755734, 8.97213e-05, 0.00115589, 0.0308111, 0.0304424, 0.0154895, 0.00500354, 0.00640058, 0.0166617
-0.0156437, -0.00490608, -0.588133, 0.000772378, 0.000150882, 0.0014267, 0.0307997, 0.0303582, 0.0148907, 0.00498503, 0.00625119, 0.0163501
-0.0156329, -0.00495044, -0.58814, 0.000648765, 0.000181177, 0.00144781, 0.0307973, 0.0303127, 0.0148687, 0.0046751, 0.00613021, 0.0162514
-0.0156239, -0.00497619, -0.588167, 0.000499044, 0.000209147, 0.00150332, 0.0307946, 0.0302577, 0.0148376, 0.00439951, 0.00600777, 0.0161486
-0.0156119, -0.00501338, -0.58818, 0.000403557, 0.000230413, 0.00152151, 0.0307916, 0.0301924, 0.0147967, 0.00415673, 0.00588473, 0.0160411
-0.0155793, -0.00529866, -0.587785, 0.000408476, 0.000266533, 0.00164409, 0.030779, 0.03006, 0.0142316, 0.0041399, 0.00575626, 0.015788
-0.0155792, -0.00528313, -0.587823, 0.000345482, 0.000270522, 0.00168472, 0.0307759, 0.0299862, 0.0141822, 0.00392978, 0.00565326, 0.0156833
-0.0155761, -0.00526156, -0.587884, 0.000242816, 0.000281192, 0.00173496, 0.0307726, 0.0299011, 0.0141236, 0.00374702, 0.0055495, 0.0155776
-0.0155768, -0.00520712, -0.587963, 0.000139879, 0.000285513, 0.00180108, 0.0307689, 0.0298054, 0.0140602, 0.00358607, 0.00544536, 0.0154689
-0.0154341, -0.00612731, -0.587178, 0.000250748, 0.000187285, 0.00272799, 0.0307548, 0.0296125, 0.0135304, 0.00356861, 0.00532911, 0.0152717
-0.0154564, -0.00597426, -0.587286, 0.000204448, 0.000168687, 0.00283862, 0.0307512, 0.0295131, 0.0134691, 0.00343101, 0.00523841, 0.0151643
-0.0154817, -0.00578644, -0.587414, 0.000144695, 0.000150688, 0.00295832, 0.0307472, 0.0294034, 0.0134066, 0.00330847, 0.00514767, 0.0150572
-0.0155123, -0.00555822, -0.58755, 8.23665e-05, 0.000127811, 0.00308636, 0.0307428, 0.0292832, 0.0133456, 0.00319749, 0.00505681, 0.0149488
-0.0155616, -0.00543336, -0.587476, 2.98459e-05, 0.000187772, 0.00272572, 0.0307271, 0.0290217, 0.0128631, 0.00317825, 0.0049467, 0.0147821
-0.0155783, -0.00530643, -0.587547, -1.15498e-05, 0.000174855, 0.00278606, 0.0307228, 0.0289006, 0.0128124, 0.00307543, 0.00487293, 0.0146718
-0.0156035, -0.00513886, -0.587624, -2.71212e-05, 0.000150536, 0.00286237, 0.0307184, 0.0287699, 0.0127592, 0.00298283, 0.00479918, 0.0145628
-0.0156267, -0.00497071, -0.587698, -4.61367e-05, 0.00012681, 0.00292464, 0.0307136, 0.0286266, 0.0127041, 0.00289958, 0.00472388, 0.014455
-0.0156745, -0.00480605, -0.587638, -8.58623e-05, 0.000162098, 0.00267002, 0.030698, 0.0283153, 0.0122859, 0.00287858, 0.00461988, 0.0142961
-0.0156965, -0.00463301, -0.587718, -0.000114662, 0.000146073, 0.00272495, 0.0306935, 0.028172, 0.0122403, 0.00280209, 0.00455607, 0.0141874
-0.015722, -0.00441795, -0.587809, -0.000157101, 0.000130126, 0.0027802, 0.0306884, 0.0280143, 0.0121978, 0.00273032, 0.00448953, 0.0140726
-0.0157362, -0.00429696, -0.587855, -0.000177486, 0.000116517, 0.00280603, 0.0306831, 0.0278427, 0.0121568, 0.00266335, 0.00442125, 0.0139515
-0.0159227, -0.00331812, -0.588172, -0.000263025, 0.000253422, 0.00222518, 0.0306689, 0.027502, 0.0117996, 0.00264045, 0.00432228, 0.0137928
-0.015927, -0.00325169, -0.588203, -0.000289286, 0.000245298, 0.00221705, 0.030664, 0.0273363, 0.0117667, 0.002579, 0.00426551, 0.013672
-0.0159306, -0.00319489, -0.588225, -0.000310219, 0.00023136, 0.00219967, 0.0306589, 0.0271599, 0.0117335, 0.00252266, 0.004208, 0.0135477
-0.0159309, -0.00319822, -0.588216, -0.000310778, 0.000213771, 0.00217314, 0.0306536, 0.0269741, 0.0116977, 0.00247171, 0.00415062, 0.0134233
-0.0159794, -0.00298245, -0.5882, -0.000332976, 0.000237449, 0.00204069, 0.0306407, 0.0266232, 0.011402, 0.00244847, 0.00405306, 0.0132708
-0.0159822, -0.00295015, -0.588209, -0.000340836, 0.000221033, 0.00201925, 0.030636, 0.0264504, 0.0113728, 0.00240349, 0.00400369, 0.0131523
-0.0159849, -0.00289878, -0.58823, -0.00035448, 0.000209452, 0.00199933, 0.0306312, 0.0262664, 0.011342, 0.00236226, 0.00395331, 0.0130305
-0.0159762, -0.00295232, -0.58822, -0.000362055, 0.000203401, 0.00195009, 0.0306262, 0.0260724, 0.0113091, 0.00232445, 0.0039023, 0.012905
-0.0161478, -0.00197216, -0.588554, -0.000418039, 0.000348822, 0.00157579, 0.0306154, 0.025753, 0.011065, 0.00230137, 0.00380863, 0.0127507
-0.0161232, -0.00214698, -0.588523, -0.000427115, 0.000352049, 0.00148027, 0.0306111, 0.0255774, 0.0110373, 0.00226858, 0.00376506, 0.0126317
-0.0160949, -0.00232053, -0.588505, -0.000442886, 0.000358583, 0.00137902, 0.0306069, 0.0253997, 0.0110056, 0.00223918, 0.00372225, 0.0125107
-0.016067, -0.0025341, -0.588464, -0.0004527, 0.00036177, 0.00127242, 0.0306028, 0.0252232, 0.0109703, 0.00221265, 0.00368064, 0.0123875
-0.015983, -0.00301265, -0.588339, -0.000437115, 0.000276466, 0.00140534, 0.0305951, 0.0249753, 0.010769, 0.00219109, 0.00359317, 0.0122306
-0.0159664, -0.00320481, -0.588285, -0.000443054, 0.000277521, 0.0012965, 0.0305918, 0.0248298, 0.0107376, 0.00216965, 0.00355677, 0.0121171
-0.0159509, -0.00338021, -0.588235, -0.000451026, 0.000279338, 0.00119283, 0.0305888, 0.0246912, 0.0107, 0.00215062, 0.00352139, 0.0120017
-0.015945, -0.0035585, -0.58815, -0.000456256, 0.000271542, 0.00108424, 0.030586, 0.0245617, 0.0106559, 0.00213355, 0.00348673, 0.0118842
-0.0159274, -0.003663, -0.588136, -0.000459477, 0.000243521, 0.00106875, 0.0305808, 0.0244041, 0.0104889, 0.00211429, 0.00340992, 0.0117225
-0.0159225, -0.00377076, -0.588099, -0.000468139, 0.000245117, 0.000972281, 0.0305783, 0.0243031, 0.0104524, 0.00210113, 0.0033809, 0.011617
-0.0159129, -0.003879, -0.588079, -0.000475687, 0.000253678, 0.000888651, 0.030576, 0.0242135, 0.0104143, 0.00208866, 0.00335372, 0.0115082
-0.0159167, -0.00394974, -0.588031, -0.000480756, 0.000251927, 0.000814708, 0.030574, 0.0241347, 0.0103752, 0.00207655, 0.00332865, 0.0113975
-0.0159744, -0.00362167, -0.588175, -0.000491964, 0.000310579, 0.000707542, 0.0305701, 0.0240347, 0.0102572, 0.0020581, 0.00327073, 0.0112069
-0.0159647, -0.00369505, -0.588173, -0.000501417, 0.000319947, 0.000615285, 0.030568, 0.0239719, 0.0102277, 0.00204852, 0.00325179, 0.0111122
-0.0159451, -0.00374802, -0.588199, -0.000512432, 0.0003306, 0.000532618, 0.0305663, 0.0239222, 0.0102014, 0.00203872, 0.00323602, 0.0110144
-0.015963, -0.00372692, -0.588142, -0.000517783, 0.000319188, 0.00047655, 0.0305648, 0.0238806, 0.0101775, 0.00202869, 0.00322249, 0.0109134
-0.0159578, -0.0038257, -0.588086, -0.000541012, 0.000288549, 0.000277876, 0.0305609, 0.0238032, 0.0101044, 0.00201075, 0.0031813, 0.0106794
-0.0159614, -0.00378301, -0.588069, -0.000547173, 0.000283994, 0.000240819, 0.0305591, 0.0237681, 0.0100863, 0.00200293, 0.00317106, 0.0105948
-0.0159264, -0.00371438, -0.588117, -0.00056029, 0.000292897, 0.000195197, 0.0305575, 0.0237368, 0.0100707, 0.0019946, 0.00316202, 0.0105041
-0.0159169, -0.00363278, -0.588123, -0.000569946, 0.000290111, 0.000160583, 0.0305562, 0.0237052, 0.0100583, 0.00198559, 0.00315416, 0.0104067
-0.0160083, -0.00332437, -0.588169, -0.000582546, 0.000323896, 3.0976e-05, 0.0305505, 0.0236248, 0.0100164, 0.00196883, 0.00312064, 0.0101281
-0.0160103, -0.00324115, -0.588152, -0.000588649, 0.000317059, 7.77645e-06, 0.0305491, 0.0235936, 0.0100079, 0.00196119, 0.00311438, 0.0100439
-0.0160113, -0.00317578, -0.588138, -0.000593984, 0.000313853, -1.69499e-05, 0.0305478, 0.0235583, 0.00999989, 0.00195296, 0.0031084, 0.0099523
-0.0160113, -0.0031208, -0.588127, -0.000599592, 0.000314715, -4.85649e-05, 0.0305465, 0.0235192, 0.00999244, 0.00194416, 0.00310288, 0.00985363
-0.0161161, -0.00300517, -0.588123, -0.000616923, 0.00032806, -0.000235972, 0.0305382, 0.0234347, 0.00996841, 0.00192912, 0.00306939, 0.0095316
-0.0161144, -0.00295589, -0.588114, -0.000621528, 0.00033024, -0.000259958, 0.0305367, 0.0233964, 0.00996279, 0.00192152, 0.00306463, 0.00944731
-0.0161039, -0.00285661, -0.588114, -0.000629554, 0.000338149, -0.0003007, 0.0305354, 0.0233528, 0.00995753, 0.00191315, 0.0030599, 0.00935459
-0.016102, -0.00278856, -0.588103, -0.000633687, 0.000340991, -0.000329302, 0.0305342, 0.0233017, 0.00995272, 0.00190377, 0.0030551, 0.00925316
-0.0162841, -0.00256319, -0.588097, -0.000651479, 0.000360047, -0.00052015, 0.0305227, 0.023212, 0.00993835, 0.0018914, 0.00301421, 0.00890356
-0.0162783, -0.00249664, -0.588088, -0.00065301, 0.000365043, -0.00053466, 0.0305213, 0.0231609, 0.00993394, 0.00188264, 0.0030085, 0.00881384
-0.0162671, -0.00236988, -0.588085, -0.000660258, 0.000377636, -0.000582182, 0.0305198, 0.0231016, 0.00992949, 0.00187263, 0.00300217, 0.00871461
-0.0162641, -0.00233527, -0.588074, -0.000658834, 0.00038069, -0.000588356, 0.0305183, 0.0230344, 0.00992473, 0.00186128, 0.00299499, 0.00860614
-0.0164806, -0.0022735, -0.588068, -0.000681636, 0.000419129, -0.000870981, 0.030503, 0.0229426, 0.00991528, 0.00185116, 0.00294388, 0.00824114
-0.0164786, -0.00227496, -0.588055, -0.000676832, 0.000419388, -0.000849482, 0.0305013, 0.0228783, 0.00990996, 0.00183995, 0.00293475, 0.00814527
-0.0164724, -0.00222376, -0.588046, -0.000676874, 0.000426562, -0.000853519, 0.0304995, 0.0228104, 0.0099037, 0.00182748, 0.00292299, 0.00803605
-0.0164605, -0.00210264, -0.588042, -0.000679609, 0.000444075, -0.000896715, 0.0304974, 0.0227377, 0.00989614, 0.00181331, 0.00290958, 0.00791826
-0.0167489, -0.00190742, -0.588043, -0.000697059, 0.000459078, -0.00104761, 0.030478, 0.0226566, 0.00988852, 0.00180481, 0.0028475, 0.00755189
-0.0167289, -0.00182811, -0.588045, -0.000691703, 0.000476245, -0.00107586, 0.0304757, 0.022584, 0.00987957, 0.00178956, 0.00283448, 0.0074549
-0.0167167, -0.00181913, -0.58804, -0.000685536, 0.000483255, -0.00107039, 0.0304731, 0.0225071, 0.00986912, 0.00177241, 0.00282031, 0.00735163
-0.016692, -0.00174775, -0.588052, -0.000676077, 0.000505331, -0.00111284, 0.0304702, 0.0224287, 0.00985684, 0.00175341, 0.00280437, 0.00724118
-0.0170225, -0.00171169, -0.588027, -0.000674949, 0.00054724, -0.00128496, 0.0304451, 0.0223531, 0.00985066, 0.00174513, 0.00273665, 0.00689398
-0.0169915, -0.00172086, -0.588047, -0.000657435, 0.000564112, -0.00129828, 0.0304422, 0.0222745, 0.00983732, 0.0017246, 0.00272212, 0.00680338
-0.0169652, -0.00179327, -0.588058, -0.000640786, 0.000570876, -0.00127853, 0.030439, 0.0221965, 0.00982315, 0.00170191, 0.00270576, 0.00670466
-0.0169344, -0.00185945, -0.588074, -0.000622203, 0.000580609, -0.00127103, 0.0304357, 0.0221211, 0.00980802, 0.001677, 0.00268671, 0.00659551
-0.0174486, -0.00176462, -0.588053, -0.000618607, 0.000653517, -0.00149764, 0.0304048, 0.0220579, 0.00980359, 0.00166764, 0.00261804, 0.00628681
-0.0174241, -0.0018607, -0.588059, -0.000603357, 0.000653208, -0.00145663, 0.030401, 0.0219883, 0.00978746, 0.00164126, 0.00259807, 0.00618863
-0.0173911, -0.00187812, -0.588077, -0.00058598, 0.000669725, -0.00146599, 0.0303969, 0.0219209, 0.00977051, 0.00161258, 0.00257572, 0.00608074
-0.0173617, -0.0019259, -0.588086, -0.000571076, 0.00067817, -0.00145335, 0.0303926, 0.0218538, 0.00975289, 0.00158149, 0.00255248, 0.00596764
-0.0179478, -0.00186142, -0.588104, -0.000592215, 0.000665105, -0.00156797, 0.0303559, 0.0218063, 0.00974922, 0.00157042, 0.00248718, 0.00570365
-0.0179216, -0.00192429, -0.588112, -0.000578441, 0.00066853, -0.00154684, 0.0303508, 0.0217437, 0.00973093, 0.0015384, 0.00246502, 0.00560373
-0.0178649, -0.00196582, -0.58815, -0.000549159, 0.000694258, -0.00157758, 0.0303457, 0.0216825, 0.00971282, 0.00150453, 0.00244208, 0.00549741
-0.0178077, -0.00201873, -0.588191, -0.000517336, 0.000720352, -0.00160581, 0.0303407, 0.0216224, 0.00969558, 0.00146894, 0.00241972, 0.0053887
-0.0184882, -0.00199758, -0.588239, -0.000543669, 0.000729942, -0.00179123, 0.0302982, 0.0215865, 0.00969057, 0.00145601, 0.00236319, 0.00517489
-0.0184086, -0.00206457, -0.5883, -0.000501273, 0.000761622, -0.00183769, 0.0302927, 0.0215284, 0.00967366, 0.00142055, 0.00234499, 0.00508554
-0.0183205, -0.00209007, -0.588379, -0.000452053, 0.00080352, -0.00193194, 0.0302877, 0.0214715, 0.00965827, 0.00138384, 0.00232906, 0.00499982
-0.0182404, -0.0021458, -0.588436, -0.000406316, 0.000831357, -0.00197229, 0.030283, 0.0214161, 0.00964434, 0.00134594, 0.00231514, 0.00491889
-0.0191699, -0.00205988, -0.588361, -0.000382674, 0.000940055, -0.00216024, 0.0302349, 0.0213861, 0.00963763, 0.0013321, 0.00227064, 0.00474654
-0.0191041, -0.00205789, -0.588414, -0.000347869, 0.000965918, -0.0022049, 0.0302299, 0.0213322, 0.00962395, 0.00129536, 0.00226025, 0.0046831
-0.0190595, -0.00208529, -0.588449, -0.000321883, 0.000979136, -0.00221772, 0.0302253, 0.02128, 0.00961139, 0.00125844, 0.00225195, 0.00462536
-0.0190112, -0.00212159, -0.588483, -0.000294222, 0.000990849, -0.00222812, 0.030221, 0.0212316, 0.00959941, 0.00122214, 0.0022448, 0.00457063
-0.0199153, -0.00209358, -0.588435, -0.000282558, 0.00105289, -0.00235211, 0.0301683, 0.0212033, 0.0095885, 0.00120877, 0.00220743, 0.00442737
-0.0198513, -0.00212523, -0.588489, -0.000248851, 0.00106503, -0.0023739, 0.0301636, 0.0211573, 0.00957659, 0.00117472, 0.00220195, 0.0043851
-0.0198069, -0.00215855, -0.588523, -0.000223618, 0.0010702, -0.00237653, 0.0301596, 0.0211153, 0.00956609, 0.00114125, 0.00219723, 0.00434583
-0.0197601, -0.00220428, -0.588562, -0.00019522, 0.00107332, -0.00237743, 0.0301559, 0.0210783, 0.00955658, 0.00110872, 0.00219287, 0.00430802
-0.0207275, -0.00218484, -0.588468, -0.000173787, 0.00112657, -0.00244823, 0.0301016, 0.0210496, 0.00954277, 0.00109668, 0.00216144, 0.00418837
-0.0206815, -0.00222985, -0.588502, -0.00014829, 0.00112488, -0.00244405, 0.0300978, 0.0210168, 0.0095339, 0.00106636, 0.00215707, 0.00415779
-0.0206336, -0.00228163, -0.588536, -0.000119217, 0.00111978, -0.00243326, 0.0300945, 0.0209889, 0.00952599, 0.00103678, 0.00215254, 0.00412734
-0.020578, -0.00232814, -0.588574, -8.47735e-05, 0.00111046, -0.00241801, 0.0300917, 0.0209649, 0.00951914, 0.00100792, 0.0021473, 0.00409668
-0.0215338, -0.00231, -0.588455, -6.07874e-05, 0.00116017, -0.00247389, 0.0300381, 0.0209349, 0.00950167, 0.000997198, 0.00212042, 0.00399705
-0.0214888, -0.00236157, -0.588473, -3.11681e-05, 0.00114406, -0.00244734, 0.0300353, 0.0209139, 0.00949563, 0.000970238, 0.00211356, 0.00396967
-0.0214494, -0.00240644, -0.588479, -3.44788e-06, 0.00112525, -0.00241993, 0.0300328, 0.0208962, 0.00948965, 0.00094408, 0.00210578, 0.00394045
-0.0214108, -0.00244148, -0.588482, 2.48621e-05, 0.00110368, -0.00238533, 0.0300305, 0.020881, 0.0094835, 0.000918863, 0.00209664, 0.00390877
-0.0222988, -0.00252058, -0.588417, 4.03689e-05, 0.00112869, -0.00243249, 0.0299781, 0.0208493, 0.0094615, 0.000909609, 0.0020735, 0.00382769
-0.0222928, -0.00254449, -0.588388, 5.74702e-05, 0.00110796, -0.00240492, 0.0299754, 0.020836, 0.00945495, 0.000886349, 0.00206262, 0.00379731
-0.0222963, -0.0025441, -0.58835, 6.92599e-05, 0.00109224, -0.00238033, 0.0299728, 0.0208239, 0.00944637, 0.000863931, 0.00205202, 0.00376687
-0.0223179, -0.00251275, -0.588294, 7.08371e-05, 0.00108374, -0.00237092, 0.02997, 0.0208113, 0.00943509, 0.00084229, 0.00204237, 0.00373781
-0.0231319, -0.00265927, -0.588315, 7.51347e-05, 0.00109017, -0.00241835, 0.0299198, 0.0207767, 0.00940523, 0.000834278, 0.00202141, 0.00367129
-0.0231668, -0.00260716, -0.588244, 7.53644e-05, 0.00108097, -0.00240426, 0.0299164, 0.0207623, 0.00939084, 0.000814032, 0.00201301, 0.00364769
-0.0231947, -0.0025406, -0.588169, 7.68581e-05, 0.00107049, -0.00238827, 0.0299126, 0.0207439, 0.00937166, 0.00079397, 0.00200587, 0.00362572
-0.0232317, -0.00243107, -0.588065, 7.71875e-05, 0.00105769, -0.00236583, 0.0299083, 0.0207196, 0.0093465, 0.000773805, 0.0019995, 0.00360448
-0.0239845, -0.00274581, -0.588206, 7.14524e-05, 0.00105162, -0.00242123, 0.0298614, 0.02067, 0.00929813, 0.000766414, 0.00197904, 0.00354919
-0.0240226, -0.0025904, -0.588075, 7.53662e-05, 0.00103401, -0.00238474, 0.0298559, 0.020639, 0.00926622, 0.000746785, 0.00197277, 0.00352987
-0.0240492, -0.00243053, -0.587947, 8.09782e-05, 0.00101547, -0.00234901, 0.0298497, 0.0205975, 0.00922516, 0.000726753, 0.0019663, 0.00350917
-0.0240887, -0.00220562, -0.587776, 8.5767e-05, 0.000991693, -0.00230007, 0.0298426, 0.0205428, 0.00917281, 0.000706265, 0.00195915, 0.00348613
-0.0248183, -0.00243709, -0.587853, 8.83928e-05, 0.00100553, -0.00235615, 0.0297994, 0.0204674, 0.00910302, 0.000699935, 0.00193981, 0.0034409
-0.0248534, -0.00219639, -0.587681, 9.44359e-05, 0.000981325, -0.0023053, 0.0297908, 0.0204008, 0.00904066, 0.00068019, 0.00193175, 0.00341734
-0.0248854, -0.00193044, -0.587496, 0.000101402, 0.000955413, -0.0022506, 0.0297817, 0.0203179, 0.00896598, 0.000660378, 0.00192282, 0.00339141
-0.024921, -0.00162873, -0.587291, 0.00010885, 0.000926198, -0.00218844, 0.0297721, 0.020216, 0.00887675, 0.000640426, 0.00191268, 0.00336225
-0.0256085, -0.00175779, -0.587302, 0.00011432, 0.000947163, -0.00224116, 0.0297316, 0.0200936, 0.00877999, 0.000635394, 0.00189433, 0.00332719
-0.0256569, -0.00148072, -0.587112, 0.000118349, 0.000920293, -0.00218519, 0.029721, 0.0199796, 0.00868143, 0.000616535, 0.00188324, 0.00329738
-0.0257274, -0.00119155, -0.586908, 0.000119444, 0.000891048, -0.00212495, 0.0297105, 0.0198468, 0.00856998, 0.000597941, 0.00187166, 0.00326599
-0.0257895, -0.000955286, -0.586735, 0.000120391, 0.000864513, -0.00207174, 0.0297, 0.0196929, 0.00844367, 0.000579619, 0.0018594, 0.00323224
-0.0264523, -0.001142, -0.586773, 0.000123001, 0.000874912, -0.00210932, 0.0296623, 0.0195339, 0.00832915, 0.00057642, 0.00184134, 0.003205
-0.0264844, -0.00104777, -0.586698, 0.000124465, 0.00086102, -0.00208256, 0.0296519, 0.0193767, 0.00820096, 0.000559608, 0.00182922, 0.00317283
-0.0265423, -0.000944556, -0.586604, 0.000122449, 0.000844477, -0.00205173, 0.0296428, 0.0192054, 0.00806559, 0.00054367, 0.00181768, 0.00314221
-0.0265813, -0.000920992, -0.586564, 0.000120793, 0.000833123, -0.00203519, 0.0296347, 0.0190204, 0.00792283, 0.00052872, 0.0018066, 0.00311293
-0.0271904, -0.00114708, -0.586611, 0.000122746, 0.000830901, -0.00205075, 0.0295993, 0.0188535, 0.00780423, 0.00052708, 0.00178844, 0.00309049
-0.0272254, -0.00116946, -0.5866, 0.000120606, 0.000824279, -0.00204109, 0.0295919, 0.0186769, 0.00766844, 0.000513797, 0.00177829, 0.00306472
-0.0272751, -0.00117584, -0.586568, 0.000117335, 0.000814076, -0.00202383, 0.0295856, 0.0184921, 0.00752939, 0.000501685, 0.00176892, 0.00304153
-0.0273125, -0.00125813, -0.586585, 0.000113993, 0.000808274, -0.00201805, 0.0295801, 0.0183014, 0.00738792, 0.000490769, 0.00176012, 0.00302059
-0.0278851, -0.00165402, -0.586747, 0.000113206, 0.000795344, -0.00202211, 0.0295467, 0.0181424, 0.00727186, 0.000489922, 0.00174142, 0.00299962
-0.0279207, -0.00174066, -0.586766, 0.000110302, 0.000789604, -0.00201655, 0.029542, 0.0179682, 0.00714215, 0.000480391, 0.00173342, 0.00298144
-0.0279617, -0.00186466, -0.586799, 0.000106443, 0.000782936, -0.00201094, 0.0295382, 0.017794, 0.00701359, 0.000471996, 0.00172592, 0.00296564
-0.0279927, -0.00199676, -0.586843, 0.000103988, 0.000776437, -0.00200714, 0.0295351, 0.0176229, 0.00688757, 0.000464664, 0.00171871, 0.00295183
-0.0284971, -0.00271507, -0.587164, 0.000105619, 0.000732097, -0.0019511, 0.0295036, 0.0174874, 0.00678155, 0.000463918, 0.00169955, 0.00293077
-0.0285133, -0.00285086, -0.587222, 0.000105368, 0.000726863, -0.00195188, 0.0295011, 0.0173374, 0.0066704, 0.000457437, 0.00169285, 0.00291872
-0.0285279, -0.00300548, -0.587293, 0.000105788, 0.000720243, -0.00195335, 0.0294992, 0.0171944, 0.00656499, 0.000451662, 0.00168635, 0.00290935
-0.0285389, -0.00302848, -0.587288, 0.000108195, 0.000709478, -0.0019407, 0.0294976, 0.0170579, 0.00646441, 0.000446397, 0.00167965, 0.00290164
-0.0290267, -0.00338946, -0.587405, 0.000112377, 0.000679975, -0.00190088, 0.0294668, 0.0169458, 0.00637055, 0.000445428, 0.00166024, 0.00288069
-0.0290401, -0.00348328, -0.587441, 0.000113844, 0.000671208, -0.0018943, 0.0294655, 0.0168261, 0.00628188, 0.000440416, 0.00165353, 0.00287309
-0.0290607, -0.00367441, -0.587528, 0.000113785, 0.000663107, -0.0018924, 0.0294644, 0.0167121, 0.00619814, 0.000435738, 0.00164627, 0.00286672
-0.0290781, -0.00378254, -0.587563, 0.000113917, 0.000653201, -0.00188352, 0.0294633, 0.0166047, 0.00611984, 0.000431362, 0.00163819, 0.00286101
-0.0294904, -0.00406331, -0.58765, 0.000118956, 0.000621584, -0.00183818, 0.0294318, 0.0165128, 0.00603657, 0.000430084, 0.00161848, 0.00283985
-0.0295022, -0.00409748, -0.58764, 0.000118287, 0.000614767, -0.00182918, 0.0294309, 0.0164201, 0.00596899, 0.000426002, 0.00161048, 0.00283392
-0.0295233, -0.00423536, -0.587684, 0.000116613, 0.000606765, -0.00182252, 0.0294298, 0.0163336, 0.00590526, 0.000422333, 0.00160191, 0.00282815
-0.0295453, -0.00437041, -0.587727, 0.000115755, 0.000596923, -0.00181256, 0.0294285, 0.0162552, 0.00584702, 0.000418987, 0.00159236, 0.00282225
-0.0299312, -0.00467866, -0.587839, 0.000121593, 0.000561237, -0.00175459, 0.0293966, 0.0161721, 0.00577019, 0.000417307, 0.00157157, 0.00279935
-0.029938, -0.00472158, -0.587835, 0.000121199, 0.000553761, -0.00174462, 0.0293954, 0.0161069, 0.0057221, 0.000414152, 0.00156201, 0.00279303
-0.0299285, -0.00468176, -0.587787, 0.000121344, 0.000548488, -0.00173434, 0.0293938, 0.0160477, 0.00567725, 0.000411236, 0.00155183, 0.00278629
-0.0299138, -0.00463157, -0.587734, 0.000123081, 0.000539713, -0.00171859, 0.0293919, 0.0159936, 0.00563473, 0.000408493, 0.00154133, 0.0027791
-0.0302747, -0.0050077, -0.587889, 0.000128714, 0.000504206, -0.00165507, 0.0293605, 0.0159139, 0.00556248, 0.000406473, 0.00151972, 0.00275496
-0.0302652, -0.00498784, -0.587853, 0.000130238, 0.00049469, -0.00163863, 0.0293588, 0.0158684, 0.00552659, 0.000403811, 0.00150994, 0.00274737
-0.0302637, -0.00501032, -0.587838, 0.000131529, 0.000483417, -0.00162225, 0.0293567, 0.0158282, 0.00549386, 0.000401161, 0.00149932, 0.00273881
-0.0302349, -0.00496086, -0.587787, 0.000133073, 0.000474807, -0.00160616, 0.029354, 0.0157925, 0.005464, 0.000398493, 0.00148782, 0.00272915
-0.0305694, -0.00528365, -0.587901, 0.000140019, 0.000433257, -0.00153328, 0.0293235, 0.0157109, 0.00539612, 0.000396225, 0.00146569, 0.00270421
-0.0305438, -0.00524324, -0.587857, 0.000140983, 0.000425807, -0.00151916, 0.0293211, 0.0156793, 0.00537072, 0.000393583, 0.00145488, 0.00269385
-0.0305368, -0.00524375, -0.587836, 0.000140513, 0.000418881, -0.00151082, 0.0293181, 0.0156497, 0.00534733, 0.000390938, 0.00144314, 0.00268239
-0.0305086, -0.00520815, -0.587798, 0.00014062, 0.000412659, -0.00150131, 0.0293144, 0.0156215, 0.00532588, 0.000388278, 0.0014303, 0.00266977
-0.0307932, -0.00541511, -0.587835, 0.000149096, 0.000366156, -0.00142428, 0.0292848, 0.0155424, 0.00526431, 0.000385785, 0.00140747, 0.00264379
-0.0307567, -0.00536451, -0.587792, 0.000149156, 0.000362673, -0.00141703, 0.0292812, 0.0155143, 0.00524568, 0.000383119, 0.00139501, 0.00263034
-0.030735, -0.00532895, -0.587762, 0.000148743, 0.000358807, -0.0014122, 0.029277, 0.0154848, 0.00522762, 0.000380327, 0.00138129, 0.00261514
-0.030699, -0.00527693, -0.587723, 0.000148358, 0.000355824, -0.0014085, 0.029272, 0.015454, 0.00521018, 0.000377356, 0.00136606, 0.00259784
-0.0309927, -0.00556571, -0.587805, 0.000154863, 0.000318842, -0.00134153, 0.0292437, 0.01537, 0.00515241, 0.000374762, 0.00134308, 0.00257139
-0.0309595, -0.0055186, -0.587772, 0.000154293, 0.000317163, -0.00133981, 0.0292387, 0.0153379, 0.00513665, 0.000371705, 0.00132798, 0.0025529
-0.0309494, -0.00547249, -0.587745, 0.000152624, 0.000316463, -0.00134331, 0.0292329, 0.015305, 0.00512157, 0.000368373, 0.00131105, 0.00253166
-0.0309116, -0.00539269, -0.587704, 0.00015025, 0.000320167, -0.00135297, 0.0292259, 0.015272, 0.00510741, 0.000364798, 0.00129232, 0.00250782
-0.0312155, -0.00568618, -0.587803, 0.000154419, 0.000295185, -0.00130138, 0.0291981, 0.0151862, 0.00505483, 0.000362239, 0.00126983, 0.00248179
-0.0311548, -0.00560661, -0.587761, 0.000152156, 0.00030071, -0.00131242, 0.0291908, 0.0151519, 0.00504187, 0.000358681, 0.00125166, 0.00245755
-0.0310979, -0.00550212, -0.587713, 0.000148703, 0.000309269, -0.00133061, 0.0291824, 0.0151162, 0.00502915, 0.000354988, 0.00123235, 0.00243144
-0.0310226, -0.00537993, -0.587658, 0.000144664, 0.000320348, -0.00135352, 0.0291727, 0.015079, 0.00501664, 0.000351214, 0.001212, 0.00240381
-0.0312954, -0.00572891, -0.587781, 0.000147293, 0.00030145, -0.00131087, 0.0291463, 0.0149873, 0.00496732, 0.000348822, 0.00119061, 0.00237897
-0.0311779, -0.00560725, -0.587724, 0.000143097, 0.000315944, -0.00133722, 0.0291362, 0.0149475, 0.00495514, 0.000345225, 0.00117151, 0.00235222
-0.0310448, -0.00547052, -0.587665, 0.000138794, 0.000331899, -0.00136585, 0.0291253, 0.0149044, 0.00494241, 0.000341708, 0.00115229, 0.00232513
-0.0308857, -0.00533504, -0.587605, 0.000135427, 0.000346142, -0.00139015, 0.0291135, 0.0148573, 0.00492884, 0.000338298, 0.0011332, 0.00229791
-0.0311506, -0.00567754, -0.587728, 0.000136636, 0.000333244, -0.00135834, 0.0290899, 0.0147607, 0.00488215, 0.000336164, 0.00111318, 0.00227542
-0.0310519, -0.00551795, -0.587667, 0.000132347, 0.000345997, -0.00138528, 0.0290781, 0.0147101, 0.00486831, 0.000332996, 0.00109587, 0.00224974
-0.0309473, -0.00535499, -0.587605, 0.000128378, 0.000357524, -0.00141034, 0.029065, 0.0146574, 0.00485427, 0.000329866, 0.00107828, 0.00222365
-0.0308102, -0.00518566, -0.587542, 0.000124621, 0.000369666, -0.00143569, 0.0290509, 0.0146016, 0.00483969, 0.000326788, 0.00106063, 0.00219727
-0.0310505, -0.00549965, -0.587654, 0.000125339, 0.000359007, -0.00140982, 0.0290291, 0.014506, 0.00479779, 0.000324926, 0.00104207, 0.00217681
-0.0309224, -0.00532297, -0.587592, 0.0001213, 0.000371376, -0.00143669, 0.0290148, 0.0144476, 0.00478302, 0.000322037, 0.00102601, 0.00215187
-0.0307755, -0.00513595, -0.587527, 0.000117601, 0.000383141, -0.0014623, 0.0289997, 0.014387, 0.00476788, 0.000319167, 0.00100984, 0.00212659
-0.0306413, -0.00491965, -0.587455, 0.000113428, 0.000395053, -0.00149075, 0.0289839, 0.0143241, 0.00475231, 0.000316323, 0.000993704, 0.00210111
-0.0306404, -0.00494891, -0.587441, 0.000122945, 0.000340026, -0.00139411, 0.0289646, 0.014218, 0.00471087, 0.000314669, 0.000976432, 0.00208276
-0.0305551, -0.0046956, -0.587362, 0.000117417, 0.000353759, -0.00143032, 0.0289489, 0.0141507, 0.00469469, 0.000311937, 0.000961502, 0.00205814
-0.0304387, -0.00448335, -0.587295, 0.000113436, 0.000362848, -0.00145589, 0.0289321, 0.0140832, 0.00467862, 0.000309262, 0.000946569, 0.00203381
-0.030312, -0.00430409, -0.587238, 0.000110553, 0.000368934, -0.00147444, 0.0289148, 0.0140167, 0.00466291, 0.000306535, 0.000931486, 0.00200911
-0.0304897, -0.00452399, -0.587313, 0.000112094, 0.000355405, -0.00144557, 0.0288961, 0.0139262, 0.00462953, 0.000305081, 0.000914854, 0.00199196
-0.0303925, -0.00429751, -0.587245, 0.000106862, 0.000366545, -0.00147814, 0.028879, 0.0138631, 0.00461489, 0.000302308, 0.000900562, 0.00196766
-0.0302934, -0.00406715, -0.587176, 0.00010115, 0.000378252, -0.00151274, 0.0288609, 0.0138043, 0.00460134, 0.000299432, 0.000885713, 0.00194283
-0.0301784, -0.00387294, -0.587118, 9.61016e-05, 0.000387164, -0.00154159, 0.0288421, 0.0137505, 0.00458901, 0.000296391, 0.00087019, 0.00191711
-0.030168, -0.00387403, -0.58711, 0.000102348, 0.000348321, -0.00147361, 0.0288233, 0.0136633, 0.00455987, 0.000295176, 0.000854964, 0.00190183
-0.0300651, -0.00364944, -0.587045, 9.4977e-05, 0.000362763, -0.00151599, 0.0288046, 0.0136129, 0.0045486, 0.000292014, 0.000839835, 0.00187607
-0.0299373, -0.00341658, -0.586979, 8.65452e-05, 0.000379847, -0.00156388, 0.028785, 0.0135678, 0.00453859, 0.000288721, 0.000824048, 0.00184982
-0.0297999, -0.00319437, -0.586916, 7.80972e-05, 0.000395888, -0.00160973, 0.0287644, 0.0135266, 0.00452956, 0.000285368, 0.000807901, 0.00182361
-0.0299598, -0.00333249, -0.586961, 7.98862e-05, 0.000382001, -0.00158324, 0.0287444, 0.0134408, 0.00450363, 0.000284346, 0.000793682, 0.00181003
-0.0298112, -0.00314611, -0.58691, 7.19677e-05, 0.00039585, -0.00162397, 0.0287236, 0.013403, 0.00449552, 0.000280999, 0.000778432, 0.00178505
-0.0296416, -0.00293977, -0.586855, 6.24109e-05, 0.000413275, -0.00167295, 0.0287018, 0.0133685, 0.00448826, 0.00027758, 0.000762935, 0.00176013
-0.0294526, -0.00276312, -0.586809, 5.40618e-05, 0.000427087, -0.00171346, 0.028679, 0.0133365, 0.00448162, 0.000274175, 0.000747435, 0.00173582
-0.0293037, -0.00261476, -0.586761, 5.91998e-05, 0.00039127, -0.00165584, 0.0286558, 0.0132635, 0.00446169, 0.000273391, 0.000734603, 0.00172402
-0.0290949, -0.00245065, -0.586721, 5.10112e-05, 0.000405992, -0.00169702, 0.0286332, 0.0132317, 0.00445532, 0.000270043, 0.000720288, 0.00170104
-0.0288961, -0.00226466, -0.586676, 4.12389e-05, 0.000421708, -0.00174301, 0.0286099, 0.0132024, 0.00444959, 0.000266695, 0.000706058, 0.00167864
-0.028677, -0.00209685, -0.586638, 3.20527e-05, 0.000435383, -0.00178412, 0.0285855, 0.0131755, 0.00444441, 0.000263359, 0.000691851, 0.00165688
-0.0287055, -0.00207356, -0.586632, 3.51407e-05, 0.000412541, -0.00174614, 0.0285584, 0.0131065, 0.00442771, 0.000262734, 0.000679979, 0.0016469
-0.0284505, -0.00194013, -0.586605, 2.7058e-05, 0.000426202, -0.00178432, 0.028534, 0.0130808, 0.00442291, 0.000259451, 0.000666937, 0.00162658
-0.0281744, -0.00179533, -0.586578, 1.77801e-05, 0.000440695, -0.00182621, 0.0285092, 0.0130576, 0.00441875, 0.000256158, 0.000654107, 0.00160687
-0.0278924, -0.00164021, -0.586549, 7.24178e-06, 0.000454885, -0.00186971, 0.0284835, 0.0130364, 0.004415, 0.000252939, 0.000641531, 0.00158822
-0.027767, -0.00152287, -0.586519, 1.03596e-05, 0.000427986, -0.00182785, 0.0284502, 0.0129782, 0.00440276, 0.000252473, 0.00063092, 0.00157986
-0.0274927, -0.00142076, -0.586505, 2.64751e-06, 0.000437901, -0.00185888, 0.0284247, 0.012958, 0.0043993, 0.000249328, 0.000619447, 0.00156268
-0.0272089, -0.00131943, -0.586493, -6.20551e-06, 0.000447767, -0.00189189, 0.0283983, 0.0129412, 0.00439647, 0.000246102, 0.000608014, 0.00154585
-0.0269398, -0.00124137, -0.586487, -1.46912e-05, 0.000454352, -0.0019189, 0.0283707, 0.0129272, 0.0043941, 0.00024281, 0.000596573, 0.00152952
-0.0267083, -0.00110318, -0.586458, -1.18123e-05, 0.000423703, -0.00186958, 0.0283292, 0.0128764, 0.00438514, 0.000242455, 0.000586769, 0.0015225
-0.0264422, -0.00105442, -0.58646, -1.95949e-05, 0.000430706, -0.0018954, 0.028301, 0.0128643, 0.00438306, 0.000239048, 0.000576027, 0.00150676
-0.0261368, -0.00102756, -0.586471, -2.78746e-05, 0.000438043, -0.00192223, 0.0282711, 0.0128551, 0.00438131, 0.000235415, 0.000565041, 0.00149095
-0.0258235, -0.00102581, -0.586489, -3.54326e-05, 0.000443908, -0.00194521, 0.0282394, 0.012848, 0.00437962, 0.000231525, 0.000553766, 0.00147502
-0.0254714, -0.000856051, -0.586459, -3.33158e-05, 0.000413698, -0.00189884, 0.0281898, 0.0127966, 0.00437198, 0.000231267, 0.000545044, 0.00146955
-0.0251377, -0.000874616, -0.586483, -4.15711e-05, 0.000422388, -0.00192714, 0.0281574, 0.0127903, 0.00437016, 0.000227124, 0.000534241, 0.00145373
-0.0247436, -0.000920703, -0.586519, -5.22525e-05, 0.000434988, -0.0019646, 0.0281234, 0.0127838, 0.00436785, 0.000222745, 0.000523234, 0.00143805
-0.0243371, -0.000978146, -0.586558, -6.09705e-05, 0.000445351, -0.00199502, 0.0280883, 0.0127762, 0.00436485, 0.000218265, 0.00051232, 0.00142314
-0.0241251, -0.000869682, -0.586542, -6.02521e-05, 0.00042524, -0.00196694, 0.0280291, 0.0127203, 0.00435768, 0.000218086, 0.000504478, 0.00141899
-0.0237518, -0.00093511, -0.586581, -6.81645e-05, 0.000434165, -0.00199395, 0.0279937, 0.012711, 0.00435396, 0.000213506, 0.000494415, 0.00140496
-0.0233522, -0.00104943, -0.586637, -7.86799e-05, 0.000443744, -0.00202511, 0.0279567, 0.0126988, 0.00434912, 0.000208819, 0.000484442, 0.00139161
-0.0229597, -0.00115692, -0.58669, -8.70293e-05, 0.000450998, -0.00204924, 0.0279181, 0.012683, 0.004343, 0.000204072, 0.000474591, 0.0013791
-0.0227733, -0.00100752, -0.58666, -8.73865e-05, 0.000436322, -0.00203416, 0.0278468, 0.01263, 0.00433733, 0.000203955, 0.000467688, 0.00137598
-0.0223765, -0.00113946, -0.586721, -9.64879e-05, 0.000444677, -0.00206061, 0.0278077, 0.0126117, 0.00433027, 0.000199218, 0.000458711, 0.00136453
-0.0219593, -0.00133305, -0.5868, -0.000107795, 0.000453149, -0.00208864, 0.0277673, 0.0125888, 0.00432175, 0.000194455, 0.000449798, 0.00135387
-0.0215417, -0.00149571, -0.58687, -0.000116487, 0.000460145, -0.00211116, 0.0277259, 0.0125602, 0.00431155, 0.000189654, 0.000440862, 0.00134383
-0.0210648, -0.00129875, -0.586845, -0.000117109, 0.000439747, -0.00208909, 0.0276434, 0.0125046, 0.00430629, 0.000189569, 0.000434808, 0.00134146
-0.0206405, -0.00143158, -0.586905, -0.000124423, 0.000448231, -0.00211335, 0.0276026, 0.0124733, 0.00429524, 0.000184819, 0.000426587, 0.0013321
-0.0201669, -0.00161605, -0.586982, -0.000133807, 0.000458285, -0.00214132, 0.0275623, 0.0124372, 0.00428302, 0.000180209, 0.000418697, 0.0013236
-0.0197146, -0.00176748, -0.587048, -0.000141567, 0.000466487, -0.00216464, 0.0275226, 0.0123982, 0.00427002, 0.000175836, 0.000411239, 0.00131619
-0.0196954, -0.00172882, -0.587041, -0.000142579, 0.000457025, -0.00215475, 0.0274275, 0.0123438, 0.00426546, 0.000175753, 0.000405863, 0.00131425
-0.0192892, -0.00182502, -0.587089, -0.000148126, 0.00046314, -0.00217336, 0.0273892, 0.0123049, 0.00425235, 0.000171636, 0.000399358, 0.00130789
-0.0188955, -0.00195459, -0.587147, -0.000154515, 0.000468023, -0.00218962, 0.0273514, 0.0122637, 0.00423872, 0.000167745, 0.000393237, 0.00130232
-0.0185188, -0.00208508, -0.587206, -0.000160696, 0.000471044, -0.00220249, 0.0273141, 0.0122204, 0.00422465, 0.000164033, 0.000387325, 0.00129723
-0.0187778, -0.00214534, -0.587208, -0.000161782, 0.000467254, -0.00219626, 0.0272103, 0.0121691, 0.00422057, 0.000163924, 0.000382634, 0.0012954
-0.0184373, -0.00218017, -0.587235, -0.000165221, 0.000470204, -0.00220895, 0.0271742, 0.012126, 0.00420645, 0.000160372, 0.000377293, 0.00129073
-0.0180688, -0.00226527, -0.58728, -0.000170303, 0.000473298, -0.00222215, 0.0271389, 0.0120812, 0.00419214, 0.000157007, 0.000372182, 0.00128643
-0.0177287, -0.00232791, -0.587317, -0.000174663, 0.000474441, -0.00223217, 0.0271043, 0.0120355, 0.00417781, 0.000153807, 0.000367186, 0.00128229
-0.0175342, -0.00228895, -0.587321, -0.000176571, 0.000461711, -0.00221792, 0.0269971, 0.0119855, 0.00417365, 0.000153661, 0.000363208, 0.00128036
-0.0172201, -0.00228452, -0.587336, -0.000179545, 0.00046434, -0.00223121, 0.0269645, 0.0119428, 0.00416008, 0.000150614, 0.000358608, 0.0012763
-0.0169199, -0.00229378, -0.587355, -0.000182827, 0.000465429, -0.00224188, 0.0269328, 0.0118996, 0.0041467, 0.000147733, 0.000354158, 0.00127239
-0.0166482, -0.00223022, -0.587351, -0.000184557, 0.000466611, -0.0022541, 0.0269017, 0.0118563, 0.00413365, 0.000144983, 0.000349752, 0.00126837
-0.0165388, -0.0022167, -0.587355, -0.000186589, 0.000455702, -0.00224043, 0.0267919, 0.0118129, 0.00412949, 0.000144792, 0.000346374, 0.00126617
-0.0162661, -0.00210448, -0.587336, -0.000187836, 0.000459126, -0.00225754, 0.0267633, 0.0117726, 0.00411736, 0.0001422, 0.000342382, 0.00126236
-0.0159935, -0.00203375, -0.587331, -0.000189989, 0.000460916, -0.00227121, 0.0267353, 0.0117331, 0.00410582, 0.000139781, 0.000338584, 0.00125875
-0.0157008, -0.00189708, -0.587306, -0.000191397, 0.000464353, -0.00228944, 0.0267077, 0.0116951, 0.00409504, 0.000137533, 0.000334996, 0.0012554
-0.0156147, -0.00184452, -0.587296, -0.000193322, 0.000454513, -0.00228122, 0.0266041, 0.0116528, 0.00409025, 0.00013731, 0.000332162, 0.00125281
-0.0153596, -0.0017229, -0.587274, -0.000194647, 0.000457419, -0.00229675, 0.0265785, 0.01162, 0.00408077, 0.000135252, 0.000329039, 0.00125001
-0.015132, -0.0016282, -0.58726, -0.00019603, 0.000458285, -0.00230797, 0.0265527, 0.0115896, 0.00407217, 0.000133345, 0.000326115, 0.00124748
-0.0148684, -0.0014802, -0.587232, -0.000196926, 0.000460962, -0.00232395, 0.0265263, 0.0115618, 0.00406445, 0.00013156, 0.000323338, 0.00124512
-0.0147751, -0.00145183, -0.587228, -0.000198909, 0.000451325, -0.00231474, 0.0264295, 0.0115254, 0.00405915, 0.00013132, 0.000320914, 0.00124208
-0.0145231, -0.0012938, -0.587195, -0.000199444, 0.00045499, -0.00233093, 0.0264046, 0.0115018, 0.00405253, 0.000129688, 0.000318517, 0.00124023
-0.0142473, -0.001144, -0.587166, -0.000200275, 0.000458449, -0.00234566, 0.026379, 0.01148, 0.00404653, 0.000128191, 0.00031638, 0.00123882
-0.0139877, -0.00102095, -0.587146, -0.000201273, 0.000460454, -0.00235662, 0.0263526, 0.0114598, 0.00404112, 0.00012682, 0.000314467, 0.00123775
-0.0138792, -0.00100285, -0.58715, -0.000203064, 0.000452147, -0.0023448, 0.0262688, 0.011426, 0.00403496, 0.000126585, 0.000312436, 0.00123412
-0.0136452, -0.000897252, -0.587133, -0.000203958, 0.000453958, -0.00235403, 0.026243, 0.0114095, 0.00403039, 0.000125317, 0.00031075, 0.00123326
-0.0133834, -0.000786243, -0.587116, -0.000204791, 0.000456207, -0.00236321, 0.0262159, 0.0113944, 0.00402626, 0.000124144, 0.000309207, 0.00123253
-0.0131404, -0.000685656, -0.587102, -0.00020556, 0.000457634, -0.0023708, 0.0261873, 0.0113804, 0.00402248, 0.000123053, 0.000307789, 0.00123186
-0.0131433, -0.000656174, -0.587087, -0.000207145, 0.000450774, -0.00236703, 0.0261114, 0.0113516, 0.0040155, 0.000122821, 0.000306008, 0.00122768
-0.0129165, -0.000563309, -0.587074, -0.000207657, 0.000452329, -0.00237404, 0.0260832, 0.0113399, 0.0040123, 0.000121804, 0.000304741, 0.00122707
-0.0126497, -0.000459757, -0.587059, -0.000207853, 0.000454815, -0.00238167, 0.0260534, 0.0113288, 0.00400931, 0.000120852, 0.000303573, 0.00122646
-0.0123382, -0.000352985, -0.587045, -0.000207919, 0.000457638, -0.00238791, 0.0260223, 0.0113176, 0.00400639, 0.000119967, 0.000302548, 0.00122584
-0.012202, -0.000274897, -0.587017, -0.000209707, 0.00045128, -0.00239892, 0.0259553, 0.0112906, 0.0039984, 0.00011975, 0.000300988, 0.00122105
-0.0119268, -0.000193566, -0.587009, -0.000209755, 0.000453365, -0.00240163, 0.0259251, 0.0112803, 0.00399573, 0.000118945, 0.000300156, 0.00122043
-0.0116754, -0.000113653, -0.587001, -0.000209557, 0.000454607, -0.00240386, 0.0258934, 0.0112695, 0.00399304, 0.00011819, 0.000299412, 0.00121965
-0.0113984, -3.8924e-05, -0.586996, -0.000209364, 0.000455904, -0.00240428, 0.0258604, 0.0112581, 0.00399028, 0.000117477, 0.000298743, 0.00121867
-0.0114374, -1.53764e-05, -0.586974, -0.00021065, 0.000451671, -0.00240957, 0.0258005, 0.0112323, 0.0039814, 0.000117275, 0.000297329, 0.00121331
-0.0112075, 3.67857e-05, -0.586973, -0.000210547, 0.000452514, -0.00240871, 0.0257676, 0.0112213, 0.00397882, 0.000116616, 0.00029676, 0.00121223
-0.0109539, 8.42966e-05, -0.586975, -0.000210461, 0.000453384, -0.00240718, 0.0257329, 0.0112095, 0.00397617, 0.000115994, 0.000296214, 0.00121094
-0.0107234, 0.000126887, -0.586977, -0.000210089, 0.000454169, -0.00240671, 0.0256963, 0.0111969, 0.00397339, 0.000115406, 0.000295694, 0.0012094
-0.0109726, 7.48194e-05, -0.586964, -0.000210946, 0.000450955, -0.00240128, 0.0256405, 0.0111719, 0.00396373, 0.000115216, 0.000294347, 0.00120343
-0.0107389, 0.000102539, -0.586969, -0.000210535, 0.000451678, -0.00239977, 0.0256031, 0.0111593, 0.00396093, 0.000114666, 0.000293902, 0.00120182
-0.0105314, 0.000119616, -0.586976, -0.00021005, 0.000452137, -0.00239849, 0.0255636, 0.0111456, 0.00395778, 0.000114143, 0.00029348, 0.00119991
-0.010422, 0.000127392, -0.586977, -0.000209275, 0.000452556, -0.00240059, 0.0255214, 0.0111311, 0.00395428, 0.00011363, 0.000293078, 0.00119786
-0.0107512, 7.06418e-05, -0.586958, -0.000209931, 0.000450385, -0.00239681, 0.0254655, 0.0111077, 0.00394422, 0.000113447, 0.00029177, 0.00119167
-0.010688, 6.84599e-05, -0.586958, -0.000209081, 0.000450718, -0.00239967, 0.0254213, 0.0110934, 0.00394061, 0.000112942, 0.000291431, 0.00118981
-0.0106342, 6.08911e-05, -0.58696, -0.000208278, 0.00045098, -0.00240303, 0.0253736, 0.0110786, 0.00393671, 0.000112431, 0.000291102, 0.00118802
-0.010539, 4.5292e-05, -0.586966, -0.000207645, 0.00045124, -0.00240565, 0.0253227, 0.0110634, 0.00393247, 0.000111921, 0.000290778, 0.0011862
-0.0109537, 1.84166e-06, -0.58693, -0.000207899, 0.000450874, -0.002408, 0.0252646, 0.0110418, 0.00392229, 0.000111743, 0.000289616, 0.00118101
-0.0108945, -2.72233e-05, -0.586937, -0.000207031, 0.000451334, -0.00241156, 0.0252123, 0.0110267, 0.00391782, 0.000111254, 0.000289332, 0.0011792
-0.0109183, -5.78805e-05, -0.586936, -0.000205841, 0.000451698, -0.00241782, 0.0251569, 0.0110112, 0.00391301, 0.000110757, 0.000289056, 0.00117743
-0.0108629, -0.000103883, -0.586945, -0.000204788, 0.000452246, -0.00242246, 0.0250987, 0.0109954, 0.00390792, 0.000110251, 0.000288789, 0.00117571
-0.0113454, -0.00015704, -0.586897, -0.000204792, 0.000453821, -0.00243368, 0.0250377, 0.0109699, 0.00389712, 0.000110075, 0.000287595, 0.00116962
-0.0113076, -0.000205954, -0.586906, -0.00020369, 0.000454319, -0.0024383, 0.0249792, 0.0109545, 0.00389199, 0.000109587, 0.000287364, 0.00116799
-0.0112948, -0.000257813, -0.586913, -0.00020244, 0.000454801, -0.00244418, 0.024919, 0.0109391, 0.00388682, 0.000109092, 0.000287134, 0.00116642
-0.01111, -0.000329242, -0.586938, -0.000201757, 0.00045568, -0.00244779, 0.0248576, 0.0109237, 0.0038817, 0.000108601, 0.000286906, 0.00116486
-0.011571, -0.000404898, -0.586904, -0.000201644, 0.000456223, -0.00245029, 0.0247952, 0.0108947, 0.00387053, 0.000108426, 0.000285773, 0.00115886
-0.0113607, -0.000491767, -0.586934, -0.00020084, 0.000457195, -0.00245381, 0.0247353, 0.0108798, 0.00386555, 0.000107978, 0.00028558, 0.00115723
-0.0112348, -0.000585022, -0.586959, -0.000199595, 0.000458071, -0.00245954, 0.0246752, 0.0108647, 0.00386051, 0.000107548, 0.0002854, 0.00115546
-0.0110816, -0.000683878, -0.586987, -0.000198419, 0.000458832, -0.00246427, 0.0246149, 0.0108495, 0.00385545, 0.000107127, 0.000285233, 0.00115366
-0.011589, -0.000809416, -0.58695, -0.000198117, 0.000461759, -0.00247494, 0.0245527, 0.0108184, 0.00384416, 0.000106952, 0.000284131, 0.00114764
-0.0113989, -0.00090899, -0.586982, -0.000197138, 0.000462179, -0.00247765, 0.0244941, 0.0108041, 0.00383927, 0.000106555, 0.000283993, 0.00114586
-0.0111876, -0.00101134, -0.587017, -0.000196229, 0.000462539, -0.00247867, 0.0244358, 0.0107897, 0.00383426, 0.000106178, 0.000283857, 0.00114388
-0.0109357, -0.00111699, -0.587057, -0.000195418, 0.000462711, -0.00247764, 0.0243779, 0.0107754, 0.00382908, 0.000105824, 0.000283714, 0.00114159
-0.0114507, -0.00123636, -0.587022, -0.000195093, 0.00046517, -0.00248428, 0.0243173, 0.0107448, 0.00381808, 0.000105649, 0.000282628, 0.0011355
-0.0112487, -0.00133934, -0.587057, -0.00019411, 0.000465157, -0.00248333, 0.0242615, 0.0107313, 0.00381289, 0.000105329, 0.000282479, 0.00113295
-0.0110087, -0.00144383, -0.587095, -0.000193218, 0.000464855, -0.00247965, 0.024206, 0.0107177, 0.00380746, 0.000105026, 0.000282299, 0.00112998
-0.0107732, -0.00155077, -0.587133, -0.000192265, 0.000464369, -0.00247371, 0.0241511, 0.010704, 0.00380176, 0.000104742, 0.000282064, 0.0011264
-0.011226, -0.00167208, -0.58711, -0.000192042, 0.000465954, -0.00247577, 0.0240924, 0.0106787, 0.00379149, 0.000104566, 0.000280929, 0.00112011
-0.0110502, -0.00176913, -0.587141, -0.000190931, 0.000465502, -0.00247044, 0.0240395, 0.0106659, 0.00378586, 0.000104305, 0.000280656, 0.00111618
-0.0108112, -0.00186835, -0.58718, -0.000189992, 0.000464366, -0.00246027, 0.0239872, 0.0106532, 0.00378006, 0.000104054, 0.000280315, 0.00111162
-0.0106086, -0.0019572, -0.587213, -0.000189113, 0.000463268, -0.00244987, 0.0239357, 0.0106403, 0.00377396, 0.000103818, 0.000279863, 0.00110615
-0.0111288, -0.00202287, -0.587165, -0.000188615, 0.000467048, -0.00245969, 0.0238794, 0.01062, 0.00376423, 0.000103641, 0.000278665, 0.00109979
-0.0110487, -0.00209251, -0.587183, -0.000187725, 0.000466894, -0.00245586, 0.02383, 0.0106078, 0.00375812, 0.000103425, 0.000278142, 0.0010938
-0.0110182, -0.00214993, -0.587193, -0.000186854, 0.000467201, -0.00245451, 0.0237812, 0.0105956, 0.00375159, 0.000103209, 0.000277559, 0.0010873
-0.0110065, -0.00220103, -0.587199, -0.000185992, 0.000467657, -0.00245383, 0.0237327, 0.0105826, 0.00374435, 0.000102993, 0.000276903, 0.00108021
-0.0114393, -0.00229119, -0.587171, -0.000185657, 0.000469795, -0.0024572, 0.0236809, 0.0105647, 0.00373505, 0.000102826, 0.000275708, 0.00107385
-0.0114806, -0.00232724, -0.587169, -0.000184876, 0.000470632, -0.00245936, 0.0236338, 0.0105511, 0.00372712, 0.000102616, 0.000275, 0.00106637
-0.0115515, -0.0023514, -0.587162, -0.000184073, 0.000471779, -0.00246279, 0.0235862, 0.0105353, 0.00371789, 0.000102398, 0.000274229, 0.00105836
-0.0115709, -0.0023947, -0.587164, -0.000183324, 0.000472093, -0.00246039, 0.0235377, 0.0105165, 0.00370708, 0.000102172, 0.000273359, 0.00104957
-0.0119005, -0.00247695, -0.58715, -0.000183008, 0.000472411, -0.00245721, 0.0234925, 0.0104992, 0.00369847, 0.000102014, 0.000272226, 0.00104335
-0.0120108, -0.00248139, -0.587134, -0.000182326, 0.000473844, -0.00246237, 0.0234446, 0.0104778, 0.00368647, 0.000101789, 0.0002713, 0.0010342
-0.0121416, -0.00247452, -0.587114, -0.00018164, 0.000475467, -0.00246865, 0.0233958, 0.0104534, 0.00367306, 0.000101554, 0.000270345, 0.00102483
-0.0122638, -0.00246837, -0.587095, -0.000181007, 0.000476884, -0.00247393, 0.023346, 0.0104262, 0.00365834, 0.000101309, 0.000269357, 0.00101523
-0.0126176, -0.00255491, -0.587069, -0.000180824, 0.000479068, -0.0024795, 0.0233069, 0.0104104, 0.00365073, 0.000101151, 0.000268293, 0.00100932
-0.0127812, -0.00252159, -0.587041, -0.000180307, 0.000480985, -0.00248866, 0.0232577, 0.0103813, 0.00363532, 0.000100905, 0.000267331, 0.00100006
-0.0129834, -0.00245899, -0.587004, -0.000179937, 0.00048329, -0.00250205, 0.0232073, 0.0103499, 0.00361885, 0.00010065, 0.000266407, 0.00099114
-0.0131673, -0.00239824, -0.586969, -0.000179652, 0.000485168, -0.00251396, 0.0231557, 0.0103161, 0.00360139, 0.000100392, 0.000265533, 0.000982713
-0.013447, -0.0024968, -0.586953, -0.000179589, 0.000486511, -0.00251794, 0.0231216, 0.0102997, 0.0035949, 0.000100216, 0.000264594, 0.000977413
-0.0136027, -0.00244504, -0.586924, -0.000179339, 0.00048787, -0.00252755, 0.0230697, 0.0102642, 0.00357682, 9.99626e-05, 0.000263771, 0.000969629
-0.0138047, -0.00234497, -0.586881, -0.000179236, 0.000489639, -0.00254227, 0.0230164, 0.0102262, 0.00355782, 9.97087e-05, 0.000262969, 0.000962222
-0.014029, -0.0022222, -0.58683, -0.000179012, 0.000491327, -0.00255754, 0.022962, 0.0101867, 0.0035383, 9.94562e-05, 0.000262236, 0.000955655
-0.0142357, -0.00234412, -0.586832, -0.00017882, 0.000490539, -0.00255265, 0.0229296, 0.0101671, 0.00353212, 9.92417e-05, 0.00026139, 0.000951
-0.0144787, -0.00220581, -0.586776, -0.000178416, 0.00049207, -0.00256755, 0.0228759, 0.0101274, 0.00351277, 9.89941e-05, 0.000260758, 0.000945556
-0.0147287, -0.00207302, -0.586719, -0.000177756, 0.000493467, -0.00258026, 0.0228223, 0.0100876, 0.00349361, 9.8742e-05, 0.000260193, 0.000940997
-0.0149965, -0.00194389, -0.586659, -0.000176846, 0.000494956, -0.00259224, 0.0227697, 0.0100487, 0.00347493, 9.84823e-05, 0.00025968, 0.000937138
-0.0151734, -0.00204178, -0.586661, -0.000176499, 0.000493089, -0.00258395, 0.0227359, 0.0100282, 0.00346886, 9.82484e-05, 0.000258889, 0.000933233
-0.0154441, -0.00191027, -0.5866, -0.000175453, 0.000494374, -0.00259448, 0.0226855, 0.00999175, 0.00345123, 9.79819e-05, 0.000258465, 0.000930277
-0.0156599, -0.00182691, -0.586553, -0.000174401, 0.000495431, -0.00260121, 0.022637, 0.00995761, 0.00343454, 9.7705e-05, 0.000258079, 0.000927875
-0.015841, -0.00176586, -0.586515, -0.0001734, 0.000496454, -0.00260633, 0.0225909, 0.00992654, 0.00341901, 9.74269e-05, 0.000257712, 0.00092577
-0.0159656, -0.00189054, -0.586528, -0.000172981, 0.000495235, -0.00259737, 0.0225551, 0.00990721, 0.00341318, 9.72094e-05, 0.000256946, 0.000922614
-0.0161191, -0.00183717, -0.586496, -0.000172099, 0.000495996, -0.00260095, 0.0225127, 0.00987991, 0.00339909, 9.69408e-05, 0.000256612, 0.000920847
-0.0162051, -0.00180802, -0.586478, -0.000171575, 0.000496336, -0.00260257, 0.0224734, 0.00985555, 0.00338624, 9.66822e-05, 0.000256263, 0.000919275
-0.0162517, -0.00180201, -0.586469, -0.000171181, 0.000496814, -0.0026035, 0.0224377, 0.00983418, 0.00337473, 9.64446e-05, 0.000255867, 0.000917734
-0.0164466, -0.00186241, -0.586465, -0.000170372, 0.000494653, -0.00259108, 0.0224027, 0.00982169, 0.00337061, 9.62439e-05, 0.00025509, 0.000914732
-0.0165056, -0.00184885, -0.586451, -0.000169893, 0.000495619, -0.0025937, 0.0223713, 0.00980353, 0.00336049, 9.60319e-05, 0.000254675, 0.000913226
-0.016545, -0.00184145, -0.586437, -0.000169477, 0.000496861, -0.0025965, 0.022343, 0.00978798, 0.0033515, 9.58396e-05, 0.000254223, 0.000911643
-0.0165804, -0.00182611, -0.586422, -0.000169057, 0.000498576, -0.00260003, 0.0223179, 0.0097748, 0.00334356, 9.56683e-05, 0.000253738, 0.000909931
-0.0166946, -0.0019294, -0.586428, -0.00016883, 0.000495812, -0.00259209, 0.0222837, 0.00976662, 0.00334076, 9.54768e-05, 0.00025294, 0.000906977
-0.0167223, -0.00190539, -0.586411, -0.000168463, 0.000497685, -0.00259625, 0.0222623, 0.00975542, 0.00333383, 9.5328e-05, 0.000252446, 0.000905249
-0.0167133, -0.00188216, -0.586396, -0.000168238, 0.000499796, -0.00259955, 0.0222437, 0.00974539, 0.00332763, 9.51997e-05, 0.000251901, 0.000903307
-0.0166824, -0.00184889, -0.586378, -0.00016809, 0.00050216, -0.00260251, 0.0222278, 0.00973601, 0.003322, 9.50947e-05, 0.000251277, 0.000900968
-0.0168061, -0.00194143, -0.586382, -0.000167843, 0.000499585, -0.00259542, 0.0221949, 0.00973024, 0.00332033, 9.49119e-05, 0.000250459, 0.00089797
-0.016771, -0.00189541, -0.586361, -0.000167704, 0.000501827, -0.00259752, 0.0221819, 0.009721, 0.00331512, 9.48318e-05, 0.000249769, 0.000895209
-0.0167368, -0.00185193, -0.586344, -0.00016762, 0.000503401, -0.00259832, 0.0221712, 0.00971107, 0.00331009, 9.4766e-05, 0.000248937, 0.000891756
-0.0167114, -0.0018073, -0.586326, -0.000167602, 0.000504852, -0.0026003, 0.0221626, 0.00969996, 0.00330515, 9.47066e-05, 0.000247933, 0.00088759
-0.0168954, -0.00189744, -0.586327, -0.000167078, 0.000502818, -0.00259251, 0.0221303, 0.00969369, 0.00330411, 9.45152e-05, 0.000247067, 0.000884471
-0.0168772, -0.00183206, -0.586302, -0.000167082, 0.000505, -0.00259681, 0.0221237, 0.00968081, 0.00329907, 9.44608e-05, 0.000245936, 0.00087979
-0.0168627, -0.00177558, -0.58628, -0.000167191, 0.000507028, -0.00260244, 0.0221185, 0.0096655, 0.00329371, 9.4397e-05, 0.000244636, 0.000874431
-0.0168457, -0.00170269, -0.586253, -0.000167366, 0.000509613, -0.0026096, 0.0221143, 0.00964721, 0.00328787, 9.43171e-05, 0.000243172, 0.000868459
-0.0169779, -0.00179233, -0.586253, -0.000167272, 0.00050729, -0.00260548, 0.022081, 0.00963906, 0.00328717, 9.41207e-05, 0.000242259, 0.000865467
-0.0169631, -0.00168493, -0.586215, -0.000167442, 0.000510646, -0.00261346, 0.022078, 0.00961683, 0.00328051, 9.4027e-05, 0.000240696, 0.00085912
-0.0169512, -0.00157176, -0.586175, -0.000167706, 0.000514375, -0.00262359, 0.0220754, 0.00958927, 0.00327264, 9.39003e-05, 0.000238981, 0.000852147
-0.0169414, -0.00144348, -0.58613, -0.000168043, 0.000518591, -0.00263552, 0.0220729, 0.0095557, 0.00326336, 9.37391e-05, 0.000237156, 0.00084477
-0.0169869, -0.00150359, -0.586126, -0.000168551, 0.000515883, -0.00263686, 0.0220406, 0.00954331, 0.00326272, 9.35485e-05, 0.000236239, 0.00084197
-0.0169852, -0.00138705, -0.586084, -0.000168993, 0.000520561, -0.00265122, 0.0220384, 0.00950283, 0.00325179, 9.33646e-05, 0.000234408, 0.00083462
-0.0169723, -0.0013476, -0.586067, -0.000169577, 0.000523958, -0.00266427, 0.022036, 0.00945666, 0.00323957, 9.31556e-05, 0.000232557, 0.000827314
-0.0169507, -0.00132419, -0.586055, -0.000170318, 0.000527604, -0.00267896, 0.0220331, 0.00940584, 0.00322637, 9.29294e-05, 0.00023072, 0.000820233
-0.0171137, -0.00140629, -0.586053, -0.000170225, 0.000526359, -0.00267773, 0.0220036, 0.00938518, 0.00322512, 9.27736e-05, 0.000229838, 0.000817808
-0.0170887, -0.00140864, -0.586049, -0.000171023, 0.00052988, -0.00269221, 0.0220006, 0.0093294, 0.0032109, 9.25468e-05, 0.000228102, 0.000811266
-0.0170621, -0.00142659, -0.586051, -0.000171679, 0.000532091, -0.00270237, 0.021997, 0.00927004, 0.00319599, 9.23078e-05, 0.000226405, 0.000805028
-0.0170357, -0.00143921, -0.586051, -0.000172313, 0.000534268, -0.00271194, 0.0219926, 0.00920675, 0.00318026, 9.20485e-05, 0.000224721, 0.000798984
-0.0172238, -0.00152449, -0.586049, -0.000172062, 0.000533874, -0.00271115, 0.0219647, 0.00917707, 0.00317818, 9.19237e-05, 0.000223844, 0.000796959
-0.0171818, -0.00158075, -0.586061, -0.000172995, 0.000536753, -0.00272381, 0.0219599, 0.00910865, 0.00316144, 9.16579e-05, 0.000222246, 0.000791336
-0.017108, -0.00169704, -0.586094, -0.000174282, 0.000540001, -0.00273895, 0.0219543, 0.00903809, 0.0031444, 9.13919e-05, 0.000220737, 0.000786165
-0.0170051, -0.0018449, -0.586138, -0.000175862, 0.000543965, -0.00275689, 0.0219479, 0.00896692, 0.00312742, 9.11387e-05, 0.000219351, 0.000781552
-0.0170995, -0.00188009, -0.586128, -0.00017616, 0.000542181, -0.00275849, 0.0219216, 0.00892795, 0.00312445, 9.10499e-05, 0.000218466, 0.000779932
-0.0169518, -0.00211691, -0.5862, -0.000178075, 0.000546258, -0.00277765, 0.0219149, 0.00885669, 0.00310771, 9.08311e-05, 0.000217286, 0.000776096
-0.0167442, -0.00240372, -0.586293, -0.000180252, 0.000550618, -0.00279845, 0.0219073, 0.00878875, 0.00309194, 9.06533e-05, 0.000216284, 0.000772963
-0.0164979, -0.00267562, -0.586387, -0.000182322, 0.00055476, -0.00281839, 0.0218989, 0.0087249, 0.00307729, 9.05196e-05, 0.000215459, 0.000770502
-0.0166439, -0.00274618, -0.586384, -0.000182368, 0.000553974, -0.00281904, 0.0218729, 0.00867833, 0.00307371, 9.04625e-05, 0.000214549, 0.000769233
-0.0163663, -0.00300779, -0.58648, -0.000184166, 0.000557541, -0.00283633, 0.0218637, 0.00861737, 0.0030599, 9.03704e-05, 0.000213914, 0.0007674
-0.016054, -0.00322303, -0.586569, -0.000185616, 0.000560381, -0.00285084, 0.0218531, 0.00855987, 0.00304699, 9.03096e-05, 0.000213401, 0.00076602
-0.0157086, -0.00335806, -0.586642, -0.000186725, 0.000562817, -0.0028636, 0.0218407, 0.00850449, 0.00303467, 9.02704e-05, 0.000212981, 0.000764983
-0.0158183, -0.00341109, -0.586637, -0.000186862, 0.000561124, -0.0028631, 0.0218156, 0.00844915, 0.00303027, 9.02361e-05, 0.000212042, 0.000763933
-0.0154433, -0.00352012, -0.586708, -0.000187635, 0.000562837, -0.00287281, 0.0218017, 0.00839433, 0.00301812, 9.02113e-05, 0.000211721, 0.000763188
-0.0150076, -0.00360236, -0.586781, -0.000188095, 0.000563618, -0.00287963, 0.0217853, 0.00834027, 0.00300624, 9.01959e-05, 0.000211448, 0.000762637
-0.0145085, -0.00361879, -0.586846, -0.000188157, 0.000563666, -0.00288397, 0.0217662, 0.0082862, 0.00299451, 9.01844e-05, 0.000211204, 0.000762228
-0.0146415, -0.00370502, -0.586849, -0.000188233, 0.000562511, -0.00288266, 0.0217424, 0.00822218, 0.00298915, 9.01605e-05, 0.000210219, 0.000761294
-0.0140735, -0.00367287, -0.586912, -0.000187837, 0.000561601, -0.00288358, 0.0217206, 0.00816751, 0.00297738, 9.01465e-05, 0.000210012, 0.000760991
-0.0134539, -0.0035824, -0.586968, -0.000186992, 0.000559655, -0.00288115, 0.0216956, 0.00811141, 0.00296554, 9.01244e-05, 0.0002098, 0.000760723
-0.0127507, -0.00341252, -0.587015, -0.000185565, 0.00055661, -0.00287508, 0.0216671, 0.008053, 0.00295346, 9.00879e-05, 0.000209565, 0.000760443
-0.012951, -0.00355467, -0.587027, -0.00018555, 0.000557494, -0.00287578, 0.0216451, 0.00798151, 0.00294711, 9.00637e-05, 0.000208519, 0.000759558
-0.0121551, -0.00333407, -0.587077, -0.000183495, 0.000552999, -0.00286488, 0.0216135, 0.00792097, 0.00293472, 9.00046e-05, 0.000208269, 0.000759225
-0.0112455, -0.00303084, -0.587122, -0.000180624, 0.000546625, -0.00284805, 0.0215781, 0.00785673, 0.00292199, 8.99146e-05, 0.000207952, 0.000758757
-0.0102402, -0.0026111, -0.587152, -0.00017674, 0.000538242, -0.00282465, 0.0215398, 0.00778757, 0.00290873, 8.97814e-05, 0.000207552, 0.000758098
-0.0104161, -0.00271824, -0.587157, -0.000176706, 0.000538826, -0.00282549, 0.0215204, 0.0077098, 0.00290129, 8.975e-05, 0.000206469, 0.000757228
-0.00932197, -0.0022729, -0.587197, -0.000171944, 0.000528369, -0.00279474, 0.0214802, 0.00763758, 0.00288757, 8.95633e-05, 0.000205989, 0.000756304
-0.00817733, -0.00172409, -0.587219, -0.000166064, 0.000515628, -0.00275602, 0.0214379, 0.00755939, 0.00287324, 8.93113e-05, 0.000205371, 0.000755006
-0.00700342, -0.0010941, -0.587227, -0.000159167, 0.000500907, -0.00271008, 0.0213951, 0.00747538, 0.00285812, 8.89885e-05, 0.000204615, 0.00075331
-0.00717014, -0.00117223, -0.587225, -0.000159053, 0.000500872, -0.0027097, 0.0213793, 0.00738902, 0.00284893, 8.89473e-05, 0.000203609, 0.000752498
-0.00603797, -0.000580471, -0.58724, -0.000151693, 0.000485145, -0.0026589, 0.0213374, 0.00730452, 0.00283349, 8.85551e-05, 0.000202745, 0.000750363
-0.00496848, 6.12149e-05, -0.587234, -0.000143716, 0.000468428, -0.00260354, 0.0212969, 0.0072155, 0.00281743, 8.80929e-05, 0.00020174, 0.000747763
-0.0040007, 0.000768034, -0.587199, -0.000135274, 0.000451347, -0.00254538, 0.0212587, 0.00712331, 0.00280064, 8.75702e-05, 0.000200627, 0.000744771
-0.00408779, 0.000973798, -0.58713, -0.000134476, 0.000447499, -0.0025409, 0.0212463, 0.00703591, 0.00279051, 8.75316e-05, 0.000199774, 0.000744055
-0.00324946, 0.00156757, -0.587107, -0.000126449, 0.000431548, -0.00248437, 0.0212117, 0.00694908, 0.00277382, 8.69674e-05, 0.000198625, 0.000740726
-0.00254931, 0.00211921, -0.587074, -0.000118934, 0.000416839, -0.00243112, 0.0211801, 0.00686161, 0.00275678, 8.63729e-05, 0.000197418, 0.000737137
-0.00197434, 0.00268346, -0.58702, -0.000111612, 0.000402999, -0.00237953, 0.0211518, 0.00677538, 0.0027396, 8.57677e-05, 0.000196194, 0.000733418
-0.00213314, 0.00268041, -0.586999, -0.000111295, 0.000402394, -0.00237754, 0.0211422, 0.00669195, 0.00272926, 8.57416e-05, 0.000195518, 0.000732726
-0.00165226, 0.00313788, -0.58696, -0.000104586, 0.000389911, -0.00232927, 0.0211173, 0.00661535, 0.00271295, 8.51401e-05, 0.000194329, 0.000728908
-0.0012502, 0.00349622, -0.586933, -9.87921e-05, 0.000379149, -0.00228691, 0.0210956, 0.00654097, 0.00269693, 8.45494e-05, 0.00019315, 0.000725073
-0.000975697, 0.00392463, -0.58687, -9.30572e-05, 0.000369249, -0.002246, 0.0210769, 0.00646971, 0.00268135, 8.39785e-05, 0.000192, 0.000721294
-0.00112546, 0.00393559, -0.586848, -9.27683e-05, 0.000369045, -0.00224464, 0.0210691, 0.00639262, 0.00267138, 8.39612e-05, 0.000191399, 0.000720326
-0.000937999, 0.00427215, -0.586795, -8.78284e-05, 0.000360732, -0.00220879, 0.0210528, 0.00633214, 0.00265715, 8.34152e-05, 0.000190304, 0.000716578
-0.000799049, 0.00454034, -0.586753, -8.36512e-05, 0.000353824, -0.00217825, 0.0210388, 0.00627517, 0.0026435, 8.28991e-05, 0.000189253, 0.00071298
-0.000694208, 0.00476225, -0.586717, -7.99843e-05, 0.000347891, -0.00215129, 0.0210268, 0.00622181, 0.00263057, 8.24174e-05, 0.000188246, 0.000709562
-0.000826452, 0.00477591, -0.586697, -7.97573e-05, 0.000348124, -0.00215051, 0.02102, 0.00615195, 0.00262142, 8.23926e-05, 0.000187542, 0.000707875
-0.000758853, 0.00494574, -0.586668, -7.66518e-05, 0.000343158, -0.00212715, 0.0210095, 0.0061066, 0.00260992, 8.19409e-05, 0.000186565, 0.000704497
-0.000727618, 0.00510349, -0.586637, -7.38779e-05, 0.000338952, -0.00210645, 0.0210006, 0.00606391, 0.00259908, 8.15225e-05, 0.000185628, 0.000701316
-0.000712074, 0.00522647, -0.586613, -7.15504e-05, 0.000335704, -0.00208923, 0.0209928, 0.00602378, 0.00258887, 8.11366e-05, 0.000184729, 0.000698339
-0.000813764, 0.00509036, -0.586634, -7.11135e-05, 0.000334478, -0.00207946, 0.0209862, 0.00595945, 0.00258041, 8.10874e-05, 0.000183741, 0.000695535
-0.00080258, 0.00517642, -0.586618, -6.90513e-05, 0.00033149, -0.00206363, 0.0209794, 0.00592505, 0.00257141, 8.07234e-05, 0.000182852, 0.000692585
-0.000798571, 0.00523494, -0.586607, -6.74386e-05, 0.000329372, -0.00205138, 0.0209737, 0.00589206, 0.00256295, 8.03872e-05, 0.000181992, 0.000689826
-0.000798596, 0.0052808, -0.586599, -6.5972e-05, 0.00032751, -0.00204024, 0.0209688, 0.00586027, 0.00255502, 8.0076e-05, 0.000181153, 0.000687244
-0.000867974, 0.00518799, -0.586614, -6.5528e-05, 0.000326264, -0.00203106, 0.0209617, 0.00580489, 0.00254768, 7.99972e-05, 0.000179804, 0.000683406
-0.000866513, 0.00520633, -0.586612, -6.42708e-05, 0.000324658, -0.00202121, 0.0209575, 0.00577682, 0.00254067, 7.96997e-05, 0.000178969, 0.000680849
-0.000871083, 0.00521178, -0.586613, -6.33721e-05, 0.000323802, -0.00201441, 0.0209541, 0.00574926, 0.00253408, 7.94208e-05, 0.00017815, 0.000678441
-0.000890404, 0.00522911, -0.586609, -6.23562e-05, 0.000322797, -0.00200689, 0.0209511, 0.00572241, 0.00252788, 7.9158e-05, 0.000177344, 0.000676174
-0.00093237, 0.00522818, -0.586606, -6.21035e-05, 0.000322802, -0.00200329, 0.020943, 0.00567367, 0.00252101, 7.90566e-05, 0.000175654, 0.000671441
-0.000949259, 0.00522419, -0.586607, -6.12588e-05, 0.000322026, -0.0019969, 0.0209402, 0.00564983, 0.00251551, 7.88031e-05, 0.000174863, 0.000669232
-0.000964305, 0.00520862, -0.586611, -6.0703e-05, 0.000321854, -0.00199298, 0.0209376, 0.00562629, 0.00251031, 7.85607e-05, 0.000174079, 0.000667139
-0.000978862, 0.00519011, -0.586615, -6.03628e-05, 0.00032209, -0.00199088, 0.0209349, 0.00560317, 0.00250537, 7.83271e-05, 0.0001733, 0.000665153
-0.000963265, 0.00507017, -0.586648, -5.96482e-05, 0.000318631, -0.00197401, 0.0209254, 0.00556098, 0.00249871, 7.82115e-05, 0.000171272, 0.00065966
-0.000974843, 0.00505035, -0.586653, -5.94545e-05, 0.000319066, -0.00197304, 0.0209224, 0.0055401, 0.00249424, 7.79825e-05, 0.000170507, 0.000657734
-0.000999846, 0.00504728, -0.586652, -5.92143e-05, 0.000319446, -0.00197199, 0.0209189, 0.00551976, 0.00248989, 7.77589e-05, 0.000169747, 0.000655906
-0.00102436, 0.00505084, -0.586649, -5.91438e-05, 0.000320234, -0.00197252, 0.0209145, 0.00550024, 0.0024856, 7.75383e-05, 0.000168991, 0.000654166
-0.000948514, 0.00490603, -0.586695, -5.83306e-05, 0.000315379, -0.00195095, 0.0209031, 0.00546329, 0.0024787, 7.74215e-05, 0.000166728, 0.0006482
-0.000944146, 0.00489863, -0.586698, -5.8578e-05, 0.000316523, -0.00195347, 0.0208976, 0.00544604, 0.00247464, 7.7201e-05, 0.000165997, 0.000646538
-0.000944868, 0.00488978, -0.5867, -5.87547e-05, 0.000317576, -0.00195554, 0.0208908, 0.00542944, 0.0024705, 7.69795e-05, 0.000165266, 0.000644939
-0.000906564, 0.00487469, -0.586708, -5.928e-05, 0.000319065, -0.00195973, 0.0208826, 0.00541337, 0.00246621, 7.67539e-05, 0.000164531, 0.000643383
-0.000790816, 0.00474405, -0.586756, -5.86409e-05, 0.000314611, -0.00193969, 0.0208686, 0.00538108, 0.00245875, 7.66479e-05, 0.000162218, 0.000637412
-0.000761928, 0.00474647, -0.586758, -5.91519e-05, 0.000316069, -0.00194391, 0.0208587, 0.00536669, 0.00245444, 7.64166e-05, 0.000161509, 0.000635917
-0.000707915, 0.00474221, -0.586765, -5.98221e-05, 0.000317695, -0.00194888, 0.0208465, 0.00535294, 0.00244976, 7.61772e-05, 0.000160795, 0.00063445
-0.000647074, 0.00474493, -0.586771, -6.05615e-05, 0.000319358, -0.00195417, 0.0208317, 0.00533973, 0.00244461, 7.59268e-05, 0.000160073, 0.000632995
-0.000527669, 0.00464451, -0.586812, -5.99864e-05, 0.000315276, -0.00193629, 0.0208143, 0.00531103, 0.00243624, 7.58368e-05, 0.000157836, 0.000627284
-0.000449879, 0.00465104, -0.586818, -6.08973e-05, 0.000317166, -0.00194252, 0.0207965, 0.00529927, 0.00243074, 7.55737e-05, 0.00015714, 0.000625875
-0.000318462, 0.00466096, -0.586829, -6.22844e-05, 0.000319677, -0.00195126, 0.020775, 0.00528811, 0.0024245, 7.52949e-05, 0.000156433, 0.000624462
-0.000170684, 0.00467695, -0.58684, -6.3953e-05, 0.000322595, -0.00196161, 0.0207491, 0.00527761, 0.00241728, 7.4998e-05, 0.000155712, 0.000623035
-0.000149667, 0.00466008, -0.586849, -6.36338e-05, 0.000321433, -0.00195473, 0.0207279, 0.00525094, 0.00240743, 7.49279e-05, 0.000153794, 0.00061805
0.000100025, 0.00465219, -0.586877, -6.58552e-05, 0.000324663, -0.00196658, 0.0206977, 0.00524169, 0.00239942, 7.46121e-05, 0.000153089, 0.000616634
0.000393264, 0.00462967, -0.586914, -6.84075e-05, 0.000328241, -0.00197956, 0.0206632, 0.00523251, 0.0023902, 7.42737e-05, 0.000152356, 0.00061516
0.000657577, 0.00460953, -0.586945, -7.09794e-05, 0.000331836, -0.00199265, 0.0206229, 0.00522329, 0.0023795, 7.39109e-05, 0.000151589, 0.000613612
0.000662895, 0.00458795, -0.586953, -7.05205e-05, 0.000329776, -0.00198375, 0.0205976, 0.00519763, 0.00236778, 7.38551e-05, 0.000150044, 0.000609451
0.000981951, 0.00455021, -0.586995, -7.34046e-05, 0.000333529, -0.00199756, 0.0205529, 0.00518908, 0.00235611, 7.347e-05, 0.00014927, 0.000607848
0.00136761, 0.00449026, -0.587051, -7.64415e-05, 0.000336983, -0.0020104, 0.0205022, 0.00518005, 0.00234279, 7.30606e-05, 0.000148447, 0.000606133
0.00186389, 0.00440172, -0.587127, -7.99008e-05, 0.000340355, -0.00202313, 0.0204465, 0.00517026, 0.00232788, 7.26282e-05, 0.000147568, 0.000604281
0.00186999, 0.00436455, -0.587138, -7.93699e-05, 0.000337554, -0.00201215, 0.0204175, 0.00514654, 0.00231442, 7.25784e-05, 0.000146415, 0.000601185
0.00228851, 0.00428506, -0.587202, -8.25672e-05, 0.000340787, -0.00202449, 0.0203601, 0.00513697, 0.00229894, 7.21299e-05, 0.000145507, 0.000599209
0.00269743, 0.00420346, -0.587267, -8.55111e-05, 0.000343365, -0.00203466, 0.0202972, 0.00512663, 0.0022818, 7.16636e-05, 0.000144534, 0.000597078
0.00318108, 0.00410345, -0.587346, -8.85054e-05, 0.000345362, -0.00204295, 0.0202302, 0.00511542, 0.00226319, 7.11829e-05, 0.000143493, 0.000594776
0.0031839, 0.00404835, -0.587361, -8.79102e-05, 0.000342139, -0.00203063, 0.0201997, 0.00509516, 0.00224889, 7.11293e-05, 0.000142541, 0.000592611
0.00357771, 0.00396695, -0.587425, -9.03012e-05, 0.000343366, -0.00203648, 0.0201322, 0.00508446, 0.00223015, 7.06438e-05, 0.000141475, 0.000590184
0.00395017, 0.00389246, -0.587487, -9.21205e-05, 0.000343395, -0.00203831, 0.0200611, 0.00507318, 0.00221023, 7.01494e-05, 0.000140345, 0.000587602
0.00420877, 0.00383808, -0.587528, -9.3597e-05, 0.000343544, -0.00204034, 0.0199865, 0.00506144, 0.00218918, 6.96486e-05, 0.000139155, 0.000584867
0.00409834, 0.00381032, -0.587521, -9.28764e-05, 0.000340243, -0.00202997, 0.0199544, 0.00504452, 0.00217464, 6.95877e-05, 0.000138167, 0.000583106
0.00433042, 0.00376893, -0.58756, -9.33479e-05, 0.000338522, -0.00202555, 0.0198793, 0.00503378, 0.0021538, 6.90927e-05, 0.000136979, 0.00058031
0.00475274, 0.00369516, -0.587633, -9.36011e-05, 0.000334812, -0.00201455, 0.0198029, 0.00502286, 0.00213247, 6.85956e-05, 0.000135753, 0.000577417
0.00498389, 0.00365343, -0.587674, -9.31239e-05, 0.000330971, -0.00200275, 0.0197263, 0.00501186, 0.00211095, 6.80973e-05, 0.000134492, 0.000574436
0.00473866, 0.00365829, -0.587639, -9.21871e-05, 0.000326698, -0.0019924, 0.0196942, 0.00499858, 0.00209703, 6.80251e-05, 0.00013329, 0.000572805
0.00488599, 0.0036289, -0.587667, -9.11923e-05, 0.000322384, -0.00197869, 0.0196187, 0.00498882, 0.00207631, 6.75396e-05, 0.000132081, 0.000569864
0.00506411, 0.00358997, -0.587703, -8.98209e-05, 0.000316988, -0.00196116, 0.0195415, 0.00497935, 0.00205546, 6.70565e-05, 0.000130861, 0.000566903
0.00511009, 0.00356529, -0.587719, -8.77976e-05, 0.000311169, -0.00194177, 0.0194633, 0.00497021, 0.00203465, 6.65773e-05, 0.000129637, 0.000563939
0.00475364, 0.00358882, -0.587663, -8.667e-05, 0.000305878, -0.00193059, 0.0194333, 0.00496038, 0.00202228, 6.65029e-05, 0.000128304, 0.000562272
0.00477288, 0.00355822, -0.587679, -8.42625e-05, 0.000299665, -0.00190913, 0.0193562, 0.00495231, 0.00200244, 6.60393e-05, 0.000127167, 0.000559431
0.00477692, 0.00352006, -0.587694, -8.17032e-05, 0.000293092, -0.00188634, 0.0192783, 0.00494459, 0.00198283, 6.55816e-05, 0.000126042, 0.000556628
0.00467761, 0.00348512, -0.587695, -7.87982e-05, 0.000286477, -0.00186305, 0.0191996, 0.00493717, 0.00196352, 6.51308e-05, 0.000124932, 0.000553871
0.00456627, 0.00346841, -0.587684, -7.82309e-05, 0.000284086, -0.00185625, 0.0191715, 0.00492949, 0.0019525, 6.50566e-05, 0.000123531, 0.000552155
0.00437624, 0.00343457, -0.587674, -7.51371e-05, 0.000277938, -0.00183376, 0.0190938, 0.00492277, 0.00193412, 6.46237e-05, 0.000122525, 0.000549568
0.00423433, 0.00338156, -0.587675, -7.19611e-05, 0.000271248, -0.00180922, 0.0190147, 0.00491637, 0.00191601, 6.42e-05, 0.00012154, 0.000547045
0.00405762, 0.00331846, -0.587674, -6.85329e-05, 0.000264136, -0.00178299, 0.0189354, 0.00491021, 0.00189836, 6.3784e-05, 0.000120577, 0.000544587
0.00388168, 0.00331042, -0.587652, -6.78861e-05, 0.000261234, -0.00177575, 0.0189105, 0.00490414, 0.00188889, 6.37132e-05, 0.000119198, 0.000542852
0.00363049, 0.00324476, -0.587643, -6.43658e-05, 0.000254732, -0.0017508, 0.0188327, 0.0048984, 0.00187223, 6.33137e-05, 0.000118341, 0.000540575
0.00334107, 0.00317448, -0.587629, -6.08565e-05, 0.000248405, -0.00172637, 0.0187544, 0.00489289, 0.00185601, 6.29234e-05, 0.000117509, 0.000538372
0.00295461, 0.00310924, -0.587601, -5.73081e-05, 0.000242573, -0.00170351, 0.018675, 0.00488765, 0.00184011, 6.25424e-05, 0.000116699, 0.000536237
0.00264072, 0.00312309, -0.587554, -5.63909e-05, 0.00023796, -0.00169347, 0.0186528, 0.00488275, 0.00183197, 6.24768e-05, 0.000115443, 0.000534566
0.00227855, 0.00304904, -0.587532, -5.29618e-05, 0.000232538, -0.00167143, 0.0185738, 0.00487788, 0.00181678, 6.21117e-05, 0.000114724, 0.000532595
0.00192517, 0.00297334, -0.587511, -4.96916e-05, 0.000227279, -0.00165012, 0.0184942, 0.00487321, 0.00180194, 6.17557e-05, 0.000114024, 0.000530683
0.00151873, 0.00289207, -0.587484, -4.62349e-05, 0.000221929, -0.00162821, 0.0184141, 0.00486873, 0.00178742, 6.14081e-05, 0.000113339, 0.000528824
0.00131143, 0.00289825, -0.587455, -4.55726e-05, 0.000218739, -0.00162084, 0.0183943, 0.00486456, 0.00178028, 6.13448e-05, 0.000112156, 0.000527172
0.000879164, 0.00281355, -0.587426, -4.21503e-05, 0.000213919, -0.00160018, 0.0183149, 0.00486034, 0.0017664, 6.10112e-05, 0.00011155, 0.000525459
0.000493764, 0.00272628, -0.587403, -3.8902e-05, 0.000209125, -0.00157976, 0.0182351, 0.00485633, 0.00175281, 6.06856e-05, 0.000110958, 0.000523795
7.76948e-05, 0.00264181, -0.587376, -3.57124e-05, 0.000204581, -0.00156027, 0.0181553, 0.0048525, 0.00173955, 6.03668e-05, 0.000110377, 0.000522172
-0.000304059, 0.00266841, -0.587318, -3.46463e-05, 0.000199069, -0.00154824, 0.0181374, 0.00484907, 0.00173327, 6.03057e-05, 0.0001093, 0.000520567
-0.000738936, 0.00258773, -0.587287, -3.16041e-05, 0.000195182, -0.00153077, 0.0180584, 0.00484546, 0.00172053, 5.99978e-05, 0.000108781, 0.000519057
-0.00114391, 0.00250884, -0.587259, -2.87038e-05, 0.000191418, -0.00151384, 0.0179791, 0.00484205, 0.00170799, 5.96966e-05, 0.000108269, 0.000517576
-0.00157295, 0.00243027, -0.587228, -2.57889e-05, 0.000187838, -0.00149746, 0.0178999, 0.00483882, 0.00169568, 5.94013e-05, 0.000107762, 0.00051612
-0.00179856, 0.00242626, -0.587199, -2.51502e-05, 0.000184874, -0.00149006, 0.0178826, 0.00483599, 0.00168989, 5.93406e-05, 0.000106772, 0.000514557
-0.00222732, 0.00235214, -0.587168, -2.23645e-05, 0.000181643, -0.00147484, 0.0178044, 0.00483294, 0.001678, 5.90547e-05, 0.000106312, 0.00051319
-0.00266144, 0.00228096, -0.587134, -1.96545e-05, 0.000178657, -0.00146052, 0.0177262, 0.00483008, 0.00166627, 5.8774e-05, 0.000105855, 0.00051184
-0.00309253, 0.00221088, -0.587101, -1.69419e-05, 0.0001757, -0.00144625, 0.0176479, 0.00482742, 0.00165466, 5.84981e-05, 0.000105398, 0.000510502
-0.00316363, 0.00219622, -0.587097, -1.66752e-05, 0.000174814, -0.00144326, 0.0176299, 0.00482519, 0.00164908, 5.84373e-05, 0.000104502, 0.000509003
-0.00361458, 0.0021278, -0.587061, -1.39441e-05, 0.000172046, -0.00142947, 0.0175524, 0.00482269, 0.00163778, 5.81691e-05, 0.000104081, 0.000507737
-0.00404535, 0.00206214, -0.587027, -1.12774e-05, 0.000169261, -0.00141571, 0.0174745, 0.00482037, 0.00162655, 5.79045e-05, 0.000103659, 0.000506478
-0.00453741, 0.0019948, -0.586987, -8.39443e-06, 0.000166455, -0.00140158, 0.017396, 0.00481821, 0.00161537, 5.76424e-05, 0.000103236, 0.000505226
-0.00471352, 0.00198107, -0.586968, -7.89352e-06, 0.000164528, -0.00139602, 0.0173759, 0.00481653, 0.00160973, 5.7581e-05, 0.000102425, 0.0005038
-0.00529293, 0.00191438, -0.586917, -4.91757e-06, 0.000162197, -0.00138327, 0.0172968, 0.00481448, 0.00159868, 5.7324e-05, 0.000102029, 0.000502604
-0.00582484, 0.00185002, -0.586872, -1.97623e-06, 0.0001597, -0.00136995, 0.017215, 0.00481253, 0.00158746, 5.70683e-05, 0.00010163, 0.000501417
-0.00634856, 0.00178919, -0.586827, 9.22556e-07, 0.000157156, -0.00135661, 0.0171312, 0.00481059, 0.00157614, 5.68119e-05, 0.000101229, 0.000500234
-0.00641357, 0.00177064, -0.586824, 1.17689e-06, 0.000156382, -0.00135329, 0.0171078, 0.00480959, 0.00157031, 5.67535e-05, 0.000100543, 0.000498928
-0.00698839, 0.0017088, -0.586773, 4.08319e-06, 0.000154206, -0.00134114, 0.017022, 0.00480755, 0.00155901, 5.64986e-05, 0.00010016, 0.000497788
-0.00744287, 0.0016558, -0.586736, 6.71711e-06, 0.000151878, -0.00132878, 0.0169325, 0.00480537, 0.00154748, 5.62414e-05, 9.97727e-05, 0.000496652
-0.00787817, 0.00160583, -0.586701, 9.24765e-06, 0.000149619, -0.00131685, 0.0168408, 0.00480301, 0.00153585, 5.59813e-05, 9.93831e-05, 0.000495518
-0.00799924, 0.00158495, -0.58669, 9.61623e-06, 0.000148479, -0.00131245, 0.0168123, 0.00480245, 0.00152964, 5.59292e-05, 9.88252e-05, 0.000494333
-0.00853459, 0.00152925, -0.586642, 1.20351e-05, 0.000147006, -0.00130345, 0.0167196, 0.00479986, 0.00151815, 5.56691e-05, 9.84478e-05, 0.000493229
-0.0090724, 0.00147476, -0.586592, 1.42256e-05, 0.000146016, -0.00129654, 0.0166229, 0.00479698, 0.00150637, 5.54066e-05, 9.80651e-05, 0.000492122
-0.00949995, 0.00142887, -0.586554, 1.61172e-05, 0.000144966, -0.00128981, 0.0165229, 0.00479383, 0.00149438, 5.51422e-05, 9.76775e-05, 0.000491011
-0.00962684, 0.00141157, -0.586543, 1.64655e-05, 0.000144087, -0.00128631, 0.0164884, 0.00479341, 0.00148772, 5.50981e-05, 9.72109e-05, 0.000489887
-0.0100294, 0.00136724, -0.586507, 1.81725e-05, 0.000143304, -0.00128071, 0.0163885, 0.00478999, 0.00147595, 5.48348e-05, 9.68317e-05, 0.000488798
-0.0104385, 0.00132176, -0.58647, 1.97421e-05, 0.000142804, -0.00127634, 0.0162853, 0.00478623, 0.001464, 5.45693e-05, 9.64474e-05, 0.000487704
-0.0107816, 0.00128169, -0.586439, 2.10735e-05, 0.000142381, -0.00127257, 0.016179, 0.00478214, 0.00145187, 5.43022e-05, 9.6058e-05, 0.000486605
-0.0108363, 0.00127061, -0.586435, 2.12871e-05, 0.000141862, -0.00126967, 0.0161395, 0.00478166, 0.00144493, 5.42681e-05, 9.56429e-05, 0.000485434
-0.0111154, 0.00123591, -0.586411, 2.23572e-05, 0.000141601, -0.00126681, 0.0160345, 0.00477732, 0.00143316, 5.40026e-05, 9.52614e-05, 0.000484354
-0.0114259, 0.00119716, -0.586382, 2.33236e-05, 0.000141767, -0.00126562, 0.0159276, 0.00477271, 0.00142132, 5.37364e-05, 9.48753e-05, 0.000483269
-0.0116659, 0.00116498, -0.586361, 2.41016e-05, 0.000141899, -0.00126457, 0.0158187, 0.00476782, 0.00140938, 5.34696e-05, 9.44842e-05, 0.000482176
-0.011567, 0.00115615, -0.586376, 2.40934e-05, 0.000141625, -0.00126081, 0.0157772, 0.00476725, 0.00140249, 5.34435e-05, 9.40656e-05, 0.000480852
-0.0116936, 0.00113605, -0.586366, 2.46308e-05, 0.000141568, -0.00125943, 0.0156712, 0.00476223, 0.00139104, 5.31787e-05, 9.36842e-05, 0.00047978
-0.0118902, 0.00110742, -0.586349, 2.52358e-05, 0.000141816, -0.00125899, 0.0155647, 0.00475706, 0.00137963, 5.29143e-05, 9.32999e-05, 0.000478704
-0.0121135, 0.00107477, -0.58633, 2.58935e-05, 0.000142145, -0.00125874, 0.0154564, 0.00475162, 0.00136815, 5.26489e-05, 9.29123e-05, 0.000477623
-0.0119634, 0.00106954, -0.58635, 2.58472e-05, 0.000141751, -0.00125391, 0.015416, 0.00475095, 0.00136167, 5.2629e-05, 9.245e-05, 0.000476039
-0.0120387, 0.00105262, -0.586346, 2.62786e-05, 0.000141689, -0.00125257, 0.01531, 0.00474534, 0.00135064, 5.23635e-05, 9.20756e-05, 0.000474985
-0.0120705, 0.0010397, -0.586347, 2.66828e-05, 0.000141467, -0.00125069, 0.0152041, 0.00473962, 0.00133968, 5.20974e-05, 9.1701e-05, 0.00047393
-0.0121911, 0.00101624, -0.586339, 2.71335e-05, 0.000141673, -0.00125023, 0.0150974, 0.00473373, 0.00132875, 5.18303e-05, 9.13264e-05, 0.000472875
-0.0120564, 0.00101675, -0.586356, 2.7111e-05, 0.00014125, -0.00124546, 0.0150611, 0.00473293, 0.0013231, 5.18128e-05, 9.077e-05, 0.000470908
-0.0120935, 0.00100206, -0.586356, 2.74538e-05, 0.000141215, -0.0012443, 0.0149573, 0.00472692, 0.00131263, 5.15446e-05, 9.0413e-05, 0.000469887
-0.0120687, 0.000994435, -0.586362, 2.76313e-05, 0.000141174, -0.0012434, 0.0148539, 0.00472083, 0.00130227, 5.12764e-05, 9.00561e-05, 0.000468866
-0.0122256, 0.000967246, -0.58635, 2.7982e-05, 0.000141802, -0.00124461, 0.0147504, 0.0047146, 0.00129197, 5.10086e-05, 8.96981e-05, 0.000467842
-0.0120063, 0.00096944, -0.586377, 2.79837e-05, 0.000140841, -0.00123675, 0.0147192, 0.00471367, 0.00128718, 5.09877e-05, 8.90279e-05, 0.000465468
-0.0121405, 0.000943262, -0.586367, 2.83497e-05, 0.000141311, -0.00123731, 0.0146171, 0.00470719, 0.0012772, 5.07175e-05, 8.8687e-05, 0.000464475
-0.0121588, 0.000927943, -0.586369, 2.85869e-05, 0.000141458, -0.00123691, 0.0145141, 0.00470045, 0.00126722, 5.04467e-05, 8.83428e-05, 0.000463475
-0.012209, 0.00091141, -0.586367, 2.87661e-05, 0.000141833, -0.00123745, 0.0144106, 0.00469347, 0.00125731, 5.0176e-05, 8.79957e-05, 0.00046247
-0.0119081, 0.00092043, -0.586402, 2.89118e-05, 0.000139771, -0.00122447, 0.0143857, 0.00469243, 0.00125359, 5.01435e-05, 8.7114e-05, 0.000459404
-0.0119909, 0.000902352, -0.586396, 2.90387e-05, 0.000140395, -0.00122599, 0.0142841, 0.00468519, 0.00124402, 4.98704e-05, 8.67886e-05, 0.000458436
-0.0120054, 0.000891057, -0.586397, 2.90633e-05, 0.000140893, -0.00122724, 0.014182, 0.00467764, 0.00123452, 4.95992e-05, 8.64586e-05, 0.000457463
-0.0120264, 0.000883057, -0.586397, 2.89949e-05, 0.000141529, -0.00122921, 0.0140796, 0.00466979, 0.0012251, 4.93307e-05, 8.61239e-05, 0.000456483
-0.0118647, 0.000898834, -0.586414, 2.89215e-05, 0.000141271, -0.00122464, 0.01406, 0.00466865, 0.00122226, 4.92843e-05, 8.50801e-05, 0.000452973
-0.0118143, 0.000900028, -0.58642, 2.86918e-05, 0.000141868, -0.00122677, 0.0139599, 0.00466063, 0.0012132, 4.90173e-05, 8.47698e-05, 0.000452044
-0.0116697, 0.00091478, -0.586434, 2.82217e-05, 0.000142467, -0.00122937, 0.0138613, 0.00465251, 0.00120434, 4.87563e-05, 8.44547e-05, 0.000451111
-0.0115225, 0.000933398, -0.586447, 2.76664e-05, 0.000143183, -0.00123259, 0.0137646, 0.0046444, 0.00119569, 4.85022e-05, 8.41349e-05, 0.000450174
-0.011311, 0.000953118, -0.586469, 2.77163e-05, 0.000142123, -0.0012244, 0.0137482, 0.00464319, 0.00119341, 4.84427e-05, 8.29584e-05, 0.000446313
-0.011228, 0.000967007, -0.586475, 2.72135e-05, 0.000143013, -0.00122814, 0.0136544, 0.0046351, 0.0011851, 4.81931e-05, 8.26654e-05, 0.000445436
-0.0109826, 0.00100618, -0.586495, 2.62669e-05, 0.000143995, -0.00123307, 0.0135621, 0.00462699, 0.00117698, 4.7951e-05, 8.23667e-05, 0.000444557
-0.0107003, 0.00105496, -0.586517, 2.51651e-05, 0.00014503, -0.00123857, 0.0134728, 0.00461911, 0.00116911, 4.7718e-05, 8.20632e-05, 0.000443676
-0.0105019, 0.00108601, -0.586536, 2.51015e-05, 0.000144644, -0.00123352, 0.0134576, 0.00461789, 0.00116708, 4.76534e-05, 8.08514e-05, 0.000439773
-0.0101666, 0.0011462, -0.586562, 2.38131e-05, 0.000145722, -0.0012396, 0.0133725, 0.00461038, 0.00115958, 4.74283e-05, 8.05753e-05, 0.000438957
-0.00976353, 0.00121613, -0.586593, 2.2362e-05, 0.000146808, -0.00124603, 0.0132905, 0.00460325, 0.00115233, 4.7212e-05, 8.02951e-05, 0.000438141
-0.00936252, 0.00128647, -0.586624, 2.08951e-05, 0.000147915, -0.00125256, 0.0132118, 0.00459654, 0.00114531, 4.70039e-05, 8.00116e-05, 0.000437325
-0.00911969, 0.00131399, -0.586648, 2.09891e-05, 0.000146498, -0.00124286, 0.0131961, 0.00459536, 0.00114326, 4.6945e-05, 7.88875e-05, 0.000433759
-0.00876847, 0.00138048, -0.586673, 1.95668e-05, 0.000147673, -0.00124963, 0.0131206, 0.00458901, 0.00113651, 4.67422e-05, 7.86277e-05, 0.000432996
-0.00837555, 0.00145217, -0.586703, 1.80476e-05, 0.000148869, -0.00125663, 0.0130467, 0.0045829, 0.00112989, 4.65444e-05, 7.83638e-05, 0.000432229
-0.00802673, 0.00151825, -0.586728, 1.65817e-05, 0.000150161, -0.00126384, 0.0129738, 0.00457698, 0.00112335, 4.63504e-05, 7.80957e-05, 0.000431457
-0.00780995, 0.00155168, -0.586748, 1.66019e-05, 0.000149243, -0.00125669, 0.0129562, 0.00457578, 0.00112112, 4.63012e-05, 7.71033e-05, 0.000428348
-0.00745325, 0.00162007, -0.586774, 1.50683e-05, 0.000150608, -0.0012643, 0.0128848, 0.00457002, 0.00111472, 4.61093e-05, 7.68541e-05, 0.000427616
-0.00710937, 0.00168947, -0.586797, 1.34959e-05, 0.00015201, -0.00127219, 0.0128133, 0.00456429, 0.00110833, 4.59193e-05, 7.66004e-05, 0.000426878
-0.00669647, 0.0017705, -0.586826, 1.16855e-05, 0.000153533, -0.00128097, 0.0127416, 0.0045586, 0.00110192, 4.57306e-05, 7.63422e-05, 0.000426131
-0.00646636, 0.00180561, -0.586847, 1.1743e-05, 0.000152312, -0.00127271, 0.0127213, 0.00455737, 0.00109942, 4.56899e-05, 7.54668e-05, 0.000423401
-0.00606056, 0.00188757, -0.586875, 9.81723e-06, 0.000153991, -0.00128236, 0.012651, 0.00455184, 0.00109314, 4.55021e-05, 7.5224e-05, 0.000422682
-0.00567032, 0.00196804, -0.5869, 7.81674e-06, 0.000155791, -0.00129262, 0.01258, 0.0045463, 0.00108678, 4.53146e-05, 7.49762e-05, 0.000421952
-0.00517878, 0.00206306, -0.586933, 5.46725e-06, 0.000157795, -0.00130425, 0.0125083, 0.00454077, 0.00108035, 4.51268e-05, 7.47225e-05, 0.000421207
-0.00488557, 0.00209609, -0.586962, 5.55188e-06, 0.000155994, -0.00129312, 0.0124829, 0.0045395, 0.00107718, 4.50959e-05, 7.4036e-05, 0.000419029
-0.0044977, 0.00217431, -0.586986, 3.22181e-06, 0.000158268, -0.0013058, 0.0124126, 0.00453408, 0.00107084, 4.49076e-05, 7.37908e-05, 0.00041829
-0.00403983, 0.00226085, -0.587016, 6.51964e-07, 0.000160638, -0.00131929, 0.0123411, 0.00452857, 0.00106436, 4.47183e-05, 7.35379e-05, 0.000417531
-0.00363981, 0.00233382, -0.587042, -1.87089e-06, 0.000163112, -0.00133309, 0.0122691, 0.00452306, 0.00105775, 4.45276e-05, 7.32762e-05, 0.000416746
-0.00336919, 0.00236468, -0.587069, -1.8605e-06, 0.00016185, -0.00132448, 0.0122365, 0.00452182, 0.00105358, 4.45023e-05, 7.27646e-05, 0.000415082
-0.0030597, 0.00241876, -0.587087, -4.25386e-06, 0.000164457, -0.00133856, 0.0121655, 0.0045163, 0.00104703, 4.43102e-05, 7.25045e-05, 0.000414284
-0.00281547, 0.00245908, -0.5871, -6.5276e-06, 0.000167062, -0.00135244, 0.0120926, 0.00451063, 0.00104027, 4.41159e-05, 7.22334e-05, 0.000413455
-0.00259279, 0.00249324, -0.587113, -8.65907e-06, 0.000169526, -0.0013655, 0.0120177, 0.00450479, 0.00103327, 4.3919e-05, 7.19508e-05, 0.000412595
-0.00244239, 0.00251249, -0.587128, -8.62508e-06, 0.000168823, -0.00136014, 0.0119771, 0.00450371, 0.00102786, 4.38948e-05, 7.15592e-05, 0.000411302
-0.00210187, 0.00256686, -0.587152, -1.07843e-05, 0.000170887, -0.00137192, 0.0119041, 0.00449792, 0.00102104, 4.36976e-05, 7.12762e-05, 0.000410424
-0.00190306, 0.00259536, -0.587163, -1.26874e-05, 0.000173036, -0.00138348, 0.0118305, 0.00449217, 0.00101411, 4.34987e-05, 7.09831e-05, 0.00040952
-0.00179354, 0.00260858, -0.587167, -1.43041e-05, 0.000175023, -0.00139394, 0.011755, 0.00448626, 0.00100699, 4.32979e-05, 7.06796e-05, 0.000408588
-0.0016697, 0.00262314, -0.58718, -1.42576e-05, 0.000174355, -0.00138899, 0.0117066, 0.00448521, 0.00100027, 4.3271e-05, 7.03514e-05, 0.000407607
-0.00151894, 0.00264415, -0.587189, -1.5779e-05, 0.000176053, -0.00139827, 0.0116332, 0.00447932, 0.000993419, 4.30714e-05, 7.00494e-05, 0.000406666
-0.00147334, 0.00264849, -0.587189, -1.68692e-05, 0.000177417, -0.00140552, 0.0115585, 0.00447334, 0.000986448, 4.2871e-05, 6.97404e-05, 0.00040571
-0.00154566, 0.00263395, -0.587179, -1.75254e-05, 0.000178466, -0.00141078, 0.0114816, 0.00446718, 0.000979332, 4.26703e-05, 6.94264e-05, 0.000404748
-0.00123718, 0.00265685, -0.587211, -1.76422e-05, 0.000178013, -0.00140473, 0.0114282, 0.00446644, 0.000971665, 4.26425e-05, 6.90991e-05, 0.000403889
-0.00127754, 0.00265006, -0.587206, -1.79744e-05, 0.00017843, -0.00140704, 0.0113536, 0.00446027, 0.0009649, 4.24457e-05, 6.87947e-05, 0.00040294
-0.00126551, 0.00265431, -0.587206, -1.80483e-05, 0.000178263, -0.00140673, 0.0112782, 0.00445409, 0.000958109, 4.22503e-05, 6.84914e-05, 0.000402002
-0.0012837, 0.00265403, -0.587204, -1.78881e-05, 0.000177815, -0.00140493, 0.0112025, 0.00444796, 0.000951335, 4.20572e-05, 6.81915e-05, 0.000401081
-0.00090663, 0.00268507, -0.587243, -1.8038e-05, 0.000177403, -0.00139853, 0.0111511, 0.00444721, 0.000943989, 4.20333e-05, 6.7867e-05, 0.000400263
-0.000955719, 0.00267844, -0.587239, -1.77432e-05, 0.000176893, -0.00139614, 0.0110788, 0.00444118, 0.000937666, 4.18454e-05, 6.75832e-05, 0.000399374
-0.000946564, 0.00268238, -0.587241, -1.73689e-05, 0.000176031, -0.00139235, 0.0110061, 0.00443513, 0.00093139, 4.16604e-05, 6.73043e-05, 0.000398508
-0.000930485, 0.00268746, -0.587244, -1.69465e-05, 0.000175047, -0.00138803, 0.0109335, 0.0044291, 0.000925181, 4.14785e-05, 6.70307e-05, 0.000397666
-0.000722456, 0.00270692, -0.587265, -1.69377e-05, 0.000174359, -0.0013823, 0.0108861, 0.00442823, 0.000918516, 4.14589e-05, 6.67145e-05, 0.000396865
-0.000660072, 0.002719, -0.587273, -1.64787e-05, 0.000173178, -0.00137717, 0.0108176, 0.00442236, 0.000912796, 4.12825e-05, 6.6458e-05, 0.000396058
-0.00058929, 0.00273114, -0.587282, -1.59202e-05, 0.00017181, -0.00137114, 0.0107498, 0.00441655, 0.000907184, 4.11092e-05, 6.6207e-05, 0.000395273
-0.00048981, 0.00274693, -0.587295, -1.53584e-05, 0.000170336, -0.00136472, 0.0106829, 0.00441084, 0.000901693, 4.0939e-05, 6.59617e-05, 0.00039451
-0.000345184, 0.00276292, -0.587309, -1.52996e-05, 0.000169578, -0.00135951, 0.0106403, 0.0044097, 0.000895815, 4.09226e-05, 6.56501e-05, 0.00039372
-0.000282194, 0.00277119, -0.587319, -1.47153e-05, 0.000168219, -0.00135343, 0.0105778, 0.0044042, 0.000890797, 4.07573e-05, 6.54204e-05, 0.00039299
-0.000224593, 0.00277711, -0.587329, -1.40931e-05, 0.000166828, -0.00134716, 0.010516, 0.00439874, 0.000885877, 4.05949e-05, 6.51948e-05, 0.000392277
-0.00011295, 0.00279228, -0.587344, -1.36047e-05, 0.000165409, -0.00134114, 0.0104554, 0.00439336, 0.000881068, 4.04353e-05, 6.49728e-05, 0.000391581
9.98292e-05, 0.00281779, -0.587365, -1.35972e-05, 0.000164776, -0.00133592, 0.0104172, 0.00439189, 0.000875826, 4.042e-05, 6.46525e-05, 0.000390805
0.000158779, 0.00282383, -0.587374, -1.31318e-05, 0.000163588, -0.00133076, 0.0103606, 0.00438673, 0.000871422, 4.02646e-05, 6.44436e-05, 0.000390136
0.000234219, 0.00283229, -0.587385, -1.27303e-05, 0.000162452, -0.00132593, 0.0103048, 0.00438162, 0.000867096, 4.01118e-05, 6.42363e-05, 0.000389478
0.000322803, 0.00284191, -0.587397, -1.23433e-05, 0.000161298, -0.00132108, 0.0102503, 0.00437659, 0.000862862, 3.99615e-05, 6.40301e-05, 0.000388828
0.000520165, 0.0028698, -0.587416, -1.23256e-05, 0.000160646, -0.0013162, 0.0102174, 0.0043746, 0.000858477, 3.99478e-05, 6.37138e-05, 0.000388052
